FANN_FLO_2.1
num_layers=3
learning_rate=0.700000
connection_rate=1.000000
network_type=0
learning_momentum=0.000000
training_algorithm=2
train_error_function=1
train_stop_function=0
cascade_output_change_fraction=0.010000
quickprop_decay=-0.000100
quickprop_mu=1.750000
rprop_increase_factor=1.200000
rprop_decrease_factor=0.500000
rprop_delta_min=0.000000
rprop_delta_max=50.000000
rprop_delta_zero=0.100000
cascade_output_stagnation_epochs=12
cascade_candidate_change_fraction=0.010000
cascade_candidate_stagnation_epochs=12
cascade_max_out_epochs=150
cascade_min_out_epochs=50
cascade_max_cand_epochs=150
cascade_min_cand_epochs=50
cascade_num_candidate_groups=2
bit_fail_limit=3.49999994039535522461e-01
cascade_candidate_limit=1.00000000000000000000e+03
cascade_weight_multiplier=4.00000005960464477539e-01
cascade_activation_functions_count=10
cascade_activation_functions=3 5 7 8 10 11 14 15 16 17 
cascade_activation_steepnesses_count=4
cascade_activation_steepnesses=2.50000000000000000000e-01 5.00000000000000000000e-01 7.50000000000000000000e-01 1.00000000000000000000e+00 
layer_sizes=257 129 2 
scale_included=0
neurons (num_inputs, activation_function, activation_steepness)=(0, 0, 0.00000000000000000000e+00) (0, 0, 0.00000000000000000000e+00) (0, 0, 0.00000000000000000000e+00) (0, 0, 0.00000000000000000000e+00) (0, 0, 0.00000000000000000000e+00) (0, 0, 0.00000000000000000000e+00) (0, 0, 0.00000000000000000000e+00) (0, 0, 0.00000000000000000000e+00) (0, 0, 0.00000000000000000000e+00) (0, 0, 0.00000000000000000000e+00) (0, 0, 0.00000000000000000000e+00) (0, 0, 0.00000000000000000000e+00) (0, 0, 0.00000000000000000000e+00) (0, 0, 0.00000000000000000000e+00) (0, 0, 0.00000000000000000000e+00) (0, 0, 0.00000000000000000000e+00) (0, 0, 0.00000000000000000000e+00) (0, 0, 0.00000000000000000000e+00) (0, 0, 0.00000000000000000000e+00) (0, 0, 0.00000000000000000000e+00) (0, 0, 0.00000000000000000000e+00) (0, 0, 0.00000000000000000000e+00) (0, 0, 0.00000000000000000000e+00) (0, 0, 0.00000000000000000000e+00) (0, 0, 0.00000000000000000000e+00) (0, 0, 0.00000000000000000000e+00) (0, 0, 0.00000000000000000000e+00) (0, 0, 0.00000000000000000000e+00) (0, 0, 0.00000000000000000000e+00) (0, 0, 0.00000000000000000000e+00) (0, 0, 0.00000000000000000000e+00) (0, 0, 0.00000000000000000000e+00) (0, 0, 0.00000000000000000000e+00) (0, 0, 0.00000000000000000000e+00) (0, 0, 0.00000000000000000000e+00) (0, 0, 0.00000000000000000000e+00) (0, 0, 0.00000000000000000000e+00) (0, 0, 0.00000000000000000000e+00) (0, 0, 0.00000000000000000000e+00) (0, 0, 0.00000000000000000000e+00) (0, 0, 0.00000000000000000000e+00) (0, 0, 0.00000000000000000000e+00) (0, 0, 0.00000000000000000000e+00) (0, 0, 0.00000000000000000000e+00) (0, 0, 0.00000000000000000000e+00) (0, 0, 0.00000000000000000000e+00) (0, 0, 0.00000000000000000000e+00) (0, 0, 0.00000000000000000000e+00) (0, 0, 0.00000000000000000000e+00) (0, 0, 0.00000000000000000000e+00) (0, 0, 0.00000000000000000000e+00) (0, 0, 0.00000000000000000000e+00) (0, 0, 0.00000000000000000000e+00) (0, 0, 0.00000000000000000000e+00) (0, 0, 0.00000000000000000000e+00) (0, 0, 0.00000000000000000000e+00) (0, 0, 0.00000000000000000000e+00) (0, 0, 0.00000000000000000000e+00) (0, 0, 0.00000000000000000000e+00) (0, 0, 0.00000000000000000000e+00) (0, 0, 0.00000000000000000000e+00) (0, 0, 0.00000000000000000000e+00) (0, 0, 0.00000000000000000000e+00) (0, 0, 0.00000000000000000000e+00) (0, 0, 0.00000000000000000000e+00) (0, 0, 0.00000000000000000000e+00) (0, 0, 0.00000000000000000000e+00) (0, 0, 0.00000000000000000000e+00) (0, 0, 0.00000000000000000000e+00) (0, 0, 0.00000000000000000000e+00) (0, 0, 0.00000000000000000000e+00) (0, 0, 0.00000000000000000000e+00) (0, 0, 0.00000000000000000000e+00) (0, 0, 0.00000000000000000000e+00) (0, 0, 0.00000000000000000000e+00) (0, 0, 0.00000000000000000000e+00) (0, 0, 0.00000000000000000000e+00) (0, 0, 0.00000000000000000000e+00) (0, 0, 0.00000000000000000000e+00) (0, 0, 0.00000000000000000000e+00) (0, 0, 0.00000000000000000000e+00) (0, 0, 0.00000000000000000000e+00) (0, 0, 0.00000000000000000000e+00) (0, 0, 0.00000000000000000000e+00) (0, 0, 0.00000000000000000000e+00) (0, 0, 0.00000000000000000000e+00) (0, 0, 0.00000000000000000000e+00) (0, 0, 0.00000000000000000000e+00) (0, 0, 0.00000000000000000000e+00) (0, 0, 0.00000000000000000000e+00) (0, 0, 0.00000000000000000000e+00) (0, 0, 0.00000000000000000000e+00) (0, 0, 0.00000000000000000000e+00) (0, 0, 0.00000000000000000000e+00) (0, 0, 0.00000000000000000000e+00) (0, 0, 0.00000000000000000000e+00) (0, 0, 0.00000000000000000000e+00) (0, 0, 0.00000000000000000000e+00) (0, 0, 0.00000000000000000000e+00) (0, 0, 0.00000000000000000000e+00) (0, 0, 0.00000000000000000000e+00) (0, 0, 0.00000000000000000000e+00) (0, 0, 0.00000000000000000000e+00) (0, 0, 0.00000000000000000000e+00) (0, 0, 0.00000000000000000000e+00) (0, 0, 0.00000000000000000000e+00) (0, 0, 0.00000000000000000000e+00) (0, 0, 0.00000000000000000000e+00) (0, 0, 0.00000000000000000000e+00) (0, 0, 0.00000000000000000000e+00) (0, 0, 0.00000000000000000000e+00) (0, 0, 0.00000000000000000000e+00) (0, 0, 0.00000000000000000000e+00) (0, 0, 0.00000000000000000000e+00) (0, 0, 0.00000000000000000000e+00) (0, 0, 0.00000000000000000000e+00) (0, 0, 0.00000000000000000000e+00) (0, 0, 0.00000000000000000000e+00) (0, 0, 0.00000000000000000000e+00) (0, 0, 0.00000000000000000000e+00) (0, 0, 0.00000000000000000000e+00) (0, 0, 0.00000000000000000000e+00) (0, 0, 0.00000000000000000000e+00) (0, 0, 0.00000000000000000000e+00) (0, 0, 0.00000000000000000000e+00) (0, 0, 0.00000000000000000000e+00) (0, 0, 0.00000000000000000000e+00) (0, 0, 0.00000000000000000000e+00) (0, 0, 0.00000000000000000000e+00) (0, 0, 0.00000000000000000000e+00) (0, 0, 0.00000000000000000000e+00) (0, 0, 0.00000000000000000000e+00) (0, 0, 0.00000000000000000000e+00) (0, 0, 0.00000000000000000000e+00) (0, 0, 0.00000000000000000000e+00) (0, 0, 0.00000000000000000000e+00) (0, 0, 0.00000000000000000000e+00) (0, 0, 0.00000000000000000000e+00) (0, 0, 0.00000000000000000000e+00) (0, 0, 0.00000000000000000000e+00) (0, 0, 0.00000000000000000000e+00) (0, 0, 0.00000000000000000000e+00) (0, 0, 0.00000000000000000000e+00) (0, 0, 0.00000000000000000000e+00) (0, 0, 0.00000000000000000000e+00) (0, 0, 0.00000000000000000000e+00) (0, 0, 0.00000000000000000000e+00) (0, 0, 0.00000000000000000000e+00) (0, 0, 0.00000000000000000000e+00) (0, 0, 0.00000000000000000000e+00) (0, 0, 0.00000000000000000000e+00) (0, 0, 0.00000000000000000000e+00) (0, 0, 0.00000000000000000000e+00) (0, 0, 0.00000000000000000000e+00) (0, 0, 0.00000000000000000000e+00) (0, 0, 0.00000000000000000000e+00) (0, 0, 0.00000000000000000000e+00) (0, 0, 0.00000000000000000000e+00) (0, 0, 0.00000000000000000000e+00) (0, 0, 0.00000000000000000000e+00) (0, 0, 0.00000000000000000000e+00) (0, 0, 0.00000000000000000000e+00) (0, 0, 0.00000000000000000000e+00) (0, 0, 0.00000000000000000000e+00) (0, 0, 0.00000000000000000000e+00) (0, 0, 0.00000000000000000000e+00) (0, 0, 0.00000000000000000000e+00) (0, 0, 0.00000000000000000000e+00) (0, 0, 0.00000000000000000000e+00) (0, 0, 0.00000000000000000000e+00) (0, 0, 0.00000000000000000000e+00) (0, 0, 0.00000000000000000000e+00) (0, 0, 0.00000000000000000000e+00) (0, 0, 0.00000000000000000000e+00) (0, 0, 0.00000000000000000000e+00) (0, 0, 0.00000000000000000000e+00) (0, 0, 0.00000000000000000000e+00) (0, 0, 0.00000000000000000000e+00) (0, 0, 0.00000000000000000000e+00) (0, 0, 0.00000000000000000000e+00) (0, 0, 0.00000000000000000000e+00) (0, 0, 0.00000000000000000000e+00) (0, 0, 0.00000000000000000000e+00) (0, 0, 0.00000000000000000000e+00) (0, 0, 0.00000000000000000000e+00) (0, 0, 0.00000000000000000000e+00) (0, 0, 0.00000000000000000000e+00) (0, 0, 0.00000000000000000000e+00) (0, 0, 0.00000000000000000000e+00) (0, 0, 0.00000000000000000000e+00) (0, 0, 0.00000000000000000000e+00) (0, 0, 0.00000000000000000000e+00) (0, 0, 0.00000000000000000000e+00) (0, 0, 0.00000000000000000000e+00) (0, 0, 0.00000000000000000000e+00) (0, 0, 0.00000000000000000000e+00) (0, 0, 0.00000000000000000000e+00) (0, 0, 0.00000000000000000000e+00) (0, 0, 0.00000000000000000000e+00) (0, 0, 0.00000000000000000000e+00) (0, 0, 0.00000000000000000000e+00) (0, 0, 0.00000000000000000000e+00) (0, 0, 0.00000000000000000000e+00) (0, 0, 0.00000000000000000000e+00) (0, 0, 0.00000000000000000000e+00) (0, 0, 0.00000000000000000000e+00) (0, 0, 0.00000000000000000000e+00) (0, 0, 0.00000000000000000000e+00) (0, 0, 0.00000000000000000000e+00) (0, 0, 0.00000000000000000000e+00) (0, 0, 0.00000000000000000000e+00) (0, 0, 0.00000000000000000000e+00) (0, 0, 0.00000000000000000000e+00) (0, 0, 0.00000000000000000000e+00) (0, 0, 0.00000000000000000000e+00) (0, 0, 0.00000000000000000000e+00) (0, 0, 0.00000000000000000000e+00) (0, 0, 0.00000000000000000000e+00) (0, 0, 0.00000000000000000000e+00) (0, 0, 0.00000000000000000000e+00) (0, 0, 0.00000000000000000000e+00) (0, 0, 0.00000000000000000000e+00) (0, 0, 0.00000000000000000000e+00) (0, 0, 0.00000000000000000000e+00) (0, 0, 0.00000000000000000000e+00) (0, 0, 0.00000000000000000000e+00) (0, 0, 0.00000000000000000000e+00) (0, 0, 0.00000000000000000000e+00) (0, 0, 0.00000000000000000000e+00) (0, 0, 0.00000000000000000000e+00) (0, 0, 0.00000000000000000000e+00) (0, 0, 0.00000000000000000000e+00) (0, 0, 0.00000000000000000000e+00) (0, 0, 0.00000000000000000000e+00) (0, 0, 0.00000000000000000000e+00) (0, 0, 0.00000000000000000000e+00) (0, 0, 0.00000000000000000000e+00) (0, 0, 0.00000000000000000000e+00) (0, 0, 0.00000000000000000000e+00) (0, 0, 0.00000000000000000000e+00) (0, 0, 0.00000000000000000000e+00) (0, 0, 0.00000000000000000000e+00) (0, 0, 0.00000000000000000000e+00) (0, 0, 0.00000000000000000000e+00) (0, 0, 0.00000000000000000000e+00) (0, 0, 0.00000000000000000000e+00) (0, 0, 0.00000000000000000000e+00) (0, 0, 0.00000000000000000000e+00) (0, 0, 0.00000000000000000000e+00) (0, 0, 0.00000000000000000000e+00) (0, 0, 0.00000000000000000000e+00) (0, 0, 0.00000000000000000000e+00) (0, 0, 0.00000000000000000000e+00) (0, 0, 0.00000000000000000000e+00) (0, 0, 0.00000000000000000000e+00) (0, 0, 0.00000000000000000000e+00) (0, 0, 0.00000000000000000000e+00) (257, 5, 5.00000000000000000000e-01) (257, 5, 5.00000000000000000000e-01) (257, 5, 5.00000000000000000000e-01) (257, 5, 5.00000000000000000000e-01) (257, 5, 5.00000000000000000000e-01) (257, 5, 5.00000000000000000000e-01) (257, 5, 5.00000000000000000000e-01) (257, 5, 5.00000000000000000000e-01) (257, 5, 5.00000000000000000000e-01) (257, 5, 5.00000000000000000000e-01) (257, 5, 5.00000000000000000000e-01) (257, 5, 5.00000000000000000000e-01) (257, 5, 5.00000000000000000000e-01) (257, 5, 5.00000000000000000000e-01) (257, 5, 5.00000000000000000000e-01) (257, 5, 5.00000000000000000000e-01) (257, 5, 5.00000000000000000000e-01) (257, 5, 5.00000000000000000000e-01) (257, 5, 5.00000000000000000000e-01) (257, 5, 5.00000000000000000000e-01) (257, 5, 5.00000000000000000000e-01) (257, 5, 5.00000000000000000000e-01) (257, 5, 5.00000000000000000000e-01) (257, 5, 5.00000000000000000000e-01) (257, 5, 5.00000000000000000000e-01) (257, 5, 5.00000000000000000000e-01) (257, 5, 5.00000000000000000000e-01) (257, 5, 5.00000000000000000000e-01) (257, 5, 5.00000000000000000000e-01) (257, 5, 5.00000000000000000000e-01) (257, 5, 5.00000000000000000000e-01) (257, 5, 5.00000000000000000000e-01) (257, 5, 5.00000000000000000000e-01) (257, 5, 5.00000000000000000000e-01) (257, 5, 5.00000000000000000000e-01) (257, 5, 5.00000000000000000000e-01) (257, 5, 5.00000000000000000000e-01) (257, 5, 5.00000000000000000000e-01) (257, 5, 5.00000000000000000000e-01) (257, 5, 5.00000000000000000000e-01) (257, 5, 5.00000000000000000000e-01) (257, 5, 5.00000000000000000000e-01) (257, 5, 5.00000000000000000000e-01) (257, 5, 5.00000000000000000000e-01) (257, 5, 5.00000000000000000000e-01) (257, 5, 5.00000000000000000000e-01) (257, 5, 5.00000000000000000000e-01) (257, 5, 5.00000000000000000000e-01) (257, 5, 5.00000000000000000000e-01) (257, 5, 5.00000000000000000000e-01) (257, 5, 5.00000000000000000000e-01) (257, 5, 5.00000000000000000000e-01) (257, 5, 5.00000000000000000000e-01) (257, 5, 5.00000000000000000000e-01) (257, 5, 5.00000000000000000000e-01) (257, 5, 5.00000000000000000000e-01) (257, 5, 5.00000000000000000000e-01) (257, 5, 5.00000000000000000000e-01) (257, 5, 5.00000000000000000000e-01) (257, 5, 5.00000000000000000000e-01) (257, 5, 5.00000000000000000000e-01) (257, 5, 5.00000000000000000000e-01) (257, 5, 5.00000000000000000000e-01) (257, 5, 5.00000000000000000000e-01) (257, 5, 5.00000000000000000000e-01) (257, 5, 5.00000000000000000000e-01) (257, 5, 5.00000000000000000000e-01) (257, 5, 5.00000000000000000000e-01) (257, 5, 5.00000000000000000000e-01) (257, 5, 5.00000000000000000000e-01) (257, 5, 5.00000000000000000000e-01) (257, 5, 5.00000000000000000000e-01) (257, 5, 5.00000000000000000000e-01) (257, 5, 5.00000000000000000000e-01) (257, 5, 5.00000000000000000000e-01) (257, 5, 5.00000000000000000000e-01) (257, 5, 5.00000000000000000000e-01) (257, 5, 5.00000000000000000000e-01) (257, 5, 5.00000000000000000000e-01) (257, 5, 5.00000000000000000000e-01) (257, 5, 5.00000000000000000000e-01) (257, 5, 5.00000000000000000000e-01) (257, 5, 5.00000000000000000000e-01) (257, 5, 5.00000000000000000000e-01) (257, 5, 5.00000000000000000000e-01) (257, 5, 5.00000000000000000000e-01) (257, 5, 5.00000000000000000000e-01) (257, 5, 5.00000000000000000000e-01) (257, 5, 5.00000000000000000000e-01) (257, 5, 5.00000000000000000000e-01) (257, 5, 5.00000000000000000000e-01) (257, 5, 5.00000000000000000000e-01) (257, 5, 5.00000000000000000000e-01) (257, 5, 5.00000000000000000000e-01) (257, 5, 5.00000000000000000000e-01) (257, 5, 5.00000000000000000000e-01) (257, 5, 5.00000000000000000000e-01) (257, 5, 5.00000000000000000000e-01) (257, 5, 5.00000000000000000000e-01) (257, 5, 5.00000000000000000000e-01) (257, 5, 5.00000000000000000000e-01) (257, 5, 5.00000000000000000000e-01) (257, 5, 5.00000000000000000000e-01) (257, 5, 5.00000000000000000000e-01) (257, 5, 5.00000000000000000000e-01) (257, 5, 5.00000000000000000000e-01) (257, 5, 5.00000000000000000000e-01) (257, 5, 5.00000000000000000000e-01) (257, 5, 5.00000000000000000000e-01) (257, 5, 5.00000000000000000000e-01) (257, 5, 5.00000000000000000000e-01) (257, 5, 5.00000000000000000000e-01) (257, 5, 5.00000000000000000000e-01) (257, 5, 5.00000000000000000000e-01) (257, 5, 5.00000000000000000000e-01) (257, 5, 5.00000000000000000000e-01) (257, 5, 5.00000000000000000000e-01) (257, 5, 5.00000000000000000000e-01) (257, 5, 5.00000000000000000000e-01) (257, 5, 5.00000000000000000000e-01) (257, 5, 5.00000000000000000000e-01) (257, 5, 5.00000000000000000000e-01) (257, 5, 5.00000000000000000000e-01) (257, 5, 5.00000000000000000000e-01) (257, 5, 5.00000000000000000000e-01) (257, 5, 5.00000000000000000000e-01) (257, 5, 5.00000000000000000000e-01) (257, 5, 5.00000000000000000000e-01) (0, 5, 0.00000000000000000000e+00) (129, 5, 5.00000000000000000000e-01) (0, 5, 0.00000000000000000000e+00) 
connections (connected_to_neuron, weight)=(0, 1.73147654533386230469e+00) (1, 5.45436024665832519531e-01) (2, 6.58792912960052490234e-01) (3, 3.76215547323226928711e-01) (4, 3.36313247680664062500e-01) (5, 4.58631247282028198242e-01) (6, 8.99093031883239746094e-01) (7, 7.63610124588012695312e-01) (8, 7.78006732463836669922e-01) (9, 2.12264108657836914062e+00) (10, 2.70468652248382568359e-01) (11, 5.36414802074432373047e-01) (12, 5.19012570381164550781e-01) (13, 3.88433367013931274414e-01) (14, 1.41482532024383544922e+00) (15, 4.00912344455718994141e-01) (16, 1.80402803421020507812e+00) (17, 8.94579291343688964844e-01) (18, 4.34299230575561523438e-01) (19, 6.54260218143463134766e-01) (20, 1.12898349761962890625e+00) (21, 8.84260952472686767578e-01) (22, 3.78445267677307128906e-01) (23, 1.38348042964935302734e+00) (24, 4.11378473043441772461e-01) (25, 3.56342524290084838867e-01) (26, 7.96474218368530273438e-01) (27, 4.62381601333618164062e-01) (28, 5.30783772468566894531e-01) (29, 8.88786315917968750000e-01) (30, 1.07513558864593505859e+00) (31, 6.39582097530364990234e-01) (32, 1.48199009895324707031e+00) (33, 3.68528187274932861328e-01) (34, 2.38153949379920959473e-01) (35, -6.46688342094421386719e-01) (36, 8.58831048011779785156e-01) (37, 4.43787962198257446289e-01) (38, 1.47383964061737060547e+00) (39, 7.96519994735717773438e-01) (40, 2.47452569007873535156e+00) (41, 3.84796708822250366211e-01) (42, 1.55134248733520507812e+00) (43, 7.04597234725952148438e-01) (44, -4.17276889085769653320e-01) (45, 3.29885542392730712891e-01) (46, 6.89473509788513183594e-01) (47, 1.55249392986297607422e+00) (48, 4.92707610130310058594e-01) (49, 5.10280847549438476562e-01) (50, 5.65477669239044189453e-01) (51, 4.46891784667968750000e-01) (52, 4.73535299301147460938e-01) (53, 4.96980965137481689453e-01) (54, 2.81145483255386352539e-01) (55, 6.23750388622283935547e-01) (56, 1.22009646892547607422e+00) (57, 6.56225621700286865234e-01) (58, 6.22201263904571533203e-01) (59, 5.10463535785675048828e-01) (60, 2.68622606992721557617e-01) (61, 1.25315725803375244141e+00) (62, 5.38802325725555419922e-01) (63, 4.14259523153305053711e-01) (64, 1.32194116711616516113e-01) (65, 5.11189818382263183594e-01) (66, 1.24900698661804199219e+00) (67, 5.04609048366546630859e-01) (68, 7.05903470516204833984e-01) (69, 5.90551555156707763672e-01) (70, 3.83983522653579711914e-01) (71, 8.99306356906890869141e-01) (72, 1.26879215240478515625e+00) (73, 3.02183955907821655273e-01) (74, 5.43013095855712890625e-01) (75, 1.18230640888214111328e+00) (76, 3.41055661439895629883e-01) (77, 7.68444597721099853516e-01) (78, 6.33005201816558837891e-01) (79, 4.78756338357925415039e-01) (80, 4.94676858186721801758e-01) (81, 2.06902265548706054688e+00) (82, 4.44318115711212158203e-01) (83, 3.35676848888397216797e-01) (84, 2.94414460659027099609e-01) (85, 7.89092600345611572266e-01) (86, 1.48586320877075195312e+00) (87, 2.58819550275802612305e-01) (88, 7.28914022445678710938e-01) (89, 4.11067098379135131836e-01) (90, 1.40901422500610351562e+00) (91, 1.19565141201019287109e+00) (92, 1.78629183769226074219e+00) (93, 1.81663823127746582031e+00) (94, 1.10087513923645019531e+00) (95, 7.25472629070281982422e-01) (96, 1.26818692684173583984e+00) (97, 4.67156738042831420898e-01) (98, 7.26096272468566894531e-01) (99, 4.88191068172454833984e-01) (100, 7.55387604236602783203e-01) (101, 4.38058584928512573242e-01) (102, 8.06549251079559326172e-01) (103, 1.48266661167144775391e+00) (104, 4.81840521097183227539e-01) (105, 4.03201758861541748047e-01) (106, 2.47207209467887878418e-01) (107, 2.07072162628173828125e+00) (108, 4.25561761856079101562e+00) (109, 8.23155462741851806641e-01) (110, 1.63224959373474121094e+00) (111, 1.40465664863586425781e+00) (112, 8.01236867904663085938e-01) (113, 8.25922131538391113281e-01) (114, 5.12877166271209716797e-01) (115, 3.51750463247299194336e-01) (116, 4.71706449985504150391e-01) (117, 5.72096109390258789062e-01) (118, 6.37544929981231689453e-01) (119, 2.58286380767822265625e+00) (120, 6.65927231311798095703e-01) (121, 2.06414866447448730469e+00) (122, 1.71826636791229248047e+00) (123, 6.49228572845458984375e-01) (124, 2.23700761795043945312e+00) (125, 3.67441534996032714844e-01) (126, 4.01082247495651245117e-01) (127, 1.86873003840446472168e-01) (128, 2.22477746009826660156e+00) (129, 7.68073141574859619141e-01) (130, 5.43957889080047607422e-01) (131, 7.84838974475860595703e-01) (132, 4.91958767175674438477e-01) (133, 6.88164830207824707031e-01) (134, 1.34602475166320800781e+00) (135, 3.71487557888031005859e-01) (136, 9.48786139488220214844e-01) (137, 1.41433584690093994141e+00) (138, 3.97088199853897094727e-01) (139, 1.76719272136688232422e+00) (140, 5.02553367614746093750e+00) (141, 1.77785623073577880859e+00) (142, 8.79136860370635986328e-01) (143, 1.25423920154571533203e+00) (144, 2.14239552617073059082e-01) (145, 8.50286602973937988281e-01) (146, 8.42281997203826904297e-01) (147, 1.07764136791229248047e+00) (148, 5.73408079147338867188e+00) (149, 7.77830004692077636719e-01) (150, 2.71264219284057617188e+00) (151, 1.84093070030212402344e+00) (152, 6.53214216232299804688e-01) (153, 3.25620055198669433594e-01) (154, 5.83076834678649902344e-01) (155, 7.20370650291442871094e-01) (156, 1.93500542640686035156e+00) (157, 3.52613896131515502930e-01) (158, 3.90064924955368041992e-01) (159, 8.46383988857269287109e-01) (160, 4.96789246797561645508e-01) (161, 1.18056082725524902344e+00) (162, 4.18844163417816162109e-01) (163, 6.11621558666229248047e-01) (164, 3.89105498790740966797e-01) (165, 3.69512557983398437500e-01) (166, 1.00232255458831787109e+00) (167, 5.73161602020263671875e-01) (168, 1.73569369316101074219e+00) (169, 5.87514400482177734375e-01) (170, 5.31751275062561035156e-01) (171, 8.67909193038940429688e-01) (172, 1.41716706752777099609e+00) (173, 4.00524407625198364258e-01) (174, 6.02394878864288330078e-01) (175, 1.89635574817657470703e+00) (176, 1.76353871822357177734e+00) (177, 2.65281820297241210938e+00) (178, 2.97920078039169311523e-01) (179, 4.75485682487487792969e-01) (180, 1.22396051883697509766e+00) (181, 6.76561117172241210938e-01) (182, 1.04747307300567626953e+00) (183, 1.82526969909667968750e+00) (184, 5.06882071495056152344e-01) (185, 8.03899168968200683594e-01) (186, 3.81487101316452026367e-01) (187, 1.94972217082977294922e-01) (188, 7.87142336368560791016e-01) (189, 1.18566918373107910156e+00) (190, 1.30303192138671875000e+00) (191, 7.71972417831420898438e-01) (192, 1.61227071285247802734e+00) (193, 6.57049238681793212891e-01) (194, 8.61891090869903564453e-01) (195, 6.15033268928527832031e-01) (196, -2.80790954828262329102e-01) (197, 2.83725917339324951172e-01) (198, 1.65806269645690917969e+00) (199, -5.01301102340221405029e-02) (200, 4.09566313028335571289e-01) (201, 8.01776349544525146484e-01) (202, 4.26435232162475585938e-01) (203, 3.43084573745727539062e-01) (204, 7.59195029735565185547e-01) (205, 6.37146234512329101562e-01) (206, 5.75830638408660888672e-01) (207, 3.06659072637557983398e-01) (208, 9.16862726211547851562e-01) (209, 6.38848602771759033203e-01) (210, 7.21266686916351318359e-01) (211, 2.16867613792419433594e+00) (212, 1.81364572048187255859e+00) (213, 5.45140445232391357422e-01) (214, 9.59186136722564697266e-01) (215, 2.45406508445739746094e+00) (216, 5.26604592800140380859e-01) (217, 6.34899497032165527344e-01) (218, 4.29104137420654296875e+00) (219, 8.56001257896423339844e-01) (220, 8.18045258522033691406e-01) (221, 1.39100933074951171875e+00) (222, 3.95415544509887695312e-01) (223, 5.09810268878936767578e-01) (224, 5.51602244377136230469e-01) (225, 3.74898433685302734375e-01) (226, 1.03648781776428222656e+00) (227, 9.40364420413970947266e-01) (228, 1.06316816806793212891e+00) (229, 1.39494073390960693359e+00) (230, 9.52861964702606201172e-01) (231, 9.43755865097045898438e-01) (232, 6.56936049461364746094e-01) (233, 1.35503327846527099609e+00) (234, 1.18166613578796386719e+00) (235, 1.13272488117218017578e+00) (236, 1.59958258271217346191e-01) (237, 1.49160408973693847656e+00) (238, 1.35921621322631835938e+00) (239, 1.06959378719329833984e+00) (240, 1.08703887462615966797e+00) (241, 1.08340108394622802734e+00) (242, 3.99150788784027099609e-01) (243, 5.65078079700469970703e-01) (244, 1.22380459308624267578e+00) (245, 2.37231993675231933594e+00) (246, 5.23654043674468994141e-01) (247, 6.80772602558135986328e-01) (248, 4.19648647308349609375e-01) (249, 7.32268512248992919922e-01) (250, 1.70354378223419189453e+00) (251, 1.66498792171478271484e+00) (252, 4.85109239816665649414e-01) (253, 2.23552495241165161133e-01) (254, 3.04009050130844116211e-01) (255, 7.64959871768951416016e-01) (256, 7.71812319755554199219e-01) (0, 2.47882634401321411133e-01) (1, 2.74744093418121337891e-01) (2, 8.85632574558258056641e-01) (3, 4.45621833205223083496e-02) (4, 6.45304858684539794922e-01) (5, 4.22361880540847778320e-01) (6, 8.53920876979827880859e-02) (7, 4.87248837947845458984e-01) (8, 1.07713174819946289062e+00) (9, 3.90135385096073150635e-02) (10, 5.84679186344146728516e-01) (11, 6.22669875621795654297e-01) (12, 3.88902842998504638672e-01) (13, -8.15911870449781417847e-03) (14, -7.84833580255508422852e-02) (15, 4.14934158325195312500e-01) (16, 5.70961758494377136230e-02) (17, 2.01213002204895019531e-01) (18, 3.94242227077484130859e-01) (19, 1.92040175199508666992e-01) (20, -4.93136141449213027954e-03) (21, 5.89317023754119873047e-01) (22, 9.62436795234680175781e-01) (23, -3.49310711026191711426e-02) (24, 4.01673078536987304688e-01) (25, 6.41337454319000244141e-01) (26, -3.05305927991867065430e-01) (27, 2.65616923570632934570e-01) (28, 4.78346824645996093750e-01) (29, 2.92470008134841918945e-01) (30, 7.14865624904632568359e-01) (31, 5.97135603427886962891e-01) (32, 3.10109615325927734375e-01) (33, 6.19067668914794921875e-01) (34, 4.40527796745300292969e-01) (35, 6.70625090599060058594e-01) (36, 2.14640855789184570312e-01) (37, 3.51988315582275390625e-01) (38, -5.89678883552551269531e-01) (39, 1.35500863194465637207e-01) (40, 2.88390189409255981445e-01) (41, 6.46808207035064697266e-01) (42, -3.21280539035797119141e-01) (43, 4.21887300908565521240e-02) (44, 2.85441465675830841064e-02) (45, 5.39551317691802978516e-01) (46, 5.95781624317169189453e-01) (47, -2.27336078882217407227e-01) (48, 7.18434274196624755859e-01) (49, 3.52014452219009399414e-01) (50, 5.54983377456665039062e-01) (51, 1.99655681848526000977e-01) (52, 6.46565198898315429688e-01) (53, 1.23260237276554107666e-01) (54, 7.68792569637298583984e-01) (55, 5.62976561486721038818e-02) (56, 9.47659432888031005859e-01) (57, 4.23198401927947998047e-01) (58, 7.79891014099121093750e-02) (59, 7.73653864860534667969e-01) (60, 1.10497415065765380859e-01) (61, 6.15014910697937011719e-01) (62, -3.61401945352554321289e-01) (63, 5.91204047203063964844e-01) (64, 1.04251302778720855713e-01) (65, 6.33162558078765869141e-01) (66, 5.54951429367065429688e-01) (67, 3.34600508213043212891e-01) (68, 4.14209753274917602539e-01) (69, -3.95027935504913330078e-01) (70, 8.73721480369567871094e-01) (71, 2.64245539903640747070e-01) (72, 1.10926616191864013672e+00) (73, 1.03209114074707031250e+00) (74, 3.47748994827270507812e-01) (75, 5.41175425052642822266e-01) (76, 7.75664269924163818359e-01) (77, 7.26254522800445556641e-01) (78, 1.87145009636878967285e-01) (79, 3.50254714488983154297e-01) (80, 1.70263089239597320557e-02) (81, 1.23804114758968353271e-01) (82, 4.38606679439544677734e-01) (83, 1.84867158532142639160e-01) (84, 3.56232911348342895508e-01) (85, 5.53825199604034423828e-01) (86, 4.77810263633728027344e-01) (87, 6.59089267253875732422e-01) (88, 1.91289037466049194336e-01) (89, 4.41921174526214599609e-01) (90, 4.52628225088119506836e-01) (91, 2.79185362160205841064e-03) (92, 4.18613582849502563477e-01) (93, -1.00987873971462249756e-01) (94, -5.72416841983795166016e-01) (95, -4.74988669157028198242e-02) (96, -2.94406283646821975708e-02) (97, 6.25107586383819580078e-01) (98, 1.03664886951446533203e+00) (99, 5.83954393863677978516e-01) (100, 9.15227413177490234375e-01) (101, 1.03022515773773193359e+00) (102, 4.14293855428695678711e-01) (103, 4.40011978149414062500e-01) (104, 1.48052364587783813477e-01) (105, -1.48625507950782775879e-01) (106, 6.38380229473114013672e-01) (107, 1.49644866585731506348e-01) (108, 3.22430431842803955078e-02) (109, 1.03333795070648193359e+00) (110, 1.60843193531036376953e-01) (111, 6.23949840664863586426e-02) (112, 3.76914143562316894531e-01) (113, 4.50674742460250854492e-01) (114, 5.29871694743633270264e-02) (115, -1.79747149348258972168e-01) (116, 2.11577504873275756836e-01) (117, 1.55023828148841857910e-01) (118, 5.43544590473175048828e-01) (119, 1.36991348117589950562e-02) (120, 5.59240400791168212891e-01) (121, 3.45720469951629638672e-01) (122, 1.90676171332597732544e-02) (123, -6.80847406387329101562e-01) (124, -2.42521747946739196777e-01) (125, 5.31874537467956542969e-01) (126, 2.19575285911560058594e-01) (127, 5.06631374359130859375e-01) (128, 7.93286681175231933594e-01) (129, 4.11663681268692016602e-01) (130, 3.50342750549316406250e-01) (131, 3.97062957286834716797e-01) (132, 4.61830273270606994629e-02) (133, 5.25597512722015380859e-01) (134, 2.45106741786003112793e-01) (135, 1.07634222507476806641e+00) (136, -1.00449271500110626221e-01) (137, -3.57682257890701293945e-02) (138, 2.30682194232940673828e-01) (139, 2.75947768241167068481e-02) (140, -1.08944941312074661255e-02) (141, -3.91338467597961425781e-02) (142, 1.15142159163951873779e-01) (143, 5.40215037763118743896e-02) (144, 9.91223216056823730469e-01) (145, 5.62465667724609375000e-01) (146, -1.29684191197156906128e-02) (147, 3.50603550672531127930e-01) (148, 3.79784256219863891602e-01) (149, 2.10084691643714904785e-02) (150, -3.68049740791320800781e-02) (151, 1.02899342775344848633e-01) (152, 1.84697076678276062012e-01) (153, 1.41264706850051879883e-01) (154, 3.84779065847396850586e-01) (155, 3.59273910522460937500e-01) (156, -6.76378235220909118652e-02) (157, 1.02706484496593475342e-01) (158, 5.27975022792816162109e-01) (159, -8.78039449453353881836e-02) (160, 5.21523766219615936279e-02) (161, 2.24421307444572448730e-01) (162, 5.65043509006500244141e-01) (163, 1.14295668900012969971e-01) (164, 1.77514702081680297852e-01) (165, 4.94663625955581665039e-01) (166, -3.62564325332641601562e-01) (167, 5.27731478214263916016e-01) (168, 3.22154343128204345703e-01) (169, 7.93209224939346313477e-02) (170, 3.16710621118545532227e-01) (171, 2.11145684123039245605e-01) (172, 3.29872488975524902344e-01) (173, 9.31029021739959716797e-02) (174, 1.27106502652168273926e-01) (175, 2.26005181670188903809e-01) (176, 9.83888134360313415527e-02) (177, 3.75236392021179199219e-01) (178, 1.14421121776103973389e-01) (179, 4.02796864509582519531e-01) (180, 1.02737493813037872314e-01) (181, 4.15254533290863037109e-01) (182, 1.90055772662162780762e-01) (183, 3.07813316583633422852e-01) (184, 4.53473657369613647461e-01) (185, 1.15630991756916046143e-01) (186, 2.85482138395309448242e-01) (187, 6.57231211662292480469e-01) (188, 4.11394685506820678711e-01) (189, 3.84648948907852172852e-01) (190, 7.37916767597198486328e-01) (191, 1.50283828377723693848e-01) (192, 1.23491428792476654053e-01) (193, -8.50511044263839721680e-02) (194, 4.40889149904251098633e-02) (195, 4.01426613330841064453e-01) (196, 2.20068216323852539062e-01) (197, 1.00858367979526519775e-01) (198, 6.73843026161193847656e-02) (199, 4.99582588672637939453e-01) (200, 6.06654286384582519531e-01) (201, 6.58925533294677734375e-01) (202, 4.18414533138275146484e-01) (203, 2.57909744977951049805e-01) (204, 1.98203787207603454590e-01) (205, 5.62717914581298828125e-02) (206, 4.03576493263244628906e-01) (207, 3.45491707324981689453e-01) (208, 4.68835264444351196289e-01) (209, 2.07417502999305725098e-01) (210, 1.84330716729164123535e-01) (211, 3.39936502277851104736e-02) (212, 6.20792806148529052734e-02) (213, -2.28096917271614074707e-01) (214, 6.18126317858695983887e-02) (215, 1.21915236115455627441e-01) (216, 1.21981389820575714111e-01) (217, 4.18069213628768920898e-01) (218, 2.02694103121757507324e-01) (219, 7.80676603317260742188e-02) (220, 8.25430974364280700684e-02) (221, -3.54347825050354003906e-02) (222, 2.56052076816558837891e-01) (223, 3.28753322362899780273e-01) (224, 5.32707512378692626953e-01) (225, 5.83207309246063232422e-01) (226, 5.70883154869079589844e-01) (227, 1.22744575142860412598e-01) (228, 2.16388836503028869629e-01) (229, 8.54139178991317749023e-02) (230, 5.57735264301300048828e-01) (231, 9.26099792122840881348e-02) (232, 2.85150557756423950195e-01) (233, 2.96716690063476562500e-01) (234, 2.29337140917778015137e-01) (235, 2.73482054471969604492e-01) (236, 4.16918337345123291016e-01) (237, 2.68197152763605117798e-02) (238, -3.54768872261047363281e-01) (239, -2.88269706070423126221e-02) (240, 2.75595903396606445312e-01) (241, -4.12463575601577758789e-01) (242, -1.77588582038879394531e-01) (243, 3.63612234592437744141e-01) (244, 5.18746197223663330078e-01) (245, -1.97971954941749572754e-01) (246, 3.75805199146270751953e-01) (247, 1.74577280879020690918e-01) (248, 4.98060345649719238281e-01) (249, 3.62706571817398071289e-01) (250, 3.17998118698596954346e-02) (251, 1.91917955875396728516e-01) (252, -2.59021818637847900391e-01) (253, 4.67435508966445922852e-01) (254, 4.20407891273498535156e-01) (255, 3.36257427930831909180e-01) (256, 6.37825369834899902344e-01) (0, -4.42247204482555389404e-02) (1, -8.96673619747161865234e-01) (2, -4.24008250236511230469e-01) (3, -1.32282152771949768066e-01) (4, -2.45963394641876220703e-01) (5, -3.99034738540649414062e-01) (6, -2.44872972369194030762e-01) (7, 1.81266635656356811523e-01) (8, 6.78755521774291992188e-01) (9, -9.08267915248870849609e-01) (10, -1.56393662095069885254e-01) (11, -1.67171418666839599609e-01) (12, -1.06773532927036285400e-01) (13, -1.08521807193756103516e+00) (14, -1.47752797603607177734e+00) (15, -1.87415182590484619141e-01) (16, -2.90647506713867187500e-01) (17, 1.11382365226745605469e-01) (18, -6.73131525516510009766e-01) (19, -2.41180002689361572266e-01) (20, -3.86572629213333129883e-01) (21, -3.48135560750961303711e-01) (22, -1.26708135008811950684e-01) (23, -9.88037765026092529297e-01) (24, 2.59414017200469970703e-01) (25, 1.34684431552886962891e+00) (26, -4.80572104454040527344e-01) (27, 6.27506673336029052734e-01) (28, -1.36906560510396957397e-02) (29, 9.40009295940399169922e-01) (30, 8.11420142650604248047e-01) (31, -2.54814028739929199219e-02) (32, 4.05865550041198730469e-01) (33, 6.75481557846069335938e-01) (34, 2.09951937198638916016e-01) (35, 1.65153181552886962891e+00) (36, 7.77189061045646667480e-02) (37, -3.21917794644832611084e-02) (38, -2.20519140362739562988e-01) (39, -5.06530880928039550781e-01) (40, 5.54112009704113006592e-02) (41, 8.87930393218994140625e-02) (42, -3.26564192771911621094e+00) (43, -1.30663812160491943359e+00) (44, -2.84447878599166870117e-01) (45, 2.71446913480758666992e-01) (46, 1.12475001811981201172e+00) (47, -4.10581678152084350586e-02) (48, -2.03715607523918151855e-01) (49, 7.30902403593063354492e-02) (50, -2.48703554272651672363e-01) (51, 1.25779345631599426270e-01) (52, 1.69614899158477783203e+00) (53, -8.01788032054901123047e-01) (54, 1.70233212411403656006e-02) (55, -1.63226187229156494141e-01) (56, 1.26489865779876708984e+00) (57, 7.40990400314331054688e-01) (58, -4.01595324277877807617e-01) (59, 5.60368657112121582031e-01) (60, -4.39902879297733306885e-02) (61, 4.58666943013668060303e-02) (62, -3.56585025787353515625e-01) (63, 1.21430516242980957031e+00) (64, -2.01510801911354064941e-01) (65, 1.22511692345142364502e-01) (66, -4.40693289041519165039e-01) (67, -7.59093821048736572266e-01) (68, 5.19888699054718017578e-02) (69, -2.41779193282127380371e-01) (70, 1.41062647104263305664e-01) (71, 5.83728671073913574219e-01) (72, 1.65504300594329833984e+00) (73, 2.66010522842407226562e-01) (74, -9.71710383892059326172e-02) (75, -1.93471595644950866699e-01) (76, -1.59835845232009887695e-01) (77, -4.59916852414608001709e-02) (78, 2.38074922561645507812e+00) (79, -2.82562881708145141602e-01) (80, -2.95011550188064575195e-01) (81, -4.57552731037139892578e-01) (82, 5.63889801502227783203e-01) (83, -1.77761048078536987305e-01) (84, 3.64401578903198242188e-01) (85, 2.52780914306640625000e-01) (86, 6.54697120189666748047e-02) (87, 4.08531427383422851562e-01) (88, -7.37479031085968017578e-02) (89, 8.82854335941374301910e-04) (90, -8.56564566493034362793e-02) (91, -4.04856562614440917969e-01) (92, 1.27074822783470153809e-01) (93, 4.43983137607574462891e-01) (94, -5.28418123722076416016e-01) (95, -1.18996334075927734375e+00) (96, -3.44542145729064941406e-01) (97, -2.34175369143486022949e-01) (98, -2.13535666465759277344e-01) (99, -6.68963074684143066406e-01) (100, 5.95668137073516845703e-01) (101, 3.46740074455738067627e-02) (102, -1.41868039965629577637e-01) (103, 4.18677955865859985352e-01) (104, -1.53473898768424987793e-01) (105, -2.54132103919982910156e+00) (106, -3.83861452341079711914e-01) (107, 5.99676519632339477539e-02) (108, -1.35571515560150146484e+00) (109, -1.91085174679756164551e-01) (110, 4.39739018678665161133e-01) (111, -4.95089381933212280273e-01) (112, -2.90328323841094970703e-01) (113, -1.56001448631286621094e-01) (114, -5.18205344676971435547e-01) (115, -2.70135343074798583984e-01) (116, -1.27565503120422363281e-01) (117, -4.12083804607391357422e-01) (118, -1.69512689113616943359e-01) (119, -5.49067594110965728760e-02) (120, 3.34424734115600585938e-01) (121, -1.32180619239807128906e+00) (122, 7.77288600802421569824e-02) (123, -3.27138394117355346680e-01) (124, -3.99857252836227416992e-01) (125, -2.15482831001281738281e-01) (126, 7.44846537709236145020e-02) (127, -3.95674891769886016846e-02) (128, 1.94478332996368408203e-01) (129, -1.07271790504455566406e+00) (130, 1.60673230886459350586e-01) (131, -4.95375722646713256836e-01) (132, 6.19764626026153564453e-02) (133, -2.04400107264518737793e-01) (134, -2.07218259572982788086e-01) (135, -4.67708587646484375000e-01) (136, -1.14298236370086669922e+00) (137, -5.57948291301727294922e-01) (138, -4.88428354263305664062e-01) (139, -1.20023262500762939453e+00) (140, -6.02112293243408203125e-01) (141, -5.41794478893280029297e-01) (142, -1.94573998451232910156e-01) (143, -6.24100983142852783203e-01) (144, -3.22436988353729248047e-01) (145, 1.85924798250198364258e-01) (146, 2.71165929734706878662e-02) (147, -6.33338093757629394531e-02) (148, -2.08916932344436645508e-01) (149, -3.48436444997787475586e-01) (150, -1.43376421928405761719e+00) (151, 3.35957169532775878906e-01) (152, 1.52105048298835754395e-01) (153, -2.86189645528793334961e-01) (154, -4.50639545917510986328e-01) (155, 6.34773135185241699219e-01) (156, 1.35249823331832885742e-01) (157, 6.08415529131889343262e-02) (158, -1.26972198486328125000e-01) (159, 2.22698852419853210449e-01) (160, -9.44426357746124267578e-02) (161, -4.07341718673706054688e-01) (162, -3.52081149816513061523e-01) (163, 3.41158419847488403320e-01) (164, -3.35917435586452484131e-02) (165, -3.28006774187088012695e-01) (166, -4.83700782060623168945e-01) (167, -1.09730325639247894287e-02) (168, -2.70753562450408935547e-01) (169, 4.42455634474754333496e-02) (170, -4.07608807086944580078e-01) (171, 4.38927471637725830078e-01) (172, -4.72145676612854003906e-01) (173, -9.96023237705230712891e-01) (174, 2.40113362669944763184e-01) (175, -9.00637030601501464844e-01) (176, 3.55049729347229003906e-01) (177, -1.00457265973091125488e-01) (178, -2.45779943466186523438e+00) (179, -2.70541191101074218750e-01) (180, -4.30664896965026855469e-01) (181, 1.81947462260723114014e-02) (182, -6.71611249446868896484e-01) (183, 3.30739647150039672852e-01) (184, -2.22859084606170654297e-01) (185, 1.24377332627773284912e-01) (186, 5.62642849981784820557e-02) (187, 3.57895851135253906250e-01) (188, -5.07069170475006103516e-01) (189, -2.41555109620094299316e-01) (190, -1.14639818668365478516e+00) (191, -3.09457927942276000977e-01) (192, 3.95065426826477050781e-01) (193, -9.57022249698638916016e-01) (194, -6.31715357303619384766e-01) (195, 4.39737103879451751709e-02) (196, -8.24563384056091308594e-01) (197, 1.57578215003013610840e-01) (198, -2.29428857564926147461e-01) (199, 1.61401376128196716309e-01) (200, -9.88618507981300354004e-02) (201, -3.89819949865341186523e-01) (202, -3.21468301117420196533e-02) (203, -1.67035758495330810547e-01) (204, -7.28403478860855102539e-02) (205, -6.47783279418945312500e-01) (206, -3.46055328845977783203e-01) (207, 5.52284121513366699219e-01) (208, -1.26851963996887207031e+00) (209, -2.03163683414459228516e-01) (210, 3.55995535850524902344e-01) (211, 2.32999265193939208984e-01) (212, 1.07910316437482833862e-02) (213, -1.28302001953125000000e+00) (214, 1.31828546524047851562e-01) (215, -7.53855630755424499512e-02) (216, 2.54611343145370483398e-01) (217, -5.29662251472473144531e-01) (218, -5.34247517585754394531e-01) (219, 1.34511876106262207031e+00) (220, -1.10332548618316650391e+00) (221, 2.90068805217742919922e-01) (222, -2.38833904266357421875e-01) (223, 1.88137829303741455078e+00) (224, 1.35322669520974159241e-02) (225, 1.35398641228675842285e-01) (226, -1.49413168430328369141e-01) (227, -5.73088467121124267578e-01) (228, -2.09843218326568603516e-02) (229, -6.16650044918060302734e-01) (230, 1.40468701720237731934e-01) (231, 1.53547012805938720703e+00) (232, -3.56332331895828247070e-01) (233, -2.48613893985748291016e-01) (234, 9.39215123653411865234e-02) (235, 3.59803080558776855469e-01) (236, -2.65670329332351684570e-01) (237, -1.53666317462921142578e-01) (238, -1.67325413227081298828e+00) (239, -1.95210170745849609375e+00) (240, -4.31628078222274780273e-01) (241, 2.09170013666152954102e-01) (242, -4.88564342260360717773e-01) (243, -4.16229292750358581543e-03) (244, 1.13012754917144775391e+00) (245, -2.16830164194107055664e-01) (246, 1.35220482945442199707e-01) (247, -3.65062862634658813477e-01) (248, 3.36881756782531738281e-01) (249, 4.59030456840991973877e-02) (250, -9.92978334426879882812e-01) (251, -7.77333199977874755859e-01) (252, -9.85055387020111083984e-01) (253, -3.23118060827255249023e-01) (254, 7.11752325296401977539e-02) (255, 7.05791771411895751953e-01) (256, -4.26584444940090179443e-02) (0, 4.83772039413452148438e-01) (1, 2.20159530639648437500e-01) (2, 6.50952160358428955078e-01) (3, 7.34555780887603759766e-01) (4, 2.38168891519308090210e-02) (5, 8.76899529248476028442e-03) (6, 1.32109928131103515625e+00) (7, 1.21176326274871826172e+00) (8, -1.26590028405189514160e-01) (9, 2.05545708537101745605e-01) (10, 3.19979161024093627930e-01) (11, -1.17453783750534057617e-02) (12, 7.09771215915679931641e-01) (13, 3.05498957633972167969e-01) (14, 6.47008478641510009766e-01) (15, 7.69018232822418212891e-02) (16, 4.26147431135177612305e-01) (17, 3.69540840387344360352e-01) (18, -8.64623486995697021484e-03) (19, 2.39006146788597106934e-01) (20, 5.09366810321807861328e-01) (21, 1.73612833023071289062e-01) (22, 1.04631751775741577148e-01) (23, 1.97494223713874816895e-01) (24, 2.15909019112586975098e-01) (25, -2.50279635190963745117e-01) (26, -1.55990675091743469238e-01) (27, 3.29506009817123413086e-01) (28, 9.13607895374298095703e-01) (29, 5.75694501399993896484e-01) (30, -6.62601649761199951172e-01) (31, 4.99647945165634155273e-01) (32, 2.80873537063598632812e-01) (33, 7.71332740783691406250e-01) (34, 5.28433382511138916016e-01) (35, 1.31453365087509155273e-01) (36, 6.86898708343505859375e-01) (37, -1.39987543225288391113e-01) (38, 2.87686854600906372070e-01) (39, 1.73030763864517211914e-01) (40, -8.89919474720954895020e-02) (41, 5.10919868946075439453e-01) (42, 8.22169706225395202637e-02) (43, -1.69901445508003234863e-01) (44, 1.52690827846527099609e+00) (45, 1.25790655612945556641e-01) (46, 1.69508203864097595215e-01) (47, 5.41486203670501708984e-01) (48, 1.64240777492523193359e-01) (49, -3.77066791057586669922e-01) (50, -2.26759118959307670593e-04) (51, 3.59809190034866333008e-01) (52, -1.11880153417587280273e-01) (53, 1.38980165123939514160e-01) (54, 2.79208600521087646484e-01) (55, 4.96599614620208740234e-01) (56, 1.41186952590942382812e-01) (57, 1.32968351244926452637e-01) (58, 5.69994673132896423340e-02) (59, 2.39357933402061462402e-01) (60, -6.10786117613315582275e-03) (61, 4.60276901721954345703e-01) (62, 8.15700590610504150391e-01) (63, 1.84244737029075622559e-01) (64, 4.23031806945800781250e-01) (65, -1.41170043498277664185e-02) (66, 4.68523949384689331055e-01) (67, 3.49338173866271972656e-01) (68, 5.63518822193145751953e-01) (69, 8.26358854770660400391e-01) (70, 1.94308832287788391113e-02) (71, 2.94398348778486251831e-02) (72, 2.31961041688919067383e-01) (73, 4.44037616252899169922e-01) (74, 1.85468405485153198242e-01) (75, -4.03388142585754394531e-02) (76, 5.26401460170745849609e-01) (77, 3.80471587181091308594e-01) (78, 3.74903500080108642578e-01) (79, 3.07074755430221557617e-01) (80, 2.56205886602401733398e-01) (81, 3.51574599742889404297e-01) (82, 8.55899602174758911133e-02) (83, 3.63195508718490600586e-01) (84, 2.92837291955947875977e-01) (85, 9.25451964139938354492e-02) (86, 6.09282493591308593750e-01) (87, 7.33302175998687744141e-01) (88, 2.23234629631042480469e+00) (89, 8.44732642173767089844e-01) (90, 3.36243622004985809326e-02) (91, 3.74964982271194458008e-01) (92, 1.00880064070224761963e-01) (93, 1.36503860354423522949e-01) (94, 8.94814170897006988525e-03) (95, -3.36573064327239990234e-01) (96, 3.12843978404998779297e-01) (97, 1.60040900111198425293e-01) (98, 2.58367419242858886719e-01) (99, -4.33004915714263916016e-01) (100, -6.01518526673316955566e-02) (101, 2.76375800371170043945e-01) (102, -1.54798775911331176758e-01) (103, 5.36019861698150634766e-01) (104, -3.54830980300903320312e-01) (105, -4.28329780697822570801e-02) (106, 2.82510340213775634766e-01) (107, 5.01163184642791748047e-01) (108, -1.91446706652641296387e-01) (109, 3.14749091863632202148e-01) (110, 5.68717420101165771484e-01) (111, 3.82255524396896362305e-01) (112, 2.47803449630737304688e-01) (113, 5.57852268218994140625e-01) (114, 4.18401509523391723633e-01) (115, 4.02187556028366088867e-02) (116, 9.99827980995178222656e-02) (117, -5.46903669834136962891e-01) (118, 9.53254938125610351562e-01) (119, 9.31248515844345092773e-02) (120, 1.17188692092895507812e-01) (121, 4.70503866672515869141e-01) (122, 2.13616341352462768555e-01) (123, 4.80356104671955108643e-02) (124, 2.33259901404380798340e-01) (125, 2.35698506236076354980e-01) (126, 8.45086455345153808594e-01) (127, 8.41176569461822509766e-01) (128, 1.44899427890777587891e-01) (129, 2.47659608721733093262e-01) (130, 3.82178246974945068359e-01) (131, 1.42264813184738159180e-01) (132, -6.24006912112236022949e-02) (133, -8.28960351645946502686e-03) (134, 1.92905142903327941895e-01) (135, -1.75269350409507751465e-01) (136, 5.53203880786895751953e-01) (137, -4.38673719763755798340e-02) (138, -1.14727690815925598145e-01) (139, 5.51088094711303710938e-01) (140, 2.57811900228261947632e-02) (141, 5.09609758853912353516e-01) (142, 3.55180889368057250977e-01) (143, 5.64556837081909179688e-01) (144, 1.16647668182849884033e-02) (145, 6.53490498661994934082e-02) (146, 4.06324952840805053711e-01) (147, -8.12383666634559631348e-02) (148, 1.62535369396209716797e-01) (149, 1.09383416175842285156e+00) (150, 2.69888073205947875977e-01) (151, 6.57761156558990478516e-01) (152, 6.21476948261260986328e-01) (153, 3.00385683774948120117e-01) (154, -9.14117172360420227051e-02) (155, 4.32029992341995239258e-01) (156, 1.25146940350532531738e-01) (157, 1.38850226998329162598e-01) (158, 1.69008579105138778687e-02) (159, 1.50020375847816467285e-01) (160, 2.92852580547332763672e-01) (161, 2.59310692548751831055e-01) (162, -1.54532885551452636719e+00) (163, 2.56759881973266601562e-01) (164, 4.56679433584213256836e-01) (165, 1.68543592095375061035e-01) (166, 2.06870228052139282227e-01) (167, 4.53686006367206573486e-02) (168, 2.85935193300247192383e-01) (169, -5.36833882331848144531e-01) (170, 4.76305782794952392578e-02) (171, 9.16930973529815673828e-01) (172, 5.45575916767120361328e-01) (173, -3.89284342527389526367e-01) (174, 4.33932214975357055664e-01) (175, -5.13401031494140625000e-02) (176, 2.67538011074066162109e-01) (177, 3.15158009529113769531e-01) (178, -4.91288363933563232422e-01) (179, 4.98793460428714752197e-02) (180, 4.55878168344497680664e-01) (181, 1.97676792740821838379e-01) (182, 3.80785197019577026367e-01) (183, 6.54508411884307861328e-01) (184, 1.54584184288978576660e-01) (185, 3.41176539659500122070e-01) (186, -5.76485246419906616211e-02) (187, 2.78190463781356811523e-01) (188, -9.17867273092269897461e-02) (189, -2.97191292047500610352e-02) (190, -1.83032881468534469604e-02) (191, 3.93862307071685791016e-01) (192, 2.69203722476959228516e-01) (193, 5.91529548168182373047e-01) (194, 4.55024063587188720703e-01) (195, 2.36524432897567749023e-01) (196, 8.66888016462326049805e-02) (197, 2.14949414134025573730e-01) (198, 5.17202317714691162109e-02) (199, 2.13259696960449218750e-01) (200, -2.03342154622077941895e-01) (201, 1.56988412141799926758e-01) (202, -3.90274114906787872314e-02) (203, -1.56087009236216545105e-02) (204, 5.37313103675842285156e-01) (205, 2.52385854721069335938e-01) (206, -1.60101190209388732910e-01) (207, 1.17444328963756561279e-01) (208, 3.13360750675201416016e-01) (209, 6.57102465629577636719e-01) (210, 9.20889556407928466797e-01) (211, 9.54980969429016113281e-01) (212, 1.57346233725547790527e-01) (213, 1.65380790829658508301e-01) (214, 4.23688292503356933594e-01) (215, 4.48972076177597045898e-01) (216, 4.77375924587249755859e-01) (217, 3.05830508470535278320e-01) (218, 2.53624916076660156250e-01) (219, 2.35196679830551147461e-01) (220, 2.42533639073371887207e-01) (221, 2.62644439935684204102e-01) (222, 4.38711225986480712891e-01) (223, 6.13720774650573730469e-01) (224, 3.07203590869903564453e-01) (225, 2.52109438180923461914e-01) (226, -2.38664567470550537109e-01) (227, -9.82966780662536621094e-01) (228, 2.20853954553604125977e-01) (229, -4.28734440356492996216e-03) (230, 2.19903796911239624023e-01) (231, 3.17385464906692504883e-01) (232, -7.24169462919235229492e-02) (233, 8.76986980438232421875e-02) (234, 3.87943536043167114258e-01) (235, 3.77488911151885986328e-01) (236, 2.51067876815795898438e-01) (237, 1.32541671395301818848e-01) (238, 4.34403747320175170898e-01) (239, -2.39326089620590209961e-01) (240, 2.13320389389991760254e-01) (241, 3.84260058403015136719e-01) (242, 1.34784236550331115723e-01) (243, 8.14031779766082763672e-01) (244, 3.58236022293567657471e-02) (245, -2.25228399038314819336e-01) (246, 6.57447755336761474609e-01) (247, -3.47134530544281005859e-01) (248, 1.27840921282768249512e-01) (249, 4.93411809206008911133e-01) (250, 4.23081874847412109375e-01) (251, 2.22602382302284240723e-01) (252, 3.82232874631881713867e-01) (253, 5.09428381919860839844e-02) (254, 2.46361732482910156250e-01) (255, 6.07286155223846435547e-01) (256, -5.17129659652709960938e-01) (0, 2.82327294349670410156e-01) (1, -1.25862374901771545410e-01) (2, -1.08364745974540710449e-01) (3, -1.76516100764274597168e-01) (4, -3.30927312374114990234e-01) (5, 1.44948184490203857422e-01) (6, 5.07762245833873748779e-02) (7, 1.77393689751625061035e-01) (8, 1.40235435962677001953e+00) (9, 3.75740200281143188477e-01) (10, -7.70915210247039794922e-01) (11, 2.68693231046199798584e-02) (12, -1.82372272014617919922e-01) (13, -2.78608828783035278320e-01) (14, 4.42482858896255493164e-01) (15, 2.26481094956398010254e-01) (16, 2.62254625558853149414e-01) (17, 3.68630707263946533203e-01) (18, 2.22547929733991622925e-02) (19, 4.38897281885147094727e-01) (20, 1.56851440668106079102e-01) (21, 1.92192777991294860840e-01) (22, 3.12939107418060302734e-01) (23, 2.49319538474082946777e-01) (24, 4.72094677388668060303e-02) (25, -6.19110226631164550781e-01) (26, -1.30494475364685058594e-01) (27, 2.65419125556945800781e-01) (28, -8.35538059473037719727e-02) (29, 3.20724308490753173828e-01) (30, 9.50682818889617919922e-01) (31, -6.44088089466094970703e-02) (32, -6.43930658698081970215e-02) (33, -5.78553741797804832458e-03) (34, -1.88260388374328613281e+00) (35, 5.64144514501094818115e-02) (36, 9.14881601929664611816e-02) (37, -6.75384700298309326172e-02) (38, 2.65096187591552734375e-01) (39, 1.81943729519844055176e-01) (40, 2.09787920117378234863e-01) (41, 1.22658717632293701172e+00) (42, 5.17226576805114746094e-01) (43, 1.67932897806167602539e-01) (44, -1.99206307530403137207e-01) (45, 1.71312525868415832520e-01) (46, -2.75237590074539184570e-01) (47, 1.10811375081539154053e-01) (48, -7.13665634393692016602e-02) (49, 5.72688132524490356445e-02) (50, -2.29725673794746398926e-01) (51, 1.78974017500877380371e-01) (52, -4.49106067419052124023e-01) (53, -2.86200672388076782227e-01) (54, -1.64869055151939392090e-02) (55, -1.87198027968406677246e-01) (56, 1.36033922433853149414e-01) (57, -4.45873588323593139648e-02) (58, 2.01983928680419921875e-01) (59, -2.00404822826385498047e-01) (60, -6.38608276844024658203e-01) (61, 1.46259451285004615784e-02) (62, 2.76916801929473876953e-01) (63, -4.83478188514709472656e-01) (64, -1.75594195723533630371e-01) (65, -1.20055496692657470703e+00) (66, -1.87468335032463073730e-01) (67, 4.11646336317062377930e-01) (68, -1.54366940259933471680e-01) (69, 3.45401048660278320312e-01) (70, 2.34333261847496032715e-01) (71, 3.45530927181243896484e-01) (72, 3.08543473482131958008e-01) (73, 8.06127935647964477539e-02) (74, -7.49003589153289794922e-02) (75, 3.15389856696128845215e-02) (76, 2.71050065755844116211e-01) (77, -1.94727122783660888672e-01) (78, 6.86724662780761718750e-01) (79, -1.93510144948959350586e-01) (80, 3.29091250896453857422e-01) (81, 2.33063712716102600098e-01) (82, 2.75316596031188964844e-01) (83, 4.43644747138023376465e-02) (84, -2.56390064954757690430e-01) (85, -7.82626271247863769531e-01) (86, 1.87874466180801391602e-01) (87, 4.85987290740013122559e-02) (88, 1.25505626201629638672e-01) (89, 3.80604833364486694336e-01) (90, 2.78156757354736328125e-01) (91, 5.92170767486095428467e-02) (92, -4.00766767561435699463e-02) (93, -5.69646134972572326660e-02) (94, 2.11792260408401489258e-01) (95, 7.52381503582000732422e-01) (96, 1.49612128734588623047e-01) (97, -3.07209640741348266602e-01) (98, -1.85977801680564880371e-01) (99, 8.93301367759704589844e-01) (100, 2.01073929667472839355e-01) (101, 2.91209429502487182617e-01) (102, -8.99976864457130432129e-03) (103, 2.56094872951507568359e-01) (104, 4.98595118522644042969e-01) (105, -2.02700048685073852539e-02) (106, -2.05554932355880737305e-01) (107, 2.16161817312240600586e-01) (108, 1.18265163898468017578e+00) (109, -4.07563000917434692383e-02) (110, -1.15618452429771423340e-01) (111, 2.62265801429748535156e-01) (112, -1.43215386196970939636e-02) (113, -1.18034787476062774658e-01) (114, 2.69647762179374694824e-02) (115, -5.45412242412567138672e-01) (116, 5.40997684001922607422e-01) (117, 3.10281187295913696289e-01) (118, -1.50103032588958740234e-01) (119, 4.25955802202224731445e-01) (120, 1.82245180010795593262e-01) (121, -3.71843352913856506348e-02) (122, 3.25466573238372802734e-01) (123, 1.07525229454040527344e+00) (124, 7.83803582191467285156e-01) (125, -1.74930065870285034180e-01) (126, 3.63854795694351196289e-01) (127, -2.54620224237442016602e-01) (128, -1.58735588192939758301e-01) (129, 8.57221901416778564453e-01) (130, 6.11947253346443176270e-02) (131, 8.35167840123176574707e-02) (132, 2.07467257976531982422e-01) (133, -1.64273634552955627441e-01) (134, 1.58122479915618896484e-01) (135, -7.58777111768722534180e-02) (136, 1.97834178805351257324e-01) (137, 4.40313220024108886719e-02) (138, 3.46981972455978393555e-01) (139, 3.11097413301467895508e-01) (140, 9.16895687580108642578e-01) (141, 4.60533887147903442383e-01) (142, 2.47637629508972167969e-01) (143, 6.46052882075309753418e-02) (144, -2.42816492915153503418e-01) (145, 2.93203651905059814453e-01) (146, 1.44349068403244018555e-01) (147, 3.11548113822937011719e-01) (148, 3.36644977331161499023e-01) (149, 1.91131159663200378418e-01) (150, -8.21815729141235351562e-02) (151, -1.80351525545120239258e-01) (152, 2.27456390857696533203e-01) (153, -3.83159875869750976562e-01) (154, 9.76494252681732177734e-01) (155, 2.43495956063270568848e-01) (156, 1.71880245208740234375e-01) (157, 7.09074214100837707520e-02) (158, 7.10992097854614257812e-01) (159, 6.33776903152465820312e-01) (160, 1.26573681831359863281e-01) (161, 5.12617349624633789062e-01) (162, -1.61785677075386047363e-01) (163, 6.30762875080108642578e-02) (164, -2.12406769394874572754e-01) (165, -2.70709931850433349609e-01) (166, 1.70089602470397949219e-01) (167, 4.02408391237258911133e-02) (168, 1.18345528841018676758e-01) (169, 2.96364128589630126953e-01) (170, 1.16245701909065246582e-01) (171, 4.44443404674530029297e-01) (172, -2.75929242372512817383e-01) (173, -1.34420260787010192871e-01) (174, 1.33381858468055725098e-01) (175, 4.15690332651138305664e-01) (176, 4.92865711450576782227e-01) (177, 2.32878223061561584473e-01) (178, -2.98830896615982055664e-01) (179, -9.32880118489265441895e-02) (180, 9.82303023338317871094e-02) (181, 2.39403605461120605469e-01) (182, 2.62536764144897460938e-01) (183, 4.26853716373443603516e-01) (184, -1.58189772628247737885e-03) (185, 1.51757478713989257812e-01) (186, 3.05173605680465698242e-01) (187, -1.03525161743164062500e+00) (188, 2.60485261678695678711e-01) (189, -4.41836542449891567230e-04) (190, 6.55781179666519165039e-02) (191, 2.95733034610748291016e-01) (192, 4.07297074794769287109e-01) (193, 1.80019646883010864258e-01) (194, 2.44654610753059387207e-01) (195, 9.13758203387260437012e-03) (196, 1.04245156049728393555e-01) (197, 1.12986989319324493408e-01) (198, 6.32133260369300842285e-02) (199, -5.53394734859466552734e-01) (200, 4.53489661216735839844e-01) (201, 1.34714677929878234863e-01) (202, -1.17135666310787200928e-01) (203, 6.87375366687774658203e-02) (204, -1.42541706562042236328e-01) (205, -1.92080318927764892578e-01) (206, 5.19022047519683837891e-01) (207, -2.59141176939010620117e-01) (208, -2.15885177254676818848e-01) (209, 2.01838999986648559570e-01) (210, 2.16629579663276672363e-02) (211, 4.63970959186553955078e-01) (212, 1.03994995355606079102e-01) (213, 3.96702855825424194336e-01) (214, 3.45029309391975402832e-02) (215, 4.86583352088928222656e-01) (216, 1.39756828546524047852e-01) (217, -6.15566931664943695068e-02) (218, 2.59200513362884521484e-01) (219, -1.67819246649742126465e-01) (220, -1.19281142950057983398e-01) (221, 2.44485288858413696289e-01) (222, 4.20709162950515747070e-01) (223, -2.85050421953201293945e-01) (224, 9.47729777544736862183e-03) (225, 5.54944947361946105957e-02) (226, 1.88457295298576354980e-01) (227, 2.42508709430694580078e-01) (228, 1.99546858668327331543e-01) (229, 3.10609251260757446289e-01) (230, -6.59734070301055908203e-01) (231, -2.55635846406221389771e-02) (232, -1.07926204800605773926e-01) (233, 7.27682650089263916016e-01) (234, -1.94257512688636779785e-01) (235, -1.70866593718528747559e-01) (236, -4.60385411977767944336e-01) (237, 1.44421458244323730469e+00) (238, 1.76724433898925781250e+00) (239, 1.03575086593627929688e+00) (240, 1.20307862758636474609e+00) (241, 1.26397714018821716309e-01) (242, 2.62843761593103408813e-02) (243, 2.67035197466611862183e-02) (244, 1.35144472122192382812e-01) (245, 8.95038723945617675781e-01) (246, 1.81253910064697265625e-01) (247, -3.20421934127807617188e-01) (248, -6.49263784289360046387e-02) (249, 9.61738638579845428467e-03) (250, 7.32904016971588134766e-01) (251, 6.14403963088989257812e-01) (252, 1.81432496756315231323e-02) (253, 3.11874717473983764648e-01) (254, 2.66112923622131347656e-01) (255, 5.64502030611038208008e-02) (256, 7.30199664831161499023e-02) (0, 3.40171277523040771484e-01) (1, 3.41595202684402465820e-01) (2, 6.22453391551971435547e-01) (3, 3.91713261604309082031e-01) (4, 4.49483156204223632812e-01) (5, 2.99800276756286621094e-01) (6, 1.67997404932975769043e-01) (7, 2.81450822949409484863e-02) (8, 1.32009458541870117188e+00) (9, 2.91217982769012451172e-01) (10, -1.11998999118804931641e+00) (11, 3.24743956327438354492e-01) (12, 8.89018535614013671875e-01) (13, 4.97980087995529174805e-01) (14, 2.44217753410339355469e-01) (15, 7.89720773696899414062e-01) (16, 8.48166882991790771484e-01) (17, 5.44206559658050537109e-01) (18, 1.85127794742584228516e-01) (19, 5.41406631469726562500e-01) (20, -3.83135005831718444824e-02) (21, -1.79142475128173828125e-01) (22, -1.24127469956874847412e-01) (23, 3.11303198337554931641e-01) (24, -3.34010392427444458008e-01) (25, 1.57067254185676574707e-01) (26, 1.18599891662597656250e+00) (27, 8.58261108398437500000e-01) (28, 4.98868823051452636719e-01) (29, 1.19802820682525634766e+00) (30, 3.76117199659347534180e-01) (31, 7.55747020244598388672e-01) (32, 5.07441461086273193359e-01) (33, -3.19462358951568603516e-01) (34, -8.47734883427619934082e-02) (35, -2.76017542928457260132e-02) (36, 1.96418136358261108398e-01) (37, 1.16973400115966796875e+00) (38, 1.11631405353546142578e+00) (39, 6.21839821338653564453e-01) (40, 5.55773042142391204834e-02) (41, 8.73689115047454833984e-01) (42, 3.03064435720443725586e-01) (43, 3.76653969287872314453e-01) (44, -7.93601095676422119141e-01) (45, 3.28028261661529541016e-01) (46, 6.79964423179626464844e-01) (47, 3.08116413652896881104e-02) (48, 2.27991089224815368652e-01) (49, 2.25434243679046630859e-01) (50, 8.74967128038406372070e-02) (51, -2.13089585304260253906e-01) (52, 8.60183477401733398438e-01) (53, 3.96342784166336059570e-01) (54, 7.70885169506072998047e-01) (55, 1.04423575103282928467e-01) (56, -3.08472156524658203125e-01) (57, 8.40263068675994873047e-01) (58, 1.55095726251602172852e-01) (59, 3.64934921264648437500e-01) (60, -5.78011311590671539307e-02) (61, -2.61686712503433227539e-01) (62, 4.84853804111480712891e-01) (63, 4.41255092620849609375e-01) (64, 8.41557383537292480469e-01) (65, -1.57201096415519714355e-01) (66, 2.77714401483535766602e-01) (67, -9.20767337083816528320e-02) (68, 3.84818613529205322266e-01) (69, 8.75367581844329833984e-01) (70, 3.03187370300292968750e-01) (71, 9.56376940011978149414e-02) (72, 3.85997593402862548828e-01) (73, 5.49743592739105224609e-01) (74, -9.78385359048843383789e-02) (75, -3.46874982118606567383e-01) (76, 1.49937570095062255859e-01) (77, -5.87450385093688964844e-01) (78, -8.64867627620697021484e-01) (79, 1.05187237262725830078e+00) (80, -1.17167615890502929688e+00) (81, 9.35845822095870971680e-02) (82, 4.03117351233959197998e-02) (83, -7.27211177349090576172e-01) (84, -4.41545695066452026367e-02) (85, 9.36049297451972961426e-02) (86, 5.04296600818634033203e-01) (87, 6.47611021995544433594e-01) (88, 2.02261265367269515991e-02) (89, -1.48339435458183288574e-01) (90, 2.69824296236038208008e-01) (91, -6.18624165654182434082e-02) (92, 1.42782986164093017578e+00) (93, 4.37356159090995788574e-02) (94, 1.04564273357391357422e+00) (95, 1.71685838699340820312e+00) (96, -5.90249896049499511719e-02) (97, 1.00369441509246826172e+00) (98, 1.91922932863235473633e-01) (99, 1.67247757315635681152e-01) (100, 2.34889313578605651855e-01) (101, 6.41344785690307617188e-01) (102, 5.49770057201385498047e-01) (103, 3.14597755670547485352e-01) (104, 1.46453082561492919922e+00) (105, 1.45122289657592773438e-01) (106, 6.99503302574157714844e-01) (107, 5.23645102977752685547e-01) (108, 4.58678007125854492188e-02) (109, -5.22854804992675781250e-01) (110, 2.84518718719482421875e-01) (111, 2.15411305427551269531e-01) (112, 4.68600988388061523438e-01) (113, 6.60514056682586669922e-01) (114, 8.78914177417755126953e-01) (115, 7.46568799018859863281e-01) (116, 6.97486102581024169922e-01) (117, 2.53665685653686523438e-01) (118, 5.33894240856170654297e-01) (119, 3.14991146326065063477e-01) (120, 1.00080013275146484375e+00) (121, 4.53426241874694824219e-01) (122, 5.69259583950042724609e-01) (123, 9.47355091571807861328e-01) (124, 1.32687246799468994141e+00) (125, 3.24000537395477294922e-01) (126, 8.88770148158073425293e-02) (127, 4.38843518495559692383e-02) (128, 1.78333550691604614258e-01) (129, 6.45182371139526367188e-01) (130, 4.32281494140625000000e-01) (131, 3.53330850601196289062e-01) (132, 6.42965137958526611328e-01) (133, -3.36112938821315765381e-02) (134, 4.79065299034118652344e-01) (135, 2.94389039278030395508e-01) (136, 5.24926781654357910156e-01) (137, 3.90952259302139282227e-01) (138, 3.76704633235931396484e-01) (139, 1.22911095619201660156e+00) (140, 1.00965833663940429688e+00) (141, 5.33511817455291748047e-01) (142, 5.70254445075988769531e-01) (143, 6.97473704814910888672e-01) (144, -3.75765830278396606445e-01) (145, 3.54750186204910278320e-01) (146, 1.77054569125175476074e-01) (147, 2.49940067529678344727e-01) (148, 6.85320675373077392578e-01) (149, 4.86709028482437133789e-02) (150, 4.12013530731201171875e-01) (151, 5.40445566177368164062e-01) (152, -9.98262315988540649414e-03) (153, 7.48959541320800781250e-01) (154, 5.24908721446990966797e-01) (155, 1.04051804542541503906e+00) (156, 6.66133821010589599609e-01) (157, 1.56454458832740783691e-01) (158, 3.00689911842346191406e+00) (159, 2.27008029818534851074e-01) (160, -8.93295258283615112305e-02) (161, 2.07414492964744567871e-01) (162, 2.55146175622940063477e-01) (163, -3.21863412857055664062e-01) (164, -3.58241289854049682617e-01) (165, -4.90491762757301330566e-02) (166, 5.35488188266754150391e-01) (167, 4.34075951576232910156e-01) (168, 1.07157908380031585693e-01) (169, 1.38815656304359436035e-01) (170, 4.69820648431777954102e-01) (171, -1.93712607026100158691e-01) (172, 4.87357527017593383789e-01) (173, -1.91829696297645568848e-01) (174, 1.58074170351028442383e-01) (175, 7.07094669342041015625e-01) (176, 5.16908824443817138672e-01) (177, 2.08198741078376770020e-01) (178, 4.23623353242874145508e-01) (179, 3.36306518875062465668e-04) (180, 3.53734940290451049805e-01) (181, 3.57610762119293212891e-01) (182, 1.89962416887283325195e-01) (183, 7.15076804161071777344e-01) (184, 9.58836376667022705078e-02) (185, 4.76141661405563354492e-01) (186, 1.41685092449188232422e+00) (187, 6.81592404842376708984e-01) (188, 7.76855945587158203125e-01) (189, 1.11966872215270996094e+00) (190, 8.90490114688873291016e-01) (191, 1.48404860496520996094e+00) (192, 5.65940421074628829956e-03) (193, 7.64724731445312500000e-01) (194, 6.22688412666320800781e-01) (195, 1.18418836593627929688e+00) (196, 2.87305116653442382812e-02) (197, 9.97643247246742248535e-02) (198, 1.00553107261657714844e+00) (199, -3.06391298770904541016e-01) (200, 7.58188366889953613281e-01) (201, 1.95630162954330444336e-01) (202, 9.84984576702117919922e-01) (203, -1.63104683160781860352e-01) (204, 1.16461408138275146484e+00) (205, 9.64699625968933105469e-01) (206, 1.27854800224304199219e+00) (207, 3.36132913827896118164e-01) (208, 1.42940783500671386719e+00) (209, 1.82881399989128112793e-01) (210, 4.23410385847091674805e-01) (211, -6.83571770787239074707e-02) (212, 5.38083136081695556641e-01) (213, 2.03930512070655822754e-01) (214, 1.13817535340785980225e-01) (215, 1.18470692634582519531e+00) (216, -2.27192163467407226562e+00) (217, 2.39503443241119384766e-01) (218, 2.60025918483734130859e-01) (219, 2.62213468551635742188e-01) (220, 1.09006941318511962891e+00) (221, 2.47715309262275695801e-01) (222, 4.67707097530364990234e-01) (223, 5.61183512210845947266e-01) (224, -3.36970984935760498047e-01) (225, 3.99326682090759277344e-01) (226, 1.84755921363830566406e-01) (227, 2.04278603196144104004e-01) (228, 1.79368257522583007812e-01) (229, 3.53022553026676177979e-02) (230, 1.10699899494647979736e-01) (231, 1.62111297249794006348e-01) (232, 7.88755118846893310547e-01) (233, 1.97334349155426025391e-01) (234, 2.17889800667762756348e-01) (235, 1.47705018520355224609e-01) (236, 5.48768937587738037109e-01) (237, 7.91078984737396240234e-01) (238, 3.95560562610626220703e-01) (239, 3.63622009754180908203e-01) (240, 1.06360960006713867188e+00) (241, 2.95086242258548736572e-02) (242, 1.22150093317031860352e-01) (243, 2.75874346494674682617e-01) (244, -1.32937800884246826172e+00) (245, 1.05635774135589599609e+00) (246, 6.66164457798004150391e-01) (247, 3.08874279260635375977e-01) (248, 1.25869381427764892578e+00) (249, -1.77227258682250976562e-02) (250, 8.51022124290466308594e-01) (251, 8.71453881263732910156e-01) (252, 4.94830608367919921875e-01) (253, 2.24293127655982971191e-01) (254, 4.68052804470062255859e-01) (255, 1.81874766945838928223e-01) (256, 5.47735452651977539062e-01) (0, 8.49132716655731201172e-01) (1, 4.29410606622695922852e-01) (2, 1.27810016274452209473e-01) (3, 4.80889290571212768555e-01) (4, -1.25549152493476867676e-01) (5, 5.09890541434288024902e-03) (6, 3.41290682554244995117e-01) (7, 5.14175891876220703125e-01) (8, 9.83084917068481445312e-01) (9, 4.35155689716339111328e-01) (10, 4.30599689483642578125e-01) (11, 4.70661133527755737305e-01) (12, 3.20594012737274169922e-01) (13, 4.91922199726104736328e-01) (14, 4.30454730987548828125e-01) (15, 2.78474986553192138672e-01) (16, 2.87321656942367553711e-01) (17, 6.79361596703529357910e-02) (18, 6.39189630746841430664e-02) (19, -9.83603447675704956055e-02) (20, 2.63423882424831390381e-02) (21, 2.60209470987319946289e-01) (22, 3.77769201993942260742e-01) (23, 2.55432486534118652344e-01) (24, 1.32847309112548828125e-01) (25, 2.10356160998344421387e-01) (26, 3.56477409601211547852e-01) (27, -3.26362326741218566895e-02) (28, 5.04445552825927734375e-01) (29, 4.30734515190124511719e-01) (30, 3.70438724756240844727e-01) (31, 6.01318478584289550781e-01) (32, 7.32490718364715576172e-01) (33, 1.87452599406242370605e-01) (34, 4.85045984387397766113e-02) (35, -1.48657768964767456055e-01) (36, 2.99462191760540008545e-02) (37, 2.80803561210632324219e-01) (38, 4.44180697202682495117e-01) (39, 3.30119729042053222656e-01) (40, 1.05153942108154296875e+00) (41, 4.57029134035110473633e-01) (42, 3.62542688846588134766e-01) (43, -1.77008301019668579102e-01) (44, -6.12990796566009521484e-01) (45, 4.49916064739227294922e-01) (46, 7.19741955399513244629e-02) (47, -2.90276184678077697754e-02) (48, 7.18474686145782470703e-01) (49, -2.88996100425720214844e-01) (50, -2.33931496739387512207e-01) (51, 6.56043440103530883789e-02) (52, 3.93539696931838989258e-01) (53, -3.08697640895843505859e-01) (54, 6.70990824699401855469e-01) (55, -4.66541610658168792725e-02) (56, 3.40643227100372314453e-01) (57, 1.98634743690490722656e-01) (58, 5.42554669082164764404e-02) (59, 1.70194834470748901367e-01) (60, -1.13722048699855804443e-02) (61, 5.99823653697967529297e-01) (62, 4.90696012973785400391e-01) (63, 5.69545477628707885742e-02) (64, 4.25172477960586547852e-01) (65, -1.63497194647789001465e-01) (66, 5.38049757480621337891e-01) (67, 2.27575257420539855957e-01) (68, 8.97466301918029785156e-01) (69, 7.75782704353332519531e-01) (70, 4.23143744468688964844e-01) (71, 3.10682326555252075195e-01) (72, 2.77068853378295898438e-01) (73, 2.04389497637748718262e-01) (74, 1.04792565107345581055e-01) (75, 5.25549471378326416016e-01) (76, 2.73225218057632446289e-01) (77, 5.32632648944854736328e-01) (78, 4.52200591564178466797e-01) (79, 2.28524014353752136230e-01) (80, -6.99250176548957824707e-02) (81, 3.91478449106216430664e-01) (82, 2.79108554124832153320e-01) (83, 4.41201031208038330078e-02) (84, 3.28686922788619995117e-01) (85, -2.73851267993450164795e-02) (86, 4.62195664644241333008e-01) (87, 2.77180999517440795898e-01) (88, 8.68514060974121093750e-01) (89, 3.82481247186660766602e-01) (90, -3.64686152897775173187e-03) (91, 2.84557253122329711914e-01) (92, -2.46119752526283264160e-01) (93, 3.67636568844318389893e-02) (94, 5.63134312629699707031e-01) (95, 4.65128690004348754883e-01) (96, 8.30061554908752441406e-01) (97, -5.90915620326995849609e-01) (98, 1.42183214426040649414e-01) (99, 8.27592983841896057129e-03) (100, 3.97432506084442138672e-01) (101, 2.56396144628524780273e-01) (102, 1.00407075881958007812e+00) (103, 1.74316510558128356934e-01) (104, 4.58726435899734497070e-01) (105, -7.96311497688293457031e-02) (106, -1.25661492347717285156e-01) (107, 6.41233384609222412109e-01) (108, 3.26955497264862060547e-01) (109, 2.58913278579711914062e-01) (110, 5.05873262882232666016e-01) (111, 7.85781219601631164551e-02) (112, 3.60749542713165283203e-01) (113, 1.66154921054840087891e-01) (114, 1.75931259989738464355e-01) (115, 1.74892023205757141113e-01) (116, 1.03389060497283935547e+00) (117, 3.82677244488149881363e-05) (118, 6.12567700445652008057e-02) (119, 4.41913902759552001953e-01) (120, 7.69713759422302246094e-01) (121, 1.88858613371849060059e-01) (122, 3.71978878974914550781e-02) (123, 3.38719695806503295898e-01) (124, 1.05892038345336914062e+00) (125, 7.13995695114135742188e-02) (126, 2.16811671853065490723e-01) (127, 3.65376442670822143555e-01) (128, 4.54213201999664306641e-01) (129, -6.76110088825225830078e-02) (130, 5.40094256401062011719e-01) (131, 5.44191241264343261719e-01) (132, 5.42884886264801025391e-01) (133, -2.04235613346099853516e-02) (134, 6.58591926097869873047e-01) (135, 4.42130938172340393066e-02) (136, -3.41270044445991516113e-02) (137, 3.88442277908325195312e-01) (138, -3.88414561748504638672e-02) (139, 5.26334196329116821289e-02) (140, 8.09253990650177001953e-01) (141, 1.47944524884223937988e-01) (142, 1.34803995490074157715e-01) (143, 1.67557343840599060059e-01) (144, -3.39670538902282714844e-01) (145, 1.10238087177276611328e+00) (146, 7.66768574714660644531e-01) (147, 3.12620013952255249023e-01) (148, 4.18148577213287353516e-01) (149, 6.25276923179626464844e-01) (150, -5.84814921021461486816e-02) (151, 7.59558916091918945312e-01) (152, 6.47313892841339111328e-01) (153, 6.52378261089324951172e-01) (154, 6.07181727886199951172e-01) (155, 3.27960759401321411133e-01) (156, 2.61900812387466430664e-01) (157, 2.11427748203277587891e-01) (158, 5.18842637538909912109e-01) (159, 4.37098056077957153320e-01) (160, 4.16572242975234985352e-01) (161, 6.27673327922821044922e-01) (162, 2.65439510345458984375e-01) (163, 7.13998556137084960938e-01) (164, 2.62198597192764282227e-01) (165, -5.60733601450920104980e-02) (166, 5.64000904560089111328e-01) (167, 1.78276792168617248535e-01) (168, 6.07693158090114593506e-02) (169, 5.30987918376922607422e-01) (170, 4.79949891567230224609e-01) (171, 4.31883156299591064453e-01) (172, 7.86450505256652832031e-01) (173, -1.69455528259277343750e-01) (174, 6.56442880630493164062e-01) (175, 3.46704393625259399414e-01) (176, 4.21592712402343750000e-01) (177, 9.69355165958404541016e-01) (178, -1.22657306492328643799e-01) (179, 2.22794890403747558594e-01) (180, 1.82093471288681030273e-01) (181, 5.81278741359710693359e-01) (182, 1.41430988907814025879e-01) (183, 5.67741096019744873047e-01) (184, 1.56411096453666687012e-01) (185, 3.08540523052215576172e-01) (186, 2.30371683835983276367e-01) (187, 7.66768828034400939941e-02) (188, 6.02753758430480957031e-02) (189, 4.89787220954895019531e-01) (190, -1.71330958604812622070e-01) (191, 1.33040517568588256836e-01) (192, 3.18673133850097656250e-01) (193, 2.19210550189018249512e-01) (194, 1.31334483623504638672e-01) (195, 9.01031866669654846191e-03) (196, 1.09849564731121063232e-01) (197, 2.93250214308500289917e-02) (198, 4.09402728080749511719e-01) (199, 4.50881510972976684570e-01) (200, 6.02461516857147216797e-01) (201, 1.71308904886245727539e-01) (202, -1.03162862360477447510e-01) (203, -5.92521652579307556152e-02) (204, 3.76094937324523925781e-01) (205, 1.48894309997558593750e-01) (206, 5.25732934474945068359e-01) (207, 1.35306254029273986816e-01) (208, 2.47891992330551147461e-01) (209, 2.89178192615509033203e-01) (210, 1.09885132312774658203e+00) (211, 1.95858448743820190430e-01) (212, 3.07575672864913940430e-01) (213, 1.76185101270675659180e-01) (214, 3.05713206529617309570e-01) (215, 5.19398629665374755859e-01) (216, -4.73105013370513916016e-02) (217, 4.19404268264770507812e-01) (218, 2.81932592391967773438e-01) (219, 3.16912055015563964844e-01) (220, 2.19861194491386413574e-01) (221, 6.99213862419128417969e-01) (222, 1.65364578366279602051e-01) (223, 3.97125303745269775391e-01) (224, 1.00366510450839996338e-01) (225, 5.15698492527008056641e-01) (226, 1.77215546369552612305e-01) (227, 2.11406081914901733398e-01) (228, 3.15257012844085693359e-01) (229, -1.09074234962463378906e-01) (230, 1.33852005004882812500e+00) (231, 7.64413774013519287109e-01) (232, 1.14485239610075950623e-02) (233, 6.52955591678619384766e-01) (234, 5.11792659759521484375e-01) (235, 7.44918942451477050781e-01) (236, -3.16910415887832641602e-01) (237, 2.40918636322021484375e-01) (238, 4.45468842983245849609e-01) (239, 1.69775173068046569824e-01) (240, 3.63880425691604614258e-01) (241, 5.08365511894226074219e-01) (242, 7.31384083628654479980e-02) (243, 7.77622580528259277344e-01) (244, 4.44166213274002075195e-02) (245, 3.78565579652786254883e-01) (246, 3.76746863126754760742e-01) (247, -4.38394676893949508667e-03) (248, 5.95059573650360107422e-01) (249, 2.20961600542068481445e-01) (250, 1.15264743566513061523e-01) (251, 1.63168415427207946777e-01) (252, 3.22656720876693725586e-01) (253, 8.42868611216545104980e-02) (254, 2.24863693118095397949e-01) (255, -5.12052811682224273682e-02) (256, 2.99075543880462646484e-01) (0, 5.31187094748020172119e-02) (1, -3.72205853462219238281e-01) (2, -2.83172667026519775391e-01) (3, -4.68072257936000823975e-02) (4, -6.96546971797943115234e-01) (5, 3.18305157124996185303e-02) (6, 4.78152884170413017273e-03) (7, 2.09862351417541503906e-01) (8, -5.51682353019714355469e-01) (9, 2.41253867745399475098e-01) (10, 7.42753684520721435547e-01) (11, -1.18505058344453573227e-03) (12, 5.16429468989372253418e-02) (13, -1.00023460388183593750e+00) (14, -9.68058481812477111816e-02) (15, 4.18688505887985229492e-01) (16, -1.71330392360687255859e-01) (17, -1.07913219928741455078e+00) (18, 5.05351006984710693359e-01) (19, 1.51423290371894836426e-01) (20, -4.03919905424118041992e-01) (21, -1.20207287371158599854e-01) (22, 2.46771603822708129883e-01) (23, 6.75812810659408569336e-02) (24, 9.33460146188735961914e-02) (25, -5.09774982929229736328e-01) (26, -2.23845526576042175293e-01) (27, -3.22381883859634399414e-01) (28, 1.15416355431079864502e-01) (29, -1.78415167331695556641e+00) (30, -9.67993557453155517578e-01) (31, -2.02814236283302307129e-01) (32, 2.36958503723144531250e-01) (33, -1.98510903865098953247e-02) (34, 8.72053682804107666016e-01) (35, -6.15294985473155975342e-02) (36, -1.06475734710693359375e+00) (37, 4.90342043340206146240e-02) (38, 6.14152073860168457031e-01) (39, 2.65881046652793884277e-02) (40, -1.54012680053710937500e-01) (41, -8.49568068981170654297e-01) (42, 8.12611356377601623535e-02) (43, -1.26425117254257202148e-01) (44, 4.54168766736984252930e-01) (45, -1.84652045369148254395e-01) (46, -3.85840162634849548340e-02) (47, 7.33652889728546142578e-01) (48, -6.78715407848358154297e-01) (49, 1.06723405420780181885e-01) (50, -4.30105596780776977539e-01) (51, 3.50695461034774780273e-01) (52, -7.99528002738952636719e-01) (53, -1.37671187520027160645e-01) (54, -2.90917247533798217773e-01) (55, 1.77773678302764892578e+00) (56, -1.02187298238277435303e-01) (57, -3.90704602003097534180e-01) (58, -1.07828475534915924072e-01) (59, 2.72035747766494750977e-01) (60, -3.01685571670532226562e-01) (61, 3.67645114660263061523e-01) (62, 3.10774922370910644531e-01) (63, -2.20938539132475852966e-03) (64, -4.61165495216846466064e-02) (65, 4.48127001523971557617e-01) (66, -6.31379127502441406250e-01) (67, 2.33735457062721252441e-01) (68, 6.77676647901535034180e-02) (69, -7.04866871237754821777e-02) (70, -9.22052934765815734863e-03) (71, -1.89884290099143981934e-01) (72, -1.97635442018508911133e-01) (73, 2.53719687461853027344e-01) (74, 6.68107271194458007812e-01) (75, 1.23931467533111572266e+00) (76, -1.48091182112693786621e-01) (77, 3.02547603845596313477e-01) (78, 4.54094037413597106934e-02) (79, -5.14687120914459228516e-01) (80, -9.41653028130531311035e-02) (81, -8.35630834102630615234e-01) (82, 3.57974171638488769531e-01) (83, -1.24620608985424041748e-02) (84, 2.67979145050048828125e-01) (85, 7.00582861900329589844e-02) (86, 4.07155841588973999023e-01) (87, 9.87185165286064147949e-02) (88, 3.64711768925189971924e-02) (89, -9.96923148632049560547e-02) (90, -5.03861941397190093994e-02) (91, 6.70180976390838623047e-01) (92, -4.33288621902465820312e+00) (93, -6.68866634368896484375e-01) (94, -8.60949084162712097168e-02) (95, -9.51335191726684570312e-01) (96, 2.45142392814159393311e-02) (97, -3.51286739110946655273e-01) (98, 1.95397213101387023926e-01) (99, -3.58963340520858764648e-01) (100, -4.44980800151824951172e-01) (101, 2.22681269049644470215e-01) (102, -2.26499028503894805908e-02) (103, -2.54246520996093750000e+00) (104, -1.16036021709442138672e+00) (105, -1.02862119674682617188e-01) (106, -2.73148894309997558594e-01) (107, -1.02975711226463317871e-01) (108, -2.94154703617095947266e-01) (109, 5.86706936359405517578e-01) (110, 1.92728620022535324097e-02) (111, -1.81887835264205932617e-01) (112, -2.72349596023559570312e-01) (113, -2.57026791572570800781e-01) (114, -2.76330281049013137817e-02) (115, -3.44881504774093627930e-01) (116, -2.58088529109954833984e-01) (117, -5.72848200798034667969e-01) (118, 3.57209630310535430908e-02) (119, -2.24923714995384216309e-01) (120, -4.96909081935882568359e-01) (121, -5.39354920387268066406e-01) (122, -1.80277454853057861328e+00) (123, -4.40759629011154174805e-01) (124, -7.42249250411987304688e-01) (125, -1.04595780372619628906e-01) (126, -9.95242655277252197266e-01) (127, 3.73396754264831542969e-01) (128, -9.84674245119094848633e-02) (129, -2.16541394591331481934e-01) (130, -5.69959869608283042908e-03) (131, -7.77354324236512184143e-03) (132, -2.60944664478302001953e-01) (133, 2.49334219843149185181e-02) (134, -2.38135293126106262207e-01) (135, -2.17227816581726074219e-01) (136, 3.20142596960067749023e-01) (137, -2.13013935089111328125e+00) (138, -4.52127978205680847168e-02) (139, -3.93174350261688232422e-01) (140, -1.42124855518341064453e+00) (141, -1.10362970829010009766e+00) (142, -8.28625261783599853516e-02) (143, -8.33430707454681396484e-01) (144, 1.80989772081375122070e-01) (145, 9.36227440834045410156e-02) (146, -2.39965885877609252930e-01) (147, -7.01123714447021484375e-01) (148, -3.43624651432037353516e-01) (149, -5.51250390708446502686e-03) (150, -1.46163868904113769531e+00) (151, 2.32689738273620605469e-01) (152, -1.25984266400337219238e-01) (153, -2.73344099521636962891e-01) (154, -4.20344471931457519531e-01) (155, -1.21205663681030273438e+00) (156, -1.92392826080322265625e-01) (157, 5.61502337455749511719e-01) (158, -2.27612209320068359375e+00) (159, -6.55256509780883789062e-02) (160, 3.53622823953628540039e-01) (161, 8.45666170120239257812e-01) (162, -4.66267973184585571289e-01) (163, 4.26887303590774536133e-01) (164, 1.60196557641029357910e-01) (165, -4.85906183719635009766e-01) (166, -1.73387333750724792480e-01) (167, 8.55814442038536071777e-02) (168, -5.77044067904353141785e-03) (169, 5.46967983245849609375e-03) (170, -6.79610371589660644531e-02) (171, 2.46589295566082000732e-02) (172, -1.90790235996246337891e-01) (173, -5.88175177574157714844e-01) (174, 1.93131849169731140137e-01) (175, -1.35467088222503662109e+00) (176, -3.26719462871551513672e-01) (177, -4.44711953401565551758e-01) (178, -1.52521014213562011719e-01) (179, -8.98047745227813720703e-01) (180, -1.88858258724212646484e+00) (181, -4.45190131664276123047e-01) (182, -1.21357262134552001953e-01) (183, -1.63538947701454162598e-01) (184, 3.30046057701110839844e-01) (185, 1.87356725335121154785e-01) (186, -2.48409181833267211914e-01) (187, 5.78107163310050964355e-02) (188, -3.04912507534027099609e-01) (189, -2.14841723442077636719e-01) (190, -6.56605288386344909668e-02) (191, 1.32937729358673095703e-01) (192, -2.16780137270689010620e-02) (193, 3.88567805290222167969e-01) (194, -3.26798468828201293945e-01) (195, -5.96419155597686767578e-01) (196, -2.20482498407363891602e-01) (197, -1.52513432502746582031e+00) (198, -5.77217698097229003906e-01) (199, -1.81196376681327819824e-01) (200, 2.25312393158674240112e-02) (201, 2.79771653003990650177e-03) (202, -2.09133356809616088867e-01) (203, -1.53703227639198303223e-01) (204, -2.05439567565917968750e-01) (205, -5.09767770767211914062e-01) (206, -3.14047709107398986816e-02) (207, -4.34791713953018188477e-01) (208, -6.53172552585601806641e-01) (209, 3.27189743518829345703e-01) (210, 1.57427251338958740234e-01) (211, -4.55691874027252197266e-01) (212, -4.33067202568054199219e-01) (213, -8.61549377441406250000e-02) (214, -5.67033365368843078613e-02) (215, -5.81244468688964843750e-01) (216, 3.08649837970733642578e-01) (217, 1.08129143714904785156e-01) (218, -8.95192384719848632812e-01) (219, 2.08882287144660949707e-01) (220, -1.55492126941680908203e-01) (221, 1.84231057763099670410e-01) (222, -1.84290707111358642578e-02) (223, -1.64923042058944702148e-01) (224, -3.95295500755310058594e-01) (225, -2.89673388004302978516e-01) (226, -1.90021827816963195801e-01) (227, -5.29613234102725982666e-02) (228, -4.82099711894989013672e-01) (229, 1.29984781146049499512e-01) (230, -2.84560084342956542969e-01) (231, 1.06398820877075195312e-01) (232, 1.12340033054351806641e-01) (233, -2.03192546963691711426e-01) (234, -1.15546453744173049927e-02) (235, 1.59668549895286560059e-01) (236, -3.27379673719406127930e-01) (237, -2.94698625802993774414e-02) (238, -3.71317565441131591797e-01) (239, 3.06445807218551635742e-01) (240, -2.70473062992095947266e-01) (241, -7.35641360282897949219e-01) (242, -6.08795046806335449219e-01) (243, 2.16500699520111083984e-01) (244, -3.04073537699878215790e-03) (245, -2.16735422611236572266e-01) (246, 9.68478545546531677246e-02) (247, -7.32460767030715942383e-02) (248, -1.11781194806098937988e-01) (249, -2.23742768168449401855e-01) (250, -1.12876248359680175781e+00) (251, -1.38639664649963378906e+00) (252, 7.71252095699310302734e-01) (253, 1.41390189528465270996e-02) (254, -5.67541420459747314453e-01) (255, -1.50780409574508666992e-01) (256, 2.22373098134994506836e-01) (0, 5.91857507824897766113e-02) (1, 1.28419026732444763184e-01) (2, 1.30705416202545166016e+00) (3, 8.74340161681175231934e-02) (4, 5.22765278816223144531e-01) (5, -4.81005534529685974121e-02) (6, -2.69989401102066040039e-01) (7, -3.17619681358337402344e-01) (8, 1.82842600345611572266e+00) (9, 2.76775836944580078125e-01) (10, -2.25875630974769592285e-01) (11, 2.52352859824895858765e-02) (12, 2.46877893805503845215e-01) (13, 1.81098192930221557617e-01) (14, -3.45775067806243896484e-01) (15, -2.25983783602714538574e-01) (16, 4.51650202274322509766e-01) (17, -4.77891899645328521729e-02) (18, 5.39240479469299316406e-01) (19, 5.42665243148803710938e-01) (20, -1.10990311950445175171e-02) (21, -5.55533431470394134521e-02) (22, -3.26802611351013183594e-01) (23, -2.10380414500832557678e-03) (24, -9.47458893060684204102e-02) (25, 3.47818024456501007080e-02) (26, 1.81041419506072998047e-01) (27, 3.15418243408203125000e-01) (28, -1.97955623269081115723e-01) (29, 5.16004741191864013672e-01) (30, 5.38614630699157714844e-01) (31, 2.63209581375122070312e-01) (32, 8.74166250228881835938e-01) (33, -2.64401823282241821289e-01) (34, 8.21057409048080444336e-02) (35, -1.78018257021903991699e-01) (36, 4.66448843479156494141e-01) (37, 1.71238593757152557373e-02) (38, 1.00213813781738281250e+00) (39, 6.91820606589317321777e-02) (40, -2.45576694607734680176e-01) (41, 3.30698728561401367188e-01) (42, 5.78581914305686950684e-02) (43, 8.48778188228607177734e-01) (44, 2.88510710000991821289e-01) (45, 1.86188861727714538574e-01) (46, 1.83207932859659194946e-02) (47, 2.31335520744323730469e-01) (48, 5.07347941398620605469e-01) (49, 1.48211017251014709473e-01) (50, 1.73783436417579650879e-01) (51, 2.26770803332328796387e-01) (52, 6.56337082386016845703e-01) (53, 3.28121036291122436523e-01) (54, 6.15018010139465332031e-01) (55, -7.27841034531593322754e-02) (56, 3.52881908416748046875e-01) (57, 3.55342447757720947266e-01) (58, 5.21514952182769775391e-01) (59, 6.79655149579048156738e-02) (60, 4.08957377076148986816e-02) (61, -3.85819107294082641602e-01) (62, -1.46933615207672119141e-01) (63, 1.23648309707641601562e+00) (64, -5.36754608154296875000e-01) (65, 7.84044619649648666382e-03) (66, 3.25269818305969238281e-01) (67, 4.07230526208877563477e-01) (68, -2.82167911529541015625e-01) (69, 1.68524608016014099121e-01) (70, 1.99112758040428161621e-01) (71, 5.13978838920593261719e-01) (72, 1.95362389087677001953e-01) (73, 8.57504159212112426758e-02) (74, -2.57853955030441284180e-01) (75, -5.70756271481513977051e-02) (76, 1.01073727011680603027e-01) (77, 1.88162967562675476074e-01) (78, -4.82964236289262771606e-03) (79, 1.42414003610610961914e-01) (80, -5.76010584831237792969e-01) (81, 2.05006703734397888184e-01) (82, 5.00329673290252685547e-01) (83, -2.19372063875198364258e-01) (84, -1.29307818412780761719e+00) (85, -5.42182683944702148438e-01) (86, -1.27478212118148803711e-01) (87, 3.15506935119628906250e-01) (88, -1.25552147626876831055e-01) (89, 3.19517225027084350586e-01) (90, 1.42680868506431579590e-01) (91, 1.56491205096244812012e-01) (92, 4.91701513528823852539e-02) (93, 2.87803947925567626953e-01) (94, -3.76159958541393280029e-02) (95, 6.41422942280769348145e-02) (96, -1.72512263059616088867e-01) (97, 8.90823751688003540039e-02) (98, 1.45471647381782531738e-01) (99, 1.43678933382034301758e-01) (100, 6.01358115673065185547e-01) (101, -4.07795399427413940430e-01) (102, -3.29500496387481689453e-01) (103, 4.94849652051925659180e-01) (104, 1.12027265131473541260e-01) (105, 3.01908016204833984375e-01) (106, -6.11418532207608222961e-03) (107, 1.25959828495979309082e-01) (108, 7.13108122348785400391e-01) (109, 1.91940933465957641602e-01) (110, 5.08512914180755615234e-01) (111, 4.39089089632034301758e-01) (112, 4.07081812620162963867e-01) (113, 3.83529394865036010742e-01) (114, -2.17222258448600769043e-01) (115, -3.18651556968688964844e-01) (116, 1.26176607608795166016e+00) (117, 3.55718165636062622070e-01) (118, 5.48429429531097412109e-01) (119, 1.37931659817695617676e-01) (120, 4.53104794025421142578e-01) (121, 4.66575801372528076172e-01) (122, 3.17423164844512939453e-01) (123, 4.35057669878005981445e-01) (124, 3.32544803619384765625e-01) (125, -1.68661743402481079102e-01) (126, 2.68139354884624481201e-02) (127, -2.61224657297134399414e-01) (128, 1.52428179979324340820e-01) (129, 1.12838439643383026123e-01) (130, 5.39012730121612548828e-01) (131, -3.50738525390625000000e-01) (132, -6.35120868682861328125e-02) (133, -6.40327572822570800781e-01) (134, 2.20307081937789916992e-01) (135, 2.05845117568969726562e-01) (136, 3.00025761127471923828e-01) (137, 3.51853519678115844727e-01) (138, 2.61166453361511230469e-01) (139, 5.69560118019580841064e-02) (140, 3.05758863687515258789e-01) (141, 7.97791481018066406250e-01) (142, 8.02192747592926025391e-01) (143, 6.14415705204010009766e-01) (144, 1.06152050197124481201e-01) (145, -9.20547731220722198486e-03) (146, -2.78309494256973266602e-01) (147, 2.13281810283660888672e-01) (148, -8.06390792131423950195e-02) (149, -2.37051956355571746826e-02) (150, 1.24705553054809570312e+00) (151, -3.01907986402511596680e-01) (152, 1.06584057211875915527e-01) (153, -1.21518731117248535156e-01) (154, -6.55678287148475646973e-02) (155, 7.64369070529937744141e-01) (156, -3.27552974224090576172e-01) (157, -3.10903817415237426758e-01) (158, 1.40585869550704956055e-01) (159, -2.62951165437698364258e-01) (160, 2.75041490793228149414e-01) (161, 6.43509775400161743164e-02) (162, 3.80883485078811645508e-01) (163, -4.39520888030529022217e-02) (164, -6.45595610141754150391e-01) (165, 2.57697522640228271484e-01) (166, -2.35189214348793029785e-01) (167, 3.60811948776245117188e-01) (168, -1.21893994510173797607e-01) (169, -7.02510476112365722656e-01) (170, -7.44496822357177734375e-01) (171, 5.79837262630462646484e-02) (172, 1.28304228186607360840e-01) (173, 4.21435803174972534180e-01) (174, 5.40563128888607025146e-02) (175, 3.91505599021911621094e-01) (176, 3.81961882114410400391e-01) (177, 1.22349046170711517334e-01) (178, 3.77156764268875122070e-01) (179, 1.38948291540145874023e-01) (180, 2.86752879619598388672e-01) (181, -1.31529606878757476807e-02) (182, 6.95993542671203613281e-01) (183, -1.08304128050804138184e-01) (184, 1.89313486218452453613e-01) (185, 6.32916510105133056641e-01) (186, 2.49835141003131866455e-02) (187, 4.84299585223197937012e-02) (188, 2.46269181370735168457e-01) (189, 1.57445609569549560547e-01) (190, 4.65174503624439239502e-02) (191, 2.66149155795574188232e-02) (192, 1.87552750110626220703e-01) (193, 5.18870234489440917969e-01) (194, 1.16225647926330566406e+00) (195, 1.49242854118347167969e+00) (196, 8.39346274733543395996e-02) (197, -2.60043680667877197266e-01) (198, 4.29337799549102783203e-01) (199, 4.17148441076278686523e-01) (200, -1.33948670700192451477e-02) (201, -8.67633670568466186523e-02) (202, 2.50259786844253540039e-01) (203, 1.00449122488498687744e-01) (204, -1.80240590125322341919e-02) (205, 4.57092761993408203125e-01) (206, 3.58586490154266357422e-01) (207, 9.16153848171234130859e-01) (208, 8.51032197475433349609e-01) (209, 2.15384125709533691406e-01) (210, -2.74951159954071044922e-01) (211, 1.02837882936000823975e-01) (212, 2.93717116117477416992e-01) (213, 1.25737607479095458984e+00) (214, 1.09436661005020141602e-01) (215, 1.07363924384117126465e-01) (216, -2.59136445820331573486e-02) (217, 1.70516997575759887695e-01) (218, 1.90512210130691528320e-01) (219, 1.58026844263076782227e-01) (220, -1.38281002640724182129e-01) (221, -9.28039699792861938477e-02) (222, -3.70042808353900909424e-02) (223, 7.12963491678237915039e-02) (224, 7.32744038105010986328e-02) (225, -1.65299549698829650879e-01) (226, 5.38429245352745056152e-02) (227, -3.42790275812149047852e-01) (228, 2.71437317132949829102e-01) (229, -4.93992775678634643555e-01) (230, -3.51709127426147460938e-01) (231, 1.75755932927131652832e-01) (232, -7.65361115336418151855e-02) (233, -2.10732400417327880859e-01) (234, 3.11360180377960205078e-01) (235, 9.05640423297882080078e-03) (236, -4.79390650987625122070e-01) (237, -2.17733494937419891357e-02) (238, -1.07592232525348663330e-01) (239, 3.09877127408981323242e-01) (240, 2.45449900627136230469e-01) (241, 9.38435018062591552734e-01) (242, 5.65465211868286132812e-01) (243, 1.27861887216567993164e-01) (244, 4.54140529036521911621e-02) (245, 2.19951033592224121094e-01) (246, 5.01378811895847320557e-02) (247, -3.43250297009944915771e-02) (248, 8.42254981398582458496e-02) (249, 3.36682349443435668945e-02) (250, 2.89480507373809814453e-01) (251, 4.14218530058860778809e-02) (252, -1.61457449197769165039e-01) (253, 6.36622533202171325684e-02) (254, 7.16128945350646972656e-02) (255, 1.60669639706611633301e-01) (256, 1.97506248950958251953e-01) (0, 1.16455659270286560059e-01) (1, 2.56552081555128097534e-02) (2, -5.74528574943542480469e-01) (3, -1.74687638878822326660e-01) (4, 9.72223840653896331787e-03) (5, 1.13180615007877349854e-01) (6, 3.16324569284915924072e-02) (7, 2.90081739425659179688e-01) (8, 3.51875945925712585449e-02) (9, -2.48867675662040710449e-01) (10, -5.39139881730079650879e-02) (11, -1.80776417255401611328e-01) (12, 1.42025068402290344238e-01) (13, -3.13408911228179931641e-01) (14, -1.42987191677093505859e-01) (15, 3.49950879812240600586e-01) (16, 1.35296940803527832031e+00) (17, -3.66979181766510009766e-01) (18, -3.24384778738021850586e-01) (19, -4.42538380622863769531e-01) (20, -1.05104911327362060547e+00) (21, -1.69583827257156372070e-01) (22, -4.70555394887924194336e-01) (23, 1.44744956493377685547e+00) (24, 8.51186037063598632812e-01) (25, 9.40991267561912536621e-02) (26, 5.51006674766540527344e-01) (27, -1.78091120719909667969e+00) (28, 5.45644581317901611328e-01) (29, -6.22541785240173339844e-01) (30, -3.73731255531311035156e-01) (31, -5.55190891027450561523e-02) (32, 5.29846012592315673828e-01) (33, -4.52757999300956726074e-02) (34, -2.37543508410453796387e-02) (35, 1.58551648259162902832e-01) (36, -4.23366367816925048828e-01) (37, 1.38824120163917541504e-01) (38, -5.12598514556884765625e-01) (39, -1.97372958064079284668e-01) (40, 9.21557769179344177246e-02) (41, -3.37482511997222900391e-01) (42, -7.03936636447906494141e-01) (43, -1.08330786228179931641e-01) (44, 4.55826663970947265625e+00) (45, 1.82896837592124938965e-01) (46, 1.34877935051918029785e-01) (47, 7.82164275646209716797e-01) (48, -1.86304557323455810547e+00) (49, -6.34941875934600830078e-01) (50, 2.08546310663223266602e-01) (51, -5.58158278465270996094e-01) (52, -2.28202700614929199219e-01) (53, -6.85438290238380432129e-02) (54, 6.06931626796722412109e-01) (55, -1.24129080772399902344e+00) (56, -6.96327567100524902344e-01) (57, -1.85861587524414062500e-01) (58, 3.21459360420703887939e-02) (59, -3.66753786802291870117e-01) (60, 9.62964445352554321289e-02) (61, 1.43889933824539184570e-01) (62, -3.13465684652328491211e-01) (63, 1.68992374092340469360e-02) (64, -5.84435500204563140869e-02) (65, 1.10904300212860107422e+00) (66, 7.44851976633071899414e-02) (67, 6.42279207706451416016e-01) (68, 4.48427915573120117188e-01) (69, -2.72875487804412841797e-01) (70, 8.13530534505844116211e-02) (71, -8.48494023084640502930e-02) (72, 1.25556271523237228394e-02) (73, 2.38184466958045959473e-01) (74, 3.38647067546844482422e-01) (75, -1.70120641589164733887e-01) (76, -1.12949587404727935791e-01) (77, 2.87954896688461303711e-01) (78, -4.81298774480819702148e-01) (79, -2.62701567262411117554e-02) (80, -3.85603994131088256836e-01) (81, -2.23970741033554077148e-01) (82, 6.45326077938079833984e-02) (83, -1.38390868902206420898e-01) (84, 5.59985995292663574219e-01) (85, 1.14103123545646667480e-01) (86, 4.18396741151809692383e-01) (87, -2.30993926525115966797e-01) (88, 6.60500347614288330078e-01) (89, -4.78475958108901977539e-01) (90, -1.50839313864707946777e-01) (91, 1.21679961681365966797e-01) (92, -6.19522750377655029297e-01) (93, -4.89121735095977783203e-01) (94, -2.79833108186721801758e-01) (95, -4.42445904016494750977e-01) (96, -6.12525582313537597656e-01) (97, 2.82651603221893310547e-01) (98, 1.80984035134315490723e-01) (99, 7.45382755994796752930e-02) (100, -1.82371452450752258301e-01) (101, -1.77815660834312438965e-01) (102, -9.47381183505058288574e-02) (103, 1.30327716469764709473e-01) (104, -3.09948861598968505859e-01) (105, 6.79456803482025861740e-04) (106, 2.55562454462051391602e-01) (107, 2.34602525830268859863e-01) (108, -7.88637638092041015625e-01) (109, 1.02906036376953125000e+00) (110, 1.03199863433837890625e+00) (111, -2.06337407231330871582e-01) (112, -1.11896052956581115723e-01) (113, 4.80450361967086791992e-01) (114, 8.79225879907608032227e-02) (115, -2.14343369007110595703e-01) (116, -2.25928843021392822266e-01) (117, -9.86707061529159545898e-02) (118, 1.04033184051513671875e+00) (119, 8.71779397130012512207e-02) (120, -9.60357785224914550781e-02) (121, -1.27539753913879394531e+00) (122, -1.16696870326995849609e+00) (123, -5.10593891143798828125e-01) (124, -7.37814903259277343750e-01) (125, -5.47670498490333557129e-02) (126, -8.55783581733703613281e-01) (127, 3.40535566210746765137e-02) (128, 1.09236516058444976807e-01) (129, -1.45338460803031921387e-01) (130, -4.33126449584960937500e-01) (131, 8.89762341976165771484e-01) (132, -1.26685068011283874512e-01) (133, -3.38947117328643798828e-01) (134, -4.19422924518585205078e-01) (135, -9.47899594902992248535e-02) (136, 2.13827192783355712891e-02) (137, -7.24590241909027099609e-01) (138, -9.09225642681121826172e-01) (139, -8.17418158054351806641e-01) (140, -6.97128355503082275391e-01) (141, -1.25721186399459838867e-01) (142, -1.53891965746879577637e-01) (143, 6.87261939048767089844e-01) (144, 1.97934627532958984375e-01) (145, -2.12885707616806030273e-01) (146, -7.74511918425559997559e-02) (147, -2.35599324107170104980e-01) (148, -1.90209612250328063965e-01) (149, 2.35025808215141296387e-02) (150, 1.64306685328483581543e-02) (151, -3.32060381770133972168e-02) (152, 2.44013845920562744141e-01) (153, 3.35600465536117553711e-01) (154, -3.81602346897125244141e-01) (155, -1.78053840994834899902e-01) (156, -9.94606539607048034668e-02) (157, -1.04826830327510833740e-01) (158, -3.39396804571151733398e-01) (159, -2.37365718930959701538e-03) (160, 2.05911248922348022461e-01) (161, -1.07834246009588241577e-02) (162, -5.85434973239898681641e-01) (163, 8.06604996323585510254e-02) (164, -2.44285422377288341522e-03) (165, 5.73775947093963623047e-01) (166, -2.52214036881923675537e-02) (167, 3.19868117570877075195e-01) (168, 1.07392176985740661621e-01) (169, 1.29967436194419860840e-01) (170, 1.14163175225257873535e-01) (171, -2.73637741804122924805e-01) (172, -1.21918283402919769287e-01) (173, -4.53353255987167358398e-01) (174, -5.75304254889488220215e-02) (175, -7.93721139430999755859e-01) (176, -4.60170328617095947266e-01) (177, -2.46880158782005310059e-01) (178, -1.11191719770431518555e-01) (179, -3.59966129064559936523e-01) (180, -5.57166755199432373047e-01) (181, -2.56369888782501220703e-01) (182, -1.35401058197021484375e+00) (183, -3.96943390369415283203e-01) (184, 1.54176250100135803223e-01) (185, 4.07215803861618041992e-01) (186, -2.90069729089736938477e-01) (187, 4.63414430618286132812e-01) (188, -2.59841501712799072266e-01) (189, 5.98499029874801635742e-02) (190, -2.30311602354049682617e-01) (191, -9.05319452285766601562e-02) (192, -4.69377338886260986328e-01) (193, -4.26913768053054809570e-01) (194, 