FANN_FLO_2.1
num_layers=3
learning_rate=0.700000
connection_rate=1.000000
network_type=0
learning_momentum=0.000000
training_algorithm=2
train_error_function=1
train_stop_function=0
cascade_output_change_fraction=0.010000
quickprop_decay=-0.000100
quickprop_mu=1.750000
rprop_increase_factor=1.200000
rprop_decrease_factor=0.500000
rprop_delta_min=0.000000
rprop_delta_max=50.000000
rprop_delta_zero=0.100000
cascade_output_stagnation_epochs=12
cascade_candidate_change_fraction=0.010000
cascade_candidate_stagnation_epochs=12
cascade_max_out_epochs=150
cascade_min_out_epochs=50
cascade_max_cand_epochs=150
cascade_min_cand_epochs=50
cascade_num_candidate_groups=2
bit_fail_limit=3.49999994039535522461e-01
cascade_candidate_limit=1.00000000000000000000e+03
cascade_weight_multiplier=4.00000005960464477539e-01
cascade_activation_functions_count=10
cascade_activation_functions=3 5 7 8 10 11 14 15 16 17 
cascade_activation_steepnesses_count=4
cascade_activation_steepnesses=2.50000000000000000000e-01 5.00000000000000000000e-01 7.50000000000000000000e-01 1.00000000000000000000e+00 
layer_sizes=257 129 2 
scale_included=0
neurons (num_inputs, activation_function, activation_steepness)=(0, 0, 0.00000000000000000000e+00) (0, 0, 0.00000000000000000000e+00) (0, 0, 0.00000000000000000000e+00) (0, 0, 0.00000000000000000000e+00) (0, 0, 0.00000000000000000000e+00) (0, 0, 0.00000000000000000000e+00) (0, 0, 0.00000000000000000000e+00) (0, 0, 0.00000000000000000000e+00) (0, 0, 0.00000000000000000000e+00) (0, 0, 0.00000000000000000000e+00) (0, 0, 0.00000000000000000000e+00) (0, 0, 0.00000000000000000000e+00) (0, 0, 0.00000000000000000000e+00) (0, 0, 0.00000000000000000000e+00) (0, 0, 0.00000000000000000000e+00) (0, 0, 0.00000000000000000000e+00) (0, 0, 0.00000000000000000000e+00) (0, 0, 0.00000000000000000000e+00) (0, 0, 0.00000000000000000000e+00) (0, 0, 0.00000000000000000000e+00) (0, 0, 0.00000000000000000000e+00) (0, 0, 0.00000000000000000000e+00) (0, 0, 0.00000000000000000000e+00) (0, 0, 0.00000000000000000000e+00) (0, 0, 0.00000000000000000000e+00) (0, 0, 0.00000000000000000000e+00) (0, 0, 0.00000000000000000000e+00) (0, 0, 0.00000000000000000000e+00) (0, 0, 0.00000000000000000000e+00) (0, 0, 0.00000000000000000000e+00) (0, 0, 0.00000000000000000000e+00) (0, 0, 0.00000000000000000000e+00) (0, 0, 0.00000000000000000000e+00) (0, 0, 0.00000000000000000000e+00) (0, 0, 0.00000000000000000000e+00) (0, 0, 0.00000000000000000000e+00) (0, 0, 0.00000000000000000000e+00) (0, 0, 0.00000000000000000000e+00) (0, 0, 0.00000000000000000000e+00) (0, 0, 0.00000000000000000000e+00) (0, 0, 0.00000000000000000000e+00) (0, 0, 0.00000000000000000000e+00) (0, 0, 0.00000000000000000000e+00) (0, 0, 0.00000000000000000000e+00) (0, 0, 0.00000000000000000000e+00) (0, 0, 0.00000000000000000000e+00) (0, 0, 0.00000000000000000000e+00) (0, 0, 0.00000000000000000000e+00) (0, 0, 0.00000000000000000000e+00) (0, 0, 0.00000000000000000000e+00) (0, 0, 0.00000000000000000000e+00) (0, 0, 0.00000000000000000000e+00) (0, 0, 0.00000000000000000000e+00) (0, 0, 0.00000000000000000000e+00) (0, 0, 0.00000000000000000000e+00) (0, 0, 0.00000000000000000000e+00) (0, 0, 0.00000000000000000000e+00) (0, 0, 0.00000000000000000000e+00) (0, 0, 0.00000000000000000000e+00) (0, 0, 0.00000000000000000000e+00) (0, 0, 0.00000000000000000000e+00) (0, 0, 0.00000000000000000000e+00) (0, 0, 0.00000000000000000000e+00) (0, 0, 0.00000000000000000000e+00) (0, 0, 0.00000000000000000000e+00) (0, 0, 0.00000000000000000000e+00) (0, 0, 0.00000000000000000000e+00) (0, 0, 0.00000000000000000000e+00) (0, 0, 0.00000000000000000000e+00) (0, 0, 0.00000000000000000000e+00) (0, 0, 0.00000000000000000000e+00) (0, 0, 0.00000000000000000000e+00) (0, 0, 0.00000000000000000000e+00) (0, 0, 0.00000000000000000000e+00) (0, 0, 0.00000000000000000000e+00) (0, 0, 0.00000000000000000000e+00) (0, 0, 0.00000000000000000000e+00) (0, 0, 0.00000000000000000000e+00) (0, 0, 0.00000000000000000000e+00) (0, 0, 0.00000000000000000000e+00) (0, 0, 0.00000000000000000000e+00) (0, 0, 0.00000000000000000000e+00) (0, 0, 0.00000000000000000000e+00) (0, 0, 0.00000000000000000000e+00) (0, 0, 0.00000000000000000000e+00) (0, 0, 0.00000000000000000000e+00) (0, 0, 0.00000000000000000000e+00) (0, 0, 0.00000000000000000000e+00) (0, 0, 0.00000000000000000000e+00) (0, 0, 0.00000000000000000000e+00) (0, 0, 0.00000000000000000000e+00) (0, 0, 0.00000000000000000000e+00) (0, 0, 0.00000000000000000000e+00) (0, 0, 0.00000000000000000000e+00) (0, 0, 0.00000000000000000000e+00) (0, 0, 0.00000000000000000000e+00) (0, 0, 0.00000000000000000000e+00) (0, 0, 0.00000000000000000000e+00) (0, 0, 0.00000000000000000000e+00) (0, 0, 0.00000000000000000000e+00) (0, 0, 0.00000000000000000000e+00) (0, 0, 0.00000000000000000000e+00) (0, 0, 0.00000000000000000000e+00) (0, 0, 0.00000000000000000000e+00) (0, 0, 0.00000000000000000000e+00) (0, 0, 0.00000000000000000000e+00) (0, 0, 0.00000000000000000000e+00) (0, 0, 0.00000000000000000000e+00) (0, 0, 0.00000000000000000000e+00) (0, 0, 0.00000000000000000000e+00) (0, 0, 0.00000000000000000000e+00) (0, 0, 0.00000000000000000000e+00) (0, 0, 0.00000000000000000000e+00) (0, 0, 0.00000000000000000000e+00) (0, 0, 0.00000000000000000000e+00) (0, 0, 0.00000000000000000000e+00) (0, 0, 0.00000000000000000000e+00) (0, 0, 0.00000000000000000000e+00) (0, 0, 0.00000000000000000000e+00) (0, 0, 0.00000000000000000000e+00) (0, 0, 0.00000000000000000000e+00) (0, 0, 0.00000000000000000000e+00) (0, 0, 0.00000000000000000000e+00) (0, 0, 0.00000000000000000000e+00) (0, 0, 0.00000000000000000000e+00) (0, 0, 0.00000000000000000000e+00) (0, 0, 0.00000000000000000000e+00) (0, 0, 0.00000000000000000000e+00) (0, 0, 0.00000000000000000000e+00) (0, 0, 0.00000000000000000000e+00) (0, 0, 0.00000000000000000000e+00) (0, 0, 0.00000000000000000000e+00) (0, 0, 0.00000000000000000000e+00) (0, 0, 0.00000000000000000000e+00) (0, 0, 0.00000000000000000000e+00) (0, 0, 0.00000000000000000000e+00) (0, 0, 0.00000000000000000000e+00) (0, 0, 0.00000000000000000000e+00) (0, 0, 0.00000000000000000000e+00) (0, 0, 0.00000000000000000000e+00) (0, 0, 0.00000000000000000000e+00) (0, 0, 0.00000000000000000000e+00) (0, 0, 0.00000000000000000000e+00) (0, 0, 0.00000000000000000000e+00) (0, 0, 0.00000000000000000000e+00) (0, 0, 0.00000000000000000000e+00) (0, 0, 0.00000000000000000000e+00) (0, 0, 0.00000000000000000000e+00) (0, 0, 0.00000000000000000000e+00) (0, 0, 0.00000000000000000000e+00) (0, 0, 0.00000000000000000000e+00) (0, 0, 0.00000000000000000000e+00) (0, 0, 0.00000000000000000000e+00) (0, 0, 0.00000000000000000000e+00) (0, 0, 0.00000000000000000000e+00) (0, 0, 0.00000000000000000000e+00) (0, 0, 0.00000000000000000000e+00) (0, 0, 0.00000000000000000000e+00) (0, 0, 0.00000000000000000000e+00) (0, 0, 0.00000000000000000000e+00) (0, 0, 0.00000000000000000000e+00) (0, 0, 0.00000000000000000000e+00) (0, 0, 0.00000000000000000000e+00) (0, 0, 0.00000000000000000000e+00) (0, 0, 0.00000000000000000000e+00) (0, 0, 0.00000000000000000000e+00) (0, 0, 0.00000000000000000000e+00) (0, 0, 0.00000000000000000000e+00) (0, 0, 0.00000000000000000000e+00) (0, 0, 0.00000000000000000000e+00) (0, 0, 0.00000000000000000000e+00) (0, 0, 0.00000000000000000000e+00) (0, 0, 0.00000000000000000000e+00) (0, 0, 0.00000000000000000000e+00) (0, 0, 0.00000000000000000000e+00) (0, 0, 0.00000000000000000000e+00) (0, 0, 0.00000000000000000000e+00) (0, 0, 0.00000000000000000000e+00) (0, 0, 0.00000000000000000000e+00) (0, 0, 0.00000000000000000000e+00) (0, 0, 0.00000000000000000000e+00) (0, 0, 0.00000000000000000000e+00) (0, 0, 0.00000000000000000000e+00) (0, 0, 0.00000000000000000000e+00) (0, 0, 0.00000000000000000000e+00) (0, 0, 0.00000000000000000000e+00) (0, 0, 0.00000000000000000000e+00) (0, 0, 0.00000000000000000000e+00) (0, 0, 0.00000000000000000000e+00) (0, 0, 0.00000000000000000000e+00) (0, 0, 0.00000000000000000000e+00) (0, 0, 0.00000000000000000000e+00) (0, 0, 0.00000000000000000000e+00) (0, 0, 0.00000000000000000000e+00) (0, 0, 0.00000000000000000000e+00) (0, 0, 0.00000000000000000000e+00) (0, 0, 0.00000000000000000000e+00) (0, 0, 0.00000000000000000000e+00) (0, 0, 0.00000000000000000000e+00) (0, 0, 0.00000000000000000000e+00) (0, 0, 0.00000000000000000000e+00) (0, 0, 0.00000000000000000000e+00) (0, 0, 0.00000000000000000000e+00) (0, 0, 0.00000000000000000000e+00) (0, 0, 0.00000000000000000000e+00) (0, 0, 0.00000000000000000000e+00) (0, 0, 0.00000000000000000000e+00) (0, 0, 0.00000000000000000000e+00) (0, 0, 0.00000000000000000000e+00) (0, 0, 0.00000000000000000000e+00) (0, 0, 0.00000000000000000000e+00) (0, 0, 0.00000000000000000000e+00) (0, 0, 0.00000000000000000000e+00) (0, 0, 0.00000000000000000000e+00) (0, 0, 0.00000000000000000000e+00) (0, 0, 0.00000000000000000000e+00) (0, 0, 0.00000000000000000000e+00) (0, 0, 0.00000000000000000000e+00) (0, 0, 0.00000000000000000000e+00) (0, 0, 0.00000000000000000000e+00) (0, 0, 0.00000000000000000000e+00) (0, 0, 0.00000000000000000000e+00) (0, 0, 0.00000000000000000000e+00) (0, 0, 0.00000000000000000000e+00) (0, 0, 0.00000000000000000000e+00) (0, 0, 0.00000000000000000000e+00) (0, 0, 0.00000000000000000000e+00) (0, 0, 0.00000000000000000000e+00) (0, 0, 0.00000000000000000000e+00) (0, 0, 0.00000000000000000000e+00) (0, 0, 0.00000000000000000000e+00) (0, 0, 0.00000000000000000000e+00) (0, 0, 0.00000000000000000000e+00) (0, 0, 0.00000000000000000000e+00) (0, 0, 0.00000000000000000000e+00) (0, 0, 0.00000000000000000000e+00) (0, 0, 0.00000000000000000000e+00) (0, 0, 0.00000000000000000000e+00) (0, 0, 0.00000000000000000000e+00) (0, 0, 0.00000000000000000000e+00) (0, 0, 0.00000000000000000000e+00) (0, 0, 0.00000000000000000000e+00) (0, 0, 0.00000000000000000000e+00) (0, 0, 0.00000000000000000000e+00) (0, 0, 0.00000000000000000000e+00) (0, 0, 0.00000000000000000000e+00) (0, 0, 0.00000000000000000000e+00) (0, 0, 0.00000000000000000000e+00) (0, 0, 0.00000000000000000000e+00) (0, 0, 0.00000000000000000000e+00) (0, 0, 0.00000000000000000000e+00) (0, 0, 0.00000000000000000000e+00) (0, 0, 0.00000000000000000000e+00) (0, 0, 0.00000000000000000000e+00) (0, 0, 0.00000000000000000000e+00) (0, 0, 0.00000000000000000000e+00) (0, 0, 0.00000000000000000000e+00) (257, 5, 5.00000000000000000000e-01) (257, 5, 5.00000000000000000000e-01) (257, 5, 5.00000000000000000000e-01) (257, 5, 5.00000000000000000000e-01) (257, 5, 5.00000000000000000000e-01) (257, 5, 5.00000000000000000000e-01) (257, 5, 5.00000000000000000000e-01) (257, 5, 5.00000000000000000000e-01) (257, 5, 5.00000000000000000000e-01) (257, 5, 5.00000000000000000000e-01) (257, 5, 5.00000000000000000000e-01) (257, 5, 5.00000000000000000000e-01) (257, 5, 5.00000000000000000000e-01) (257, 5, 5.00000000000000000000e-01) (257, 5, 5.00000000000000000000e-01) (257, 5, 5.00000000000000000000e-01) (257, 5, 5.00000000000000000000e-01) (257, 5, 5.00000000000000000000e-01) (257, 5, 5.00000000000000000000e-01) (257, 5, 5.00000000000000000000e-01) (257, 5, 5.00000000000000000000e-01) (257, 5, 5.00000000000000000000e-01) (257, 5, 5.00000000000000000000e-01) (257, 5, 5.00000000000000000000e-01) (257, 5, 5.00000000000000000000e-01) (257, 5, 5.00000000000000000000e-01) (257, 5, 5.00000000000000000000e-01) (257, 5, 5.00000000000000000000e-01) (257, 5, 5.00000000000000000000e-01) (257, 5, 5.00000000000000000000e-01) (257, 5, 5.00000000000000000000e-01) (257, 5, 5.00000000000000000000e-01) (257, 5, 5.00000000000000000000e-01) (257, 5, 5.00000000000000000000e-01) (257, 5, 5.00000000000000000000e-01) (257, 5, 5.00000000000000000000e-01) (257, 5, 5.00000000000000000000e-01) (257, 5, 5.00000000000000000000e-01) (257, 5, 5.00000000000000000000e-01) (257, 5, 5.00000000000000000000e-01) (257, 5, 5.00000000000000000000e-01) (257, 5, 5.00000000000000000000e-01) (257, 5, 5.00000000000000000000e-01) (257, 5, 5.00000000000000000000e-01) (257, 5, 5.00000000000000000000e-01) (257, 5, 5.00000000000000000000e-01) (257, 5, 5.00000000000000000000e-01) (257, 5, 5.00000000000000000000e-01) (257, 5, 5.00000000000000000000e-01) (257, 5, 5.00000000000000000000e-01) (257, 5, 5.00000000000000000000e-01) (257, 5, 5.00000000000000000000e-01) (257, 5, 5.00000000000000000000e-01) (257, 5, 5.00000000000000000000e-01) (257, 5, 5.00000000000000000000e-01) (257, 5, 5.00000000000000000000e-01) (257, 5, 5.00000000000000000000e-01) (257, 5, 5.00000000000000000000e-01) (257, 5, 5.00000000000000000000e-01) (257, 5, 5.00000000000000000000e-01) (257, 5, 5.00000000000000000000e-01) (257, 5, 5.00000000000000000000e-01) (257, 5, 5.00000000000000000000e-01) (257, 5, 5.00000000000000000000e-01) (257, 5, 5.00000000000000000000e-01) (257, 5, 5.00000000000000000000e-01) (257, 5, 5.00000000000000000000e-01) (257, 5, 5.00000000000000000000e-01) (257, 5, 5.00000000000000000000e-01) (257, 5, 5.00000000000000000000e-01) (257, 5, 5.00000000000000000000e-01) (257, 5, 5.00000000000000000000e-01) (257, 5, 5.00000000000000000000e-01) (257, 5, 5.00000000000000000000e-01) (257, 5, 5.00000000000000000000e-01) (257, 5, 5.00000000000000000000e-01) (257, 5, 5.00000000000000000000e-01) (257, 5, 5.00000000000000000000e-01) (257, 5, 5.00000000000000000000e-01) (257, 5, 5.00000000000000000000e-01) (257, 5, 5.00000000000000000000e-01) (257, 5, 5.00000000000000000000e-01) (257, 5, 5.00000000000000000000e-01) (257, 5, 5.00000000000000000000e-01) (257, 5, 5.00000000000000000000e-01) (257, 5, 5.00000000000000000000e-01) (257, 5, 5.00000000000000000000e-01) (257, 5, 5.00000000000000000000e-01) (257, 5, 5.00000000000000000000e-01) (257, 5, 5.00000000000000000000e-01) (257, 5, 5.00000000000000000000e-01) (257, 5, 5.00000000000000000000e-01) (257, 5, 5.00000000000000000000e-01) (257, 5, 5.00000000000000000000e-01) (257, 5, 5.00000000000000000000e-01) (257, 5, 5.00000000000000000000e-01) (257, 5, 5.00000000000000000000e-01) (257, 5, 5.00000000000000000000e-01) (257, 5, 5.00000000000000000000e-01) (257, 5, 5.00000000000000000000e-01) (257, 5, 5.00000000000000000000e-01) (257, 5, 5.00000000000000000000e-01) (257, 5, 5.00000000000000000000e-01) (257, 5, 5.00000000000000000000e-01) (257, 5, 5.00000000000000000000e-01) (257, 5, 5.00000000000000000000e-01) (257, 5, 5.00000000000000000000e-01) (257, 5, 5.00000000000000000000e-01) (257, 5, 5.00000000000000000000e-01) (257, 5, 5.00000000000000000000e-01) (257, 5, 5.00000000000000000000e-01) (257, 5, 5.00000000000000000000e-01) (257, 5, 5.00000000000000000000e-01) (257, 5, 5.00000000000000000000e-01) (257, 5, 5.00000000000000000000e-01) (257, 5, 5.00000000000000000000e-01) (257, 5, 5.00000000000000000000e-01) (257, 5, 5.00000000000000000000e-01) (257, 5, 5.00000000000000000000e-01) (257, 5, 5.00000000000000000000e-01) (257, 5, 5.00000000000000000000e-01) (257, 5, 5.00000000000000000000e-01) (257, 5, 5.00000000000000000000e-01) (257, 5, 5.00000000000000000000e-01) (257, 5, 5.00000000000000000000e-01) (257, 5, 5.00000000000000000000e-01) (257, 5, 5.00000000000000000000e-01) (257, 5, 5.00000000000000000000e-01) (0, 5, 0.00000000000000000000e+00) (129, 5, 5.00000000000000000000e-01) (0, 5, 0.00000000000000000000e+00) 
connections (connected_to_neuron, weight)=(0, 6.77299261093139648438e-01) (1, 1.89222425222396850586e-01) (2, 1.92691695690155029297e+00) (3, 3.27778220176696777344e-01) (4, -3.51219736039638519287e-02) (5, -3.64926546812057495117e-01) (6, 8.03211033344268798828e-01) (7, 5.78579246997833251953e-01) (8, -3.38275060057640075684e-02) (9, 4.18973624706268310547e-01) (10, 1.82732784748077392578e+00) (11, 1.93664684891700744629e-01) (12, 1.97116628289222717285e-01) (13, 8.25014114379882812500e-01) (14, 1.07617966830730438232e-01) (15, 1.86949774622917175293e-01) (16, -2.99255728721618652344e-01) (17, 3.98132175207138061523e-01) (18, -1.26877781003713607788e-02) (19, 8.53300169110298156738e-02) (20, -1.10598638653755187988e-01) (21, -9.93036851286888122559e-02) (22, 3.96770119667053222656e-01) (23, 3.41636151075363159180e-01) (24, 2.85283386707305908203e-01) (25, 1.44477829337120056152e-01) (26, 3.19088935852050781250e-01) (27, 7.07028627395629882812e-01) (28, 4.25663650035858154297e-01) (29, 8.61983478069305419922e-01) (30, 5.06093427538871765137e-02) (31, 1.18007332086563110352e-01) (32, -2.61990278959274291992e-01) (33, -3.55543732643127441406e-01) (34, 6.25531151890754699707e-02) (35, -4.54647183418273925781e-01) (36, 4.68929350376129150391e-01) (37, -2.99363322556018829346e-02) (38, 4.26852196455001831055e-01) (39, 3.88498634099960327148e-01) (40, -2.27323040366172790527e-01) (41, 8.38281586766242980957e-02) (42, 3.76277536153793334961e-01) (43, -6.30898475646972656250e-01) (44, 2.59643167257308959961e-01) (45, 9.91281345486640930176e-02) (46, -4.24491047859191894531e-01) (47, 5.96863627433776855469e-01) (48, 3.00237447023391723633e-01) (49, 1.63795486092567443848e-01) (50, 1.79942950606346130371e-01) (51, 6.90442681312561035156e-01) (52, 2.62355506420135498047e-01) (53, 3.91658604145050048828e-01) (54, -8.57990700751543045044e-04) (55, 1.25269114971160888672e-01) (56, 1.47425368428230285645e-01) (57, -4.99686896800994873047e-01) (58, 1.19124233722686767578e-01) (59, 3.93965274095535278320e-01) (60, 2.71921575069427490234e-01) (61, -2.64690294861793518066e-02) (62, 2.56705790758132934570e-01) (63, 1.17874719202518463135e-01) (64, 1.38261824846267700195e-01) (65, -4.25671599805355072021e-02) (66, 3.44042658805847167969e-01) (67, -2.34079718589782714844e-01) (68, 5.50948798656463623047e-01) (69, 9.45105254650115966797e-02) (70, 4.64233085513114929199e-02) (71, -6.13725244998931884766e-01) (72, 1.48665323853492736816e-01) (73, 1.19962967932224273682e-01) (74, -2.36374095082283020020e-01) (75, 6.60279572010040283203e-01) (76, 1.83918416500091552734e-01) (77, 5.80865859985351562500e-01) (78, 3.25640261173248291016e-01) (79, 6.78140103816986083984e-01) (80, 4.04705673456192016602e-01) (81, -3.07392980903387069702e-03) (82, 6.09023869037628173828e-02) (83, 7.04333961009979248047e-01) (84, 3.23998451232910156250e-01) (85, -6.73264682292938232422e-01) (86, -2.14014530181884765625e-01) (87, 1.01192638278007507324e-01) (88, 3.42942595481872558594e-01) (89, 1.84737241268157958984e+00) (90, -2.75522023439407348633e-01) (91, 4.39049631357192993164e-01) (92, 1.02920401096343994141e+00) (93, -1.86096161603927612305e-01) (94, 1.02529838681221008301e-01) (95, 3.47262680530548095703e-01) (96, 1.71197071671485900879e-01) (97, 1.18491955101490020752e-01) (98, 6.05841994285583496094e-01) (99, -2.54703670740127563477e-01) (100, 3.13099682331085205078e-01) (101, -6.85601234436035156250e-01) (102, 2.37042263150215148926e-01) (103, 3.92679601907730102539e-01) (104, -2.07093909382820129395e-01) (105, 4.88035112619400024414e-01) (106, 8.99333283305168151855e-02) (107, -2.98180058598518371582e-02) (108, 4.31910753250122070312e-01) (109, 3.27615827322006225586e-01) (110, 7.72195398807525634766e-01) (111, 2.99950331449508666992e-01) (112, -1.32662832736968994141e-01) (113, 4.35919731855392456055e-01) (114, 4.49150413274765014648e-01) (115, -1.55344203114509582520e-01) (116, 3.21826756000518798828e-01) (117, 2.79699981212615966797e-01) (118, 9.48311090469360351562e-02) (119, -3.61625924706459045410e-02) (120, 3.84502738714218139648e-01) (121, 6.61743879318237304688e-01) (122, 3.21365743875503540039e-01) (123, 5.54358124732971191406e-01) (124, 6.90418630838394165039e-02) (125, 5.30360102653503417969e-01) (126, 1.91943085193634033203e+00) (127, 2.16200515627861022949e-01) (128, 2.35689431428909301758e-01) (129, 2.12276649475097656250e+00) (130, -6.34735286235809326172e-01) (131, 2.32468917965888977051e-01) (132, 8.22824016213417053223e-02) (133, 2.07718014717102050781e-01) (134, 1.24909125268459320068e-01) (135, 1.91707275807857513428e-02) (136, 1.28075540065765380859e-01) (137, 1.54986172914505004883e-01) (138, 1.86549693346023559570e-01) (139, 7.55864799022674560547e-01) (140, 1.70244216918945312500e-01) (141, 4.16757106781005859375e+00) (142, 1.53155818581581115723e-01) (143, 5.33254444599151611328e-01) (144, -4.37178499996662139893e-02) (145, 1.21569834649562835693e-01) (146, 1.85099869966506958008e-01) (147, 3.80800515413284301758e-01) (148, 2.23801717162132263184e-01) (149, 7.22776412963867187500e-01) (150, 9.58172023296356201172e-01) (151, 3.79178300499916076660e-02) (152, 1.62550106644630432129e-01) (153, 3.47071647644042968750e-01) (154, 4.20753091573715209961e-01) (155, 6.83393239974975585938e-01) (156, -2.41289555560797452927e-04) (157, -7.18068927526473999023e-02) (158, 1.76683008670806884766e-01) (159, 1.56992711126804351807e-02) (160, 3.86213093996047973633e-01) (161, 2.44854331016540527344e-01) (162, 5.54026126861572265625e-01) (163, -1.96536555886268615723e-01) (164, 4.64104294776916503906e-01) (165, 4.27161753177642822266e-01) (166, -2.88751590996980667114e-02) (167, -1.82933449745178222656e-01) (168, 3.20052325725555419922e-01) (169, 1.63178034126758575439e-02) (170, -8.65476608276367187500e-01) (171, 3.37348043918609619141e-01) (172, -5.26122093200683593750e-01) (173, 5.92231333255767822266e-01) (174, 2.59797006845474243164e-01) (175, 1.61612555384635925293e-02) (176, 7.90838897228240966797e-02) (177, 5.16900897026062011719e-01) (178, 3.79988476634025573730e-02) (179, -1.20881311595439910889e-01) (180, 3.12343686819076538086e-01) (181, 3.11170637607574462891e-01) (182, 6.26522719860076904297e-01) (183, -1.02910734713077545166e-01) (184, -7.02823251485824584961e-02) (185, 3.24177980422973632812e-01) (186, -1.32950127124786376953e-01) (187, 7.23871812224388122559e-02) (188, -1.96074888110160827637e-01) (189, -1.95787683129310607910e-01) (190, -9.11848068237304687500e-01) (191, 2.08246614784002304077e-02) (192, 5.46751558780670166016e-01) (193, 1.12099182605743408203e+00) (194, 1.08112823963165283203e+00) (195, 1.85082003474235534668e-01) (196, 7.19277501106262207031e-01) (197, 5.25564188137650489807e-03) (198, 1.41112226992845535278e-03) (199, 1.40231966972351074219e-01) (200, 1.55400171875953674316e-01) (201, -1.00293561816215515137e-01) (202, -7.26704448461532592773e-02) (203, 1.23257748782634735107e-01) (204, 4.01114165782928466797e-01) (205, 1.05964744091033935547e+00) (206, 2.09856688976287841797e-01) (207, 3.90726894140243530273e-01) (208, 6.60935282707214355469e-01) (209, 1.46342990919947624207e-02) (210, 3.73154655098915100098e-02) (211, 9.22392427921295166016e-01) (212, 3.51992279291152954102e-01) (213, 3.69812071323394775391e-01) (214, 1.43747180700302124023e-01) (215, 1.78636282682418823242e-01) (216, 2.16703698039054870605e-01) (217, 8.33408653736114501953e-01) (218, 2.01630964875221252441e-01) (219, -1.68183669447898864746e-01) (220, 8.99704575538635253906e-01) (221, 5.89945733547210693359e-01) (222, 6.12115979194641113281e-01) (223, 2.91707068681716918945e-01) (224, 1.42339992523193359375e+00) (225, 1.48069605231285095215e-01) (226, -3.99359576404094696045e-02) (227, -1.32056570053100585938e+00) (228, 1.85562551021575927734e-01) (229, -3.09806410223245620728e-03) (230, 1.89099058508872985840e-01) (231, -4.36840727925300598145e-02) (232, 4.58675473928451538086e-01) (233, 1.99379384517669677734e-01) (234, 1.86829879879951477051e-01) (235, -3.21031585335731506348e-02) (236, 7.34523892402648925781e-01) (237, -1.78337275981903076172e-01) (238, 7.89135754108428955078e-01) (239, -3.03406536579132080078e-01) (240, 2.57258594036102294922e-01) (241, 1.32605329155921936035e-01) (242, 6.81660592555999755859e-01) (243, 2.17258229851722717285e-01) (244, 4.63425219058990478516e-01) (245, 2.90539205074310302734e-01) (246, -4.86335251480340957642e-03) (247, 1.94132059812545776367e-01) (248, 3.13733041286468505859e-01) (249, 1.99635699391365051270e-01) (250, 3.75154674053192138672e-01) (251, 3.73714566230773925781e-01) (252, 4.53617542982101440430e-01) (253, 3.89245718717575073242e-01) (254, 4.56480532884597778320e-01) (255, -1.45825529098510742188e+00) (256, -4.87963557243347167969e-02) (0, 1.85615085065364837646e-02) (1, 5.16795337200164794922e-01) (2, -2.18342356383800506592e-02) (3, 6.17653965950012207031e-01) (4, 8.94850045442581176758e-02) (5, 9.87651646137237548828e-02) (6, 6.71248972415924072266e-01) (7, 6.25553488731384277344e-01) (8, 2.73723095655441284180e-01) (9, 2.58157819509506225586e-01) (10, 9.79293957352638244629e-02) (11, -7.75640845298767089844e-01) (12, 2.66862094402313232422e-01) (13, 1.79388010501861572266e+00) (14, -1.26431733369827270508e-01) (15, 3.84098917245864868164e-01) (16, 8.34415674209594726562e-01) (17, 8.07375848293304443359e-01) (18, 3.07736843824386596680e-01) (19, 2.01450437307357788086e-01) (20, 5.66015958786010742188e-01) (21, 2.52330541610717773438e-01) (22, 1.04025311768054962158e-01) (23, 2.41782128810882568359e-01) (24, 1.18200451135635375977e-01) (25, 4.76222217082977294922e-01) (26, 1.23363637924194335938e+00) (27, 5.49124836921691894531e-01) (28, 1.11830458045005798340e-01) (29, -1.71589985489845275879e-01) (30, -2.83611923456192016602e-01) (31, 1.01721167564392089844e-01) (32, -1.18869720026850700378e-02) (33, -4.23744142055511474609e-01) (34, -7.38286972045898437500e-02) (35, -9.09342542290687561035e-02) (36, 2.71055012941360473633e-01) (37, -9.09733101725578308105e-02) (38, -2.16897716745734214783e-03) (39, 5.12025594711303710938e-01) (40, 3.01732242107391357422e-01) (41, 1.83286219835281372070e-01) (42, -4.66288924217224121094e-02) (43, 2.76498824357986450195e-01) (44, 4.14341300725936889648e-01) (45, 1.95818588137626647949e-01) (46, 5.18109142780303955078e-01) (47, 7.45531469583511352539e-02) (48, -5.00430073589086532593e-03) (49, -2.46965363621711730957e-02) (50, 1.92346900701522827148e-01) (51, 9.88306179642677307129e-02) (52, -3.89123484492301940918e-02) (53, 2.68895864486694335938e-01) (54, 5.83075940608978271484e-01) (55, 1.21138632297515869141e-01) (56, 1.46707057952880859375e-01) (57, 1.36602193117141723633e-01) (58, 3.07562321424484252930e-01) (59, 5.77134430408477783203e-01) (60, 2.02683374285697937012e-01) (61, 5.02436578273773193359e-01) (62, 4.04525220394134521484e-01) (63, 1.98055952787399291992e-01) (64, 1.65684133768081665039e-01) (65, 9.05186235904693603516e-01) (66, 5.55569231510162353516e-01) (67, 2.86206871271133422852e-01) (68, -5.22390455007553100586e-02) (69, 1.94299966096878051758e-01) (70, -3.32824625074863433838e-02) (71, 1.58628582954406738281e-01) (72, 1.94411903619766235352e-01) (73, 7.29319572448730468750e-01) (74, -2.52961844205856323242e-01) (75, -8.11613425612449645996e-02) (76, 1.24111044406890869141e+00) (77, 3.18558156490325927734e-01) (78, -2.70965814590454101562e-01) (79, 4.69955474138259887695e-01) (80, 5.70896983146667480469e-01) (81, 3.77913773059844970703e-01) (82, 1.67836561799049377441e-01) (83, 4.43942815065383911133e-01) (84, 5.28435371816158294678e-02) (85, -6.12106695771217346191e-02) (86, 6.07276201248168945312e-01) (87, 5.23572385311126708984e-01) (88, 5.60112297534942626953e-01) (89, -8.42951118946075439453e-01) (90, 4.72978413105010986328e-01) (91, 3.70952218770980834961e-01) (92, 1.46579122543334960938e+00) (93, 4.70563620328903198242e-01) (94, 9.96679887175559997559e-02) (95, 8.00591588020324707031e-01) (96, 1.33072257041931152344e-01) (97, -8.29142108559608459473e-02) (98, 3.30569565296173095703e-01) (99, -8.06396901607513427734e-02) (100, 9.80859622359275817871e-02) (101, 2.31905207037925720215e-01) (102, 5.84689378738403320312e-01) (103, 9.24047589302062988281e-01) (104, 7.77567803859710693359e-01) (105, 2.17309609055519104004e-01) (106, 1.76648601889610290527e-01) (107, 4.05911207199096679688e-01) (108, 2.29867354035377502441e-01) (109, 9.21904444694519042969e-02) (110, 6.66079103946685791016e-01) (111, 2.12370324879884719849e-02) (112, 5.43488860130310058594e-01) (113, 1.23455238342285156250e+00) (114, 6.24774456024169921875e-01) (115, 2.60746806859970092773e-01) (116, 3.60966056585311889648e-01) (117, 2.56288468837738037109e-01) (118, 1.96265771985054016113e-01) (119, 1.49731814861297607422e-01) (120, 6.69886291027069091797e-01) (121, 7.45239496231079101562e-01) (122, 3.86117964982986450195e-01) (123, -6.32887985557317733765e-03) (124, 8.43526780605316162109e-01) (125, 7.40647375583648681641e-01) (126, 7.11305320262908935547e-01) (127, -9.44017022848129272461e-02) (128, 3.87300044298171997070e-01) (129, 5.30476450920104980469e-01) (130, -2.16996908187866210938e-01) (131, 6.40989243984222412109e-01) (132, 8.96587848663330078125e-01) (133, 5.35537302494049072266e-01) (134, 4.08276975154876708984e-01) (135, 1.28575488924980163574e-01) (136, 6.80346727371215820312e-01) (137, 1.35720169544219970703e+00) (138, 4.43266659975051879883e-01) (139, 5.98789274692535400391e-01) (140, 2.56296724081039428711e-01) (141, 6.64918601512908935547e-01) (142, 4.42516386508941650391e-01) (143, 8.88285458087921142578e-01) (144, 1.52829438447952270508e-01) (145, -5.65373003482818603516e-02) (146, 4.10043269395828247070e-01) (147, 2.29501321911811828613e-01) (148, 7.99316108226776123047e-01) (149, 5.62126636505126953125e-01) (150, 1.02891087532043457031e+00) (151, 7.26863145828247070312e-01) (152, 2.50104457139968872070e-01) (153, 9.17538106441497802734e-01) (154, 8.56813848018646240234e-01) (155, 8.47926795482635498047e-01) (156, 3.66531491279602050781e-01) (157, -3.65937083959579467773e-01) (158, 4.30977851152420043945e-01) (159, 7.78109952807426452637e-02) (160, -7.32896029949188232422e-02) (161, 1.77243202924728393555e-01) (162, 1.36235654354095458984e-01) (163, -8.63029479980468750000e-01) (164, 5.85576117038726806641e-01) (165, 1.03970992565155029297e+00) (166, 2.66640901565551757812e-01) (167, -1.35003164410591125488e-01) (168, 5.67383587360382080078e-01) (169, 5.62944188714027404785e-02) (170, 3.40039789676666259766e-01) (171, 1.02541112899780273438e+00) (172, 7.18694329261779785156e-01) (173, 3.88261497020721435547e-01) (174, 6.84943497180938720703e-02) (175, 7.79290646314620971680e-02) (176, 6.15101397037506103516e-01) (177, 3.16882610321044921875e-01) (178, 2.06241413950920104980e-01) (179, 9.77505743503570556641e-02) (180, 1.04178249835968017578e+00) (181, 1.68993175029754638672e-01) (182, -1.14477090537548065186e-01) (183, 3.61767619848251342773e-01) (184, 8.27758431434631347656e-01) (185, 5.42519032955169677734e-01) (186, 5.31533539295196533203e-01) (187, 3.99776756763458251953e-01) (188, 2.83837348222732543945e-01) (189, 6.16098225116729736328e-01) (190, 4.03343439102172851562e-01) (191, 1.53525099158287048340e-01) (192, 3.09346318244934082031e-01) (193, 7.94265210628509521484e-01) (194, 3.50502669811248779297e-01) (195, 3.22349995374679565430e-01) (196, 1.77952694892883300781e+00) (197, 3.79258692264556884766e-01) (198, 7.42814183235168457031e-01) (199, 1.04650847613811492920e-01) (200, 6.90918743610382080078e-01) (201, 9.74794209003448486328e-01) (202, -2.52031385898590087891e-01) (203, -4.26650762557983398438e-01) (204, 1.95979848504066467285e-02) (205, -1.39609798789024353027e-01) (206, 6.62142097949981689453e-01) (207, 6.19826912879943847656e-02) (208, 4.31346267461776733398e-01) (209, -5.70483691990375518799e-02) (210, 4.88047450780868530273e-01) (211, 1.02652347087860107422e+00) (212, -2.29937568306922912598e-01) (213, 2.05519244074821472168e-01) (214, 1.99125528335571289062e-01) (215, 7.66555845737457275391e-01) (216, 9.28034409880638122559e-02) (217, -2.14338183403015136719e-01) (218, -1.24640397727489471436e-01) (219, 2.52842634916305541992e-01) (220, 4.62872199714183807373e-02) (221, 1.94088846445083618164e-01) (222, 7.17409253120422363281e-01) (223, 1.21043078601360321045e-01) (224, -7.43314504623413085938e-01) (225, 6.45587861537933349609e-01) (226, 1.22003108263015747070e-01) (227, 3.52840036153793334961e-01) (228, 2.60000258684158325195e-01) (229, 6.12773120403289794922e-01) (230, 4.29446160793304443359e-01) (231, 1.10519856214523315430e-01) (232, 1.19026765227317810059e-01) (233, 1.85579240322113037109e-01) (234, 8.64563137292861938477e-02) (235, 3.24384778738021850586e-01) (236, -1.46427690982818603516e+00) (237, 2.05992572009563446045e-02) (238, 2.68519729375839233398e-01) (239, 5.32500267028808593750e-01) (240, 3.88697773218154907227e-01) (241, -1.39673173427581787109e+00) (242, 5.79953230917453765869e-02) (243, 7.35033601522445678711e-02) (244, 1.19408540427684783936e-01) (245, 5.82010686397552490234e-01) (246, -7.63490125536918640137e-02) (247, 2.11842030286788940430e-01) (248, 7.10744023323059082031e-01) (249, 8.18938314914703369141e-01) (250, 1.06045198440551757812e+00) (251, 6.83709025382995605469e-01) (252, 4.68776911497116088867e-01) (253, 3.63892674446105957031e-01) (254, 1.09017038345336914062e+00) (255, 3.28143954277038574219e-01) (256, 9.88098829984664916992e-02) (0, -7.47849822044372558594e-01) (1, -2.27134004235267639160e-01) (2, -1.98982566595077514648e-01) (3, -2.23643139004707336426e-01) (4, -2.33098849654197692871e-01) (5, -1.79211482405662536621e-01) (6, -2.04190635681152343750e+00) (7, 1.01109027862548828125e+00) (8, 2.78934631496667861938e-02) (9, -1.61286175251007080078e+00) (10, -1.52407169342041015625e-01) (11, 1.02929210662841796875e+00) (12, 3.23246121406555175781e-01) (13, -1.61263787746429443359e+00) (14, -8.97185444831848144531e-01) (15, 1.16712045669555664062e+00) (16, -3.74967716634273529053e-02) (17, -7.45129048824310302734e-01) (18, -1.18170738220214843750e-01) (19, -2.45235845446586608887e-01) (20, -6.20097368955612182617e-02) (21, -3.46498161554336547852e-01) (22, -1.85824558138847351074e-01) (23, -1.30508139729499816895e-01) (24, 8.42382982373237609863e-02) (25, -6.68668001890182495117e-03) (26, -5.76863467693328857422e-01) (27, -1.78563445806503295898e-01) (28, 1.28627598285675048828e-01) (29, -4.24023658037185668945e-01) (30, -8.59262943267822265625e-02) (31, -3.62487465143203735352e-01) (32, -3.13777208328247070312e-01) (33, 1.81851968169212341309e-01) (34, -3.22402566671371459961e-02) (35, -4.20650064945220947266e-01) (36, -7.85318166017532348633e-02) (37, 1.57072949409484863281e+00) (38, -2.95385122299194335938e-01) (39, 7.85591453313827514648e-02) (40, -2.25848332047462463379e-01) (41, 8.92980024218559265137e-02) (42, -2.14698463678359985352e-01) (43, -2.98372209072113037109e-01) (44, -4.44732189178466796875e-01) (45, -5.19924402236938476562e-01) (46, -9.78194549679756164551e-02) (47, -2.18375921249389648438e+00) (48, -4.93136286735534667969e-01) (49, -5.11462762951850891113e-02) (50, 1.04828107357025146484e+00) (51, -2.36706256866455078125e-01) (52, -3.81629616022109985352e-01) (53, -6.92611634731292724609e-01) (54, 4.55021202564239501953e-01) (55, -5.99142253398895263672e-01) (56, -3.95609557628631591797e-01) (57, -7.01139450073242187500e-01) (58, -2.39087879657745361328e-01) (59, 2.55693905055522918701e-02) (60, -1.10550507903099060059e-01) (61, -4.22172069549560546875e-01) (62, -5.42227149009704589844e-01) (63, -2.81508505344390869141e-01) (64, -1.01004257798194885254e-01) (65, 5.32093048095703125000e-01) (66, -9.12704706192016601562e-01) (67, 2.82308965921401977539e-01) (68, 1.36447429656982421875e-01) (69, -2.72477846592664718628e-02) (70, -3.33611965179443359375e-01) (71, -2.31547176837921142578e-01) (72, -3.98408435285091400146e-03) (73, 1.92131884396076202393e-02) (74, 1.50053143501281738281e-01) (75, -1.43396228551864624023e-01) (76, -3.42828869819641113281e-01) (77, -5.77825307846069335938e-01) (78, -1.12880289554595947266e+00) (79, -6.59436047077178955078e-01) (80, -8.37281703948974609375e-01) (81, 4.53222465515136718750e+00) (82, 1.71803757548332214355e-01) (83, -1.55702495574951171875e+00) (84, -4.92553621530532836914e-01) (85, 1.00362956523895263672e+00) (86, 1.22732542455196380615e-01) (87, -1.59047350287437438965e-01) (88, -1.12252868711948394775e-01) (89, -1.28900945186614990234e+00) (90, -3.12237963080406188965e-02) (91, -5.03857731819152832031e-01) (92, -3.28576207160949707031e-01) (93, -6.58172905445098876953e-01) (94, -1.02788887917995452881e-01) (95, -1.78868159651756286621e-01) (96, -2.87681102752685546875e-01) (97, -8.44891488552093505859e-01) (98, -2.29180741310119628906e+00) (99, -1.53922066092491149902e-01) (100, -2.93370410799980163574e-02) (101, -3.56169156730175018311e-02) (102, 6.84827342629432678223e-02) (103, -1.00365348160266876221e-01) (104, 2.80606597661972045898e-01) (105, -2.16756686568260192871e-01) (106, 6.89093530178070068359e-01) (107, -3.36615085601806640625e-01) (108, -1.46346795558929443359e+00) (109, -2.30250842869281768799e-02) (110, -5.97673714160919189453e-01) (111, -5.22374629974365234375e-01) (112, -2.54890292882919311523e-01) (113, -2.20526039600372314453e-01) (114, -7.66391158103942871094e-01) (115, -1.08038985729217529297e+00) (116, -6.06289766728878021240e-02) (117, -1.12392246723175048828e+00) (118, -2.33230158686637878418e-01) (119, -6.15120530128479003906e-01) (120, -1.13504123687744140625e+00) (121, 2.01928228139877319336e-01) (122, -4.50985461473464965820e-01) (123, -7.90857002139091491699e-02) (124, -3.67215007543563842773e-01) (125, -1.76586091518402099609e-01) (126, -4.50822949409484863281e-01) (127, 8.75622406601905822754e-02) (128, -1.14803060889244079590e-01) (129, -9.21503961086273193359e-01) (130, 3.43131981790065765381e-02) (131, 1.74589186906814575195e-01) (132, 1.33360534906387329102e-01) (133, 2.26536244153976440430e-01) (134, -3.41583579778671264648e-01) (135, -1.56446874141693115234e+00) (136, -2.31909036636352539062e-01) (137, -2.54675030708312988281e-01) (138, -1.21185526251792907715e-01) (139, -3.30239862203598022461e-01) (140, -2.94960528612136840820e-01) (141, -1.14177882671356201172e+00) (142, -3.94399374723434448242e-01) (143, -1.94718167185783386230e-01) (144, -2.48692274093627929688e-01) (145, -2.52275645732879638672e-01) (146, 1.28205704689025878906e+00) (147, 2.84829474985599517822e-02) (148, 2.30453878641128540039e-01) (149, -2.10117936134338378906e-01) (150, -1.84451353549957275391e+00) (151, 2.16369554400444030762e-01) (152, 6.60078553482890129089e-03) (153, -8.67617070674896240234e-01) (154, -1.35685789585113525391e+00) (155, -2.80898511409759521484e-01) (156, 2.71267667412757873535e-02) (157, 2.70134285092353820801e-02) (158, 3.12674731016159057617e-01) (159, -2.28746086359024047852e-01) (160, 4.18853104114532470703e-01) (161, -4.68156754970550537109e-01) (162, -3.26091706752777099609e-01) (163, -2.23999515175819396973e-01) (164, -2.24989622831344604492e-01) (165, -3.19167405366897583008e-01) (166, -8.93742501735687255859e-01) (167, 5.33097326755523681641e-01) (168, -1.48974716663360595703e-01) (169, 1.70926511287689208984e+00) (170, 1.80443465709686279297e+00) (171, -1.14193844795227050781e+00) (172, 1.75661921501159667969e-01) (173, -4.96818006038665771484e-01) (174, -1.60655915737152099609e-01) (175, -1.13022315502166748047e+00) (176, 1.43998991698026657104e-02) (177, -1.65354721248149871826e-02) (178, -3.27670186758041381836e-01) (179, -6.36007249355316162109e-01) (180, -2.87846207618713378906e-01) (181, -1.74812376499176025391e-01) (182, -6.67840242385864257812e-02) (183, 8.78270417451858520508e-02) (184, -1.01281739771366119385e-01) (185, 4.17692288756370544434e-02) (186, -2.24617600440979003906e-01) (187, -1.50154635310173034668e-01) (188, -1.17984220385551452637e-01) (189, -9.97117012739181518555e-02) (190, 4.56869937479496002197e-02) (191, -3.05968463420867919922e-01) (192, 5.53632438182830810547e-01) (193, -7.37750351428985595703e-01) (194, -6.65177881717681884766e-01) (195, 2.73857116699218750000e-01) (196, -5.91886460781097412109e-01) (197, -7.38333404064178466797e-01) (198, 2.02015399932861328125e-01) (199, 2.29076463729143142700e-02) (200, 1.36367559432983398438e+00) (201, 3.90475213527679443359e-01) (202, 8.47353488206863403320e-02) (203, -3.16362857818603515625e-01) (204, -6.45076930522918701172e-01) (205, -1.09958365559577941895e-01) (206, -8.93154740333557128906e-02) (207, -6.59290075302124023438e-01) (208, -3.00742864608764648438e-01) (209, 1.75610673427581787109e+00) (210, -1.49070397019386291504e-01) (211, -4.15831863880157470703e-01) (212, -4.16657447814941406250e-01) (213, -9.19549822807312011719e-01) (214, -1.43406003713607788086e-01) (215, -1.38267612457275390625e+00) (216, -4.31267559528350830078e-01) (217, -3.97280544042587280273e-01) (218, -2.50653982162475585938e-01) (219, -5.38016967475414276123e-02) (220, -1.28907427191734313965e-01) (221, -2.80911624431610107422e-01) (222, -4.38790351152420043945e-01) (223, 1.55356273055076599121e-01) (224, -1.03465199470520019531e-01) (225, -1.67031288146972656250e-01) (226, -1.11888326704502105713e-01) (227, 1.45524764060974121094e+00) (228, -3.01463633775711059570e-01) (229, 1.56918726861476898193e-02) (230, 3.45506109297275543213e-02) (231, -9.65975150465965270996e-02) (232, -3.70041936635971069336e-01) (233, -9.16319638490676879883e-02) (234, 5.47785647213459014893e-02) (235, 2.67011553049087524414e-01) (236, -6.33062005043029785156e-01) (237, -2.12442815303802490234e-01) (238, 6.75412833690643310547e-01) (239, -1.52702882885932922363e-01) (240, 1.10352508723735809326e-01) (241, -1.20931044220924377441e-01) (242, -5.81938087940216064453e-01) (243, -3.69047731161117553711e-01) (244, -4.25781726837158203125e-01) (245, -2.53231257200241088867e-01) (246, -1.29625380039215087891e-01) (247, -2.17985078692436218262e-01) (248, 7.09473192691802978516e-02) (249, -8.24024200439453125000e-01) (250, -1.22456640005111694336e-01) (251, -1.50824680924415588379e-01) (252, -1.67685851454734802246e-01) (253, 6.43815379589796066284e-03) (254, 2.92987495660781860352e-01) (255, -2.00861468911170959473e-01) (256, -6.91671848297119140625e-01) (0, 4.94948495179414749146e-03) (1, -2.55545526742935180664e-02) (2, 4.74141329526901245117e-01) (3, -1.62558004260063171387e-01) (4, -8.69150012731552124023e-02) (5, 1.92337229847908020020e-01) (6, -1.89912348985671997070e-01) (7, -9.63679235428571701050e-03) (8, 4.20740544795989990234e-01) (9, 5.40681838989257812500e-01) (10, -5.55990993976593017578e-01) (11, 4.50156688690185546875e-01) (12, 2.05484107136726379395e-01) (13, -7.16314092278480529785e-02) (14, 4.91671025753021240234e-01) (15, -3.10588300228118896484e-01) (16, -7.11380094289779663086e-02) (17, -1.00882577896118164062e+00) (18, 4.24491018056869506836e-01) (19, 5.13077676296234130859e-01) (20, 3.02284091711044311523e-01) (21, 2.31141352653503417969e+00) (22, -6.50632023811340332031e-01) (23, 3.62897038459777832031e-01) (24, -3.25842835009098052979e-02) (25, 2.59243063628673553467e-02) (26, 1.52715310454368591309e-01) (27, -3.11257839202880859375e-01) (28, -1.92254662513732910156e-01) (29, 1.93386018276214599609e-01) (30, 5.81147372722625732422e-01) (31, 1.19067862629890441895e-01) (32, 6.68663680553436279297e-01) (33, 1.96235269308090209961e-01) (34, 1.60836100578308105469e-01) (35, -1.91759705543518066406e-01) (36, 7.89317712187767028809e-02) (37, 5.23797452449798583984e-01) (38, -2.10374549031257629395e-01) (39, 7.56521522998809814453e-02) (40, 1.55869469046592712402e-01) (41, 1.62776693701744079590e-01) (42, 1.01402318477630615234e+00) (43, 1.25002229213714599609e+00) (44, 7.47896730899810791016e-02) (45, -1.12994480133056640625e+00) (46, 1.15782774984836578369e-01) (47, 5.69755733013153076172e-02) (48, 3.16122204065322875977e-01) (49, 3.07797223329544067383e-01) (50, -3.72378647327423095703e-01) (51, 1.20844095945358276367e-01) (52, 2.24477601051330566406e+00) (53, 5.05572795867919921875e-01) (54, 2.54504173994064331055e-01) (55, 5.52717030048370361328e-01) (56, 1.46750628948211669922e-01) (57, 1.92800723016262054443e-02) (58, 9.86047923564910888672e-01) (59, -4.46244537830352783203e-01) (60, -1.64147585630416870117e-01) (61, -4.33882534503936767578e-01) (62, 1.67895957827568054199e-01) (63, 2.25131899118423461914e-01) (64, 4.52324002981185913086e-01) (65, 3.07880640029907226562e-01) (66, 6.04240417480468750000e-01) (67, 5.44177174568176269531e-01) (68, -3.90141934156417846680e-01) (69, -5.23849725723266601562e-02) (70, 2.47875913977622985840e-01) (71, -3.27360033988952636719e-01) (72, 9.25531327724456787109e-01) (73, 6.81206703186035156250e-01) (74, 2.64170974493026733398e-01) (75, 1.29156619310379028320e-01) (76, 6.08046889305114746094e-01) (77, 2.33285933732986450195e-01) (78, 3.40794205665588378906e-01) (79, -2.31961160898208618164e-01) (80, -7.31529295444488525391e-01) (81, 7.22269296646118164062e-01) (82, 1.57315492630004882812e+00) (83, 1.77111074328422546387e-01) (84, 1.36340022087097167969e-01) (85, 1.89892768859863281250e-01) (86, 6.25120997428894042969e-01) (87, 8.12308788299560546875e-01) (88, 2.26166099309921264648e-02) (89, -9.35311615467071533203e-03) (90, 6.95782601833343505859e-01) (91, 1.26263365149497985840e-01) (92, 2.08021551370620727539e-01) (93, 4.15852993726730346680e-01) (94, 2.38166213035583496094e-01) (95, 1.04428961873054504395e-01) (96, 5.11049807071685791016e-01) (97, -6.58933911472558975220e-03) (98, 2.82752394676208496094e-01) (99, 3.36102157831192016602e-01) (100, -2.02123858034610748291e-02) (101, -1.87030971050262451172e-01) (102, 5.30916512012481689453e-01) (103, 6.84150606393814086914e-02) (104, -3.57870727777481079102e-01) (105, 5.38723468780517578125e-01) (106, 1.75773967057466506958e-02) (107, 7.67627477645874023438e-01) (108, 2.98267960548400878906e-01) (109, 2.84118115901947021484e-01) (110, 3.54541808366775512695e-01) (111, 3.73232752084732055664e-01) (112, -8.33554938435554504395e-02) (113, -1.82796582579612731934e-01) (114, -2.67144143581390380859e-02) (115, 8.38600099086761474609e-02) (116, 4.64071393013000488281e-01) (117, 2.67312854528427124023e-01) (118, 4.08861488103866577148e-02) (119, 2.20293059945106506348e-01) (120, -2.63998806476593017578e-01) (121, 3.25625389814376831055e-01) (122, 3.53677779436111450195e-01) (123, -9.52589586377143859863e-02) (124, 1.72688946127891540527e-01) (125, 1.54114112257957458496e-01) (126, -8.10150504112243652344e-02) (127, 4.73948091268539428711e-01) (128, 4.63451236486434936523e-01) (129, 1.98221400380134582520e-01) (130, -1.47489933297038078308e-02) (131, 1.12821459770202636719e-01) (132, -4.18234795331954956055e-01) (133, 2.80927985906600952148e-01) (134, 1.52990400791168212891e-01) (135, 7.45304003357887268066e-02) (136, 4.73154634237289428711e-02) (137, 6.71173989772796630859e-01) (138, 5.47252595424652099609e-01) (139, -1.55093044042587280273e-01) (140, 1.04021668434143066406e+00) (141, -2.53607742488384246826e-02) (142, 2.05777809023857116699e-01) (143, 1.99449166655540466309e-01) (144, 3.49886745214462280273e-01) (145, 1.29970610141754150391e+00) (146, 1.28136217594146728516e+00) (147, 3.32638740539550781250e-01) (148, -1.61752939224243164062e-01) (149, 1.22403129935264587402e-01) (150, -9.10654142498970031738e-02) (151, -1.47012397646903991699e-01) (152, -8.83289039134979248047e-01) (153, 1.19644708931446075439e-01) (154, -3.87882083654403686523e-01) (155, 2.16637477278709411621e-02) (156, 4.78598922491073608398e-01) (157, 2.28701725602149963379e-01) (158, -3.10061145573854446411e-02) (159, 5.59853576123714447021e-02) (160, 1.72710850834846496582e-01) (161, 4.64511334896087646484e-01) (162, 9.24396812915802001953e-02) (163, -1.01800814270973205566e-01) (164, -1.67689204216003417969e-01) (165, -1.32896828651428222656e+00) (166, 4.08931881189346313477e-01) (167, 3.61915647983551025391e-01) (168, 6.29596710205078125000e-01) (169, 2.96860367059707641602e-01) (170, 6.55924618244171142578e-01) (171, 1.54796689748764038086e-01) (172, -2.23012253642082214355e-01) (173, -1.18338882923126220703e-01) (174, 1.38380303978919982910e-01) (175, 4.79316741228103637695e-01) (176, 4.48143661022186279297e-01) (177, 2.75853991508483886719e-01) (178, 2.38658308982849121094e-01) (179, 3.87848198413848876953e-01) (180, -9.45941265672445297241e-03) (181, 7.81169757246971130371e-02) (182, 1.98977589607238769531e-02) (183, 8.93038511276245117188e-02) (184, 1.24197527766227722168e-01) (185, 2.90491729974746704102e-01) (186, 4.64833453297615051270e-02) (187, -1.81219484657049179077e-02) (188, -9.47475433349609375000e-02) (189, -2.57361561059951782227e-01) (190, -6.54135718941688537598e-02) (191, 9.66986864805221557617e-02) (192, 3.90008836984634399414e-01) (193, 3.18054527044296264648e-01) (194, -1.39033555984497070312e-01) (195, 6.92986667156219482422e-01) (196, -2.14368909597396850586e-01) (197, 2.82216053456068038940e-02) (198, 4.05025631189346313477e-01) (199, 3.27513635158538818359e-01) (200, 3.17401707172393798828e-01) (201, 8.55810642242431640625e-02) (202, -1.07140816748142242432e-01) (203, 4.53477084636688232422e-01) (204, -4.40196305513381958008e-01) (205, 4.60117071866989135742e-01) (206, 1.33773773908615112305e-01) (207, -4.28672730922698974609e-01) (208, 6.96388781070709228516e-01) (209, 1.75021541118621826172e+00) (210, 7.92760014533996582031e-01) (211, 2.12045818567276000977e-01) (212, -4.35332655906677246094e-01) (213, 2.51646637916564941406e-01) (214, 1.60272747278213500977e-01) (215, -2.95558631420135498047e-01) (216, 2.37361356616020202637e-01) (217, 5.47356950119137763977e-03) (218, 6.71941101551055908203e-01) (219, 8.62493753433227539062e-01) (220, -1.01018123328685760498e-01) (221, 3.83267611265182495117e-01) (222, -2.74770677089691162109e-01) (223, 1.04765489697456359863e-01) (224, 2.90664374828338623047e-01) (225, -9.11780297756195068359e-02) (226, 2.85540759563446044922e-01) (227, 3.26500684022903442383e-01) (228, 5.82473762333393096924e-02) (229, 8.78108441829681396484e-02) (230, -1.68962255120277404785e-02) (231, 2.08786815404891967773e-01) (232, -4.66361045837402343750e-02) (233, 9.79169756174087524414e-02) (234, -4.98255312442779541016e-01) (235, -1.41712114214897155762e-01) (236, -5.48448085784912109375e-01) (237, 2.45769526809453964233e-02) (238, 3.03891748189926147461e-01) (239, -1.99406892061233520508e-01) (240, 3.19274246692657470703e-01) (241, 1.84485808014869689941e-01) (242, -3.52619886398315429688e-02) (243, 6.73055887222290039062e-01) (244, -3.57587933540344238281e-02) (245, -2.83638745546340942383e-01) (246, 8.32742750644683837891e-01) (247, 3.88416200876235961914e-02) (248, 1.53941377997398376465e-01) (249, 5.41048347949981689453e-01) (250, 4.98608797788619995117e-02) (251, 3.03082376718521118164e-01) (252, 8.26687633991241455078e-01) (253, 2.73220241069793701172e-01) (254, -2.60076105594635009766e-01) (255, 6.89796507358551025391e-01) (256, -3.87729972600936889648e-01) (0, -1.63082495331764221191e-01) (1, -2.51229405403137207031e-01) (2, -2.41157650947570800781e-01) (3, 1.59595757722854614258e-01) (4, 1.36415898799896240234e-01) (5, 2.79672503471374511719e-01) (6, 2.01775804162025451660e-01) (7, -1.75583124160766601562e-01) (8, 1.30357787013053894043e-01) (9, -1.47830203175544738770e-01) (10, -4.97496187686920166016e-01) (11, 4.22672852873802185059e-02) (12, 4.09675180912017822266e-01) (13, 6.35561645030975341797e-01) (14, 3.38898189365863800049e-02) (15, -7.14396893978118896484e-01) (16, 3.46837192773818969727e-01) (17, 5.77682912349700927734e-01) (18, -6.71821981668472290039e-02) (19, 2.41808399558067321777e-01) (20, 4.19394135475158691406e-01) (21, 7.59458959102630615234e-01) (22, -4.74554389715194702148e-01) (23, 6.35787248611450195312e-01) (24, 1.21830485761165618896e-01) (25, -4.67921085655689239502e-02) (26, 3.32659512758255004883e-01) (27, 9.02861177921295166016e-01) (28, -1.79427623748779296875e-01) (29, 2.39962115883827209473e-01) (30, 4.89519059658050537109e-01) (31, -6.78121626377105712891e-01) (32, -2.33045756816864013672e-01) (33, 2.06566095352172851562e-01) (34, -1.53484731912612915039e-01) (35, 3.06623435020446777344e+00) (36, -7.80604481697082519531e-02) (37, -1.77661582827568054199e-01) (38, 7.82594501972198486328e-01) (39, -6.85933530330657958984e-01) (40, 6.60297095775604248047e-01) (41, 9.15493518114089965820e-02) (42, 4.72368597984313964844e-01) (43, 5.79889059066772460938e-01) (44, 7.50944856554269790649e-03) (45, 6.85240402817726135254e-02) (46, -3.41262251138687133789e-01) (47, 5.36059558391571044922e-01) (48, -4.96127791702747344971e-02) (49, 1.26228615641593933105e-01) (50, 2.46316894888877868652e-01) (51, 4.60996925830841064453e-01) (52, 5.23274600505828857422e-01) (53, 6.89107403159141540527e-02) (54, -2.63197809457778930664e-01) (55, -2.81719326972961425781e-01) (56, -6.27216743305325508118e-03) (57, 3.12136381864547729492e-01) (58, 6.29454433917999267578e-01) (59, 7.18772828578948974609e-01) (60, -1.06399349868297576904e-01) (61, -6.71324789524078369141e-01) (62, 4.15463149547576904297e-01) (63, 3.33789259195327758789e-01) (64, -2.69023299217224121094e-01) (65, -6.49700537323951721191e-02) (66, -1.73712134361267089844e-01) (67, 5.00823706388473510742e-02) (68, -1.42999935150146484375e+00) (69, -7.98702687025070190430e-02) (70, 3.93347293138504028320e-02) (71, 9.18276429176330566406e-01) (72, 2.39398643374443054199e-01) (73, 1.63294360041618347168e-01) (74, 2.48613253235816955566e-01) (75, 3.15360277891159057617e-01) (76, -1.36734023690223693848e-01) (77, 1.48912414908409118652e-01) (78, -2.01180562376976013184e-01) (79, -2.31962814927101135254e-01) (80, 3.34265351295471191406e-01) (81, 2.92734384536743164062e-01) (82, 4.67243283987045288086e-01) (83, 3.20317059755325317383e-01) (84, -1.00039672851562500000e+00) (85, -6.70689225196838378906e-01) (86, -3.16479662433266639709e-03) (87, -1.36175796389579772949e-01) (88, 5.63430748879909515381e-02) (89, 1.04029387235641479492e-01) (90, 3.31653505563735961914e-01) (91, 9.72112044692039489746e-02) (92, 7.14689910411834716797e-01) (93, 6.34840905666351318359e-01) (94, 7.21456632018089294434e-02) (95, -1.52430802583694458008e-01) (96, -6.86184406280517578125e-01) (97, -3.42119596898555755615e-02) (98, -1.98150083422660827637e-01) (99, 5.42110837996006011963e-02) (100, 4.99281883239746093750e-01) (101, -5.99522113800048828125e-01) (102, -4.66303855180740356445e-01) (103, 2.61156439781188964844e-01) (104, 1.21667325496673583984e-01) (105, 3.39591026306152343750e-01) (106, 5.61089396476745605469e-01) (107, 2.46854320168495178223e-01) (108, 5.04527628421783447266e-01) (109, -9.91242974996566772461e-02) (110, 9.20717418193817138672e-01) (111, 6.42915368080139160156e-02) (112, -2.95397579669952392578e-01) (113, 7.74791240692138671875e-02) (114, 1.04948669672012329102e-01) (115, 2.22802072763442993164e-01) (116, 3.83662670850753784180e-01) (117, 9.26774561405181884766e-01) (118, -5.61086088418960571289e-03) (119, 4.83335703611373901367e-01) (120, 2.89027653634548187256e-02) (121, -5.32012619078159332275e-02) (122, 1.18936002254486083984e-01) (123, 3.94300878047943115234e-01) (124, 8.63644063472747802734e-01) (125, 4.24001850187778472900e-02) (126, 5.71307897567749023438e-01) (127, 3.42205278575420379639e-02) (128, 2.17576757073402404785e-01) (129, 3.30011755228042602539e-01) (130, 2.88775116205215454102e-01) (131, -2.10550457239151000977e-01) (132, -8.58519971370697021484e-03) (133, -1.89996898174285888672e-01) (134, 7.18256905674934387207e-02) (135, 4.83284331858158111572e-02) (136, 3.87185066938400268555e-01) (137, 1.08985447883605957031e+00) (138, 7.83975839614868164062e-01) (139, 1.81663662195205688477e-01) (140, 4.51976120471954345703e-01) (141, 3.50391179323196411133e-01) (142, 1.13037884235382080078e+00) (143, 9.73834246397018432617e-02) (144, -1.13041184842586517334e-01) (145, 4.20196503400802612305e-01) (146, 6.86803460121154785156e-02) (147, -2.87438243627548217773e-01) (148, -6.52443990111351013184e-02) (149, 2.22497656941413879395e-01) (150, 3.05153816938400268555e-01) (151, 2.96402841806411743164e-01) (152, 5.65187931060791015625e-01) (153, 5.25411330163478851318e-02) (154, -2.32906147837638854980e-01) (155, 2.53203243017196655273e-01) (156, 1.49746567010879516602e-01) (157, 1.61999866366386413574e-01) (158, -5.81979602575302124023e-02) (159, 3.83129179477691650391e-01) (160, 4.69847358763217926025e-02) (161, -3.08069377206265926361e-03) (162, 1.59829735755920410156e-01) (163, 1.88412576913833618164e-01) (164, -1.27466750144958496094e+00) (165, 2.68655925989151000977e-01) (166, 7.36647486686706542969e-01) (167, 5.80273084342479705811e-02) (168, -6.71938806772232055664e-02) (169, 2.85579770803451538086e-01) (170, 1.68523982167243957520e-01) (171, 5.09566009044647216797e-01) (172, -2.17823162674903869629e-01) (173, 1.21157735586166381836e-01) (174, 1.89278855919837951660e-01) (175, 2.38915726542472839355e-01) (176, -6.88754618167877197266e-02) (177, 4.97416764497756958008e-01) (178, 4.25335139036178588867e-01) (179, 1.09559364616870880127e-01) (180, 9.15950179100036621094e-01) (181, -1.01227365434169769287e-01) (182, 1.67752161622047424316e-01) (183, -2.33155876398086547852e-01) (184, 5.89125335216522216797e-01) (185, 1.45693823695182800293e-01) (186, -2.17059805989265441895e-01) (187, 1.65101408958435058594e-01) (188, 5.98091036081314086914e-02) (189, -8.56112316250801086426e-02) (190, -2.89556086063385009766e-02) (191, -1.92856982350349426270e-01) (192, 2.76154011487960815430e-01) (193, 1.81934639811515808105e-01) (194, 2.41860836744308471680e-01) (195, 4.62655037641525268555e-01) (196, 1.17270112037658691406e+00) (197, -1.14282011985778808594e-01) (198, 2.17074441909790039062e+00) (199, 1.97563216090202331543e-01) (200, 1.00734703242778778076e-01) (201, -3.69410127401351928711e-01) (202, 7.36503154039382934570e-02) (203, 1.89121052622795104980e-01) (204, 7.27255403995513916016e-01) (205, 1.78996056318283081055e-01) (206, 1.97106510400772094727e-01) (207, 5.43805956840515136719e-01) (208, 8.26503932476043701172e-02) (209, 1.90179452300071716309e-01) (210, 6.09156712889671325684e-02) (211, -5.02836048603057861328e-01) (212, 3.04350256919860839844e-01) (213, 1.81822657585144042969e-01) (214, -4.73158061504364013672e-01) (215, 2.54582881927490234375e-01) (216, 3.03153574466705322266e-01) (217, -3.45809161663055419922e-02) (218, 1.75434112548828125000e-01) (219, 8.00840109586715698242e-02) (220, 1.31305709481239318848e-01) (221, 1.67169794440269470215e-01) (222, -1.88411563634872436523e-01) (223, 2.22693279385566711426e-01) (224, 5.34652844071388244629e-02) (225, 1.34895935654640197754e-01) (226, 1.18111699819564819336e-01) (227, 1.13601237535476684570e-01) (228, -9.64859947562217712402e-02) (229, 1.10000863671302795410e-01) (230, -2.56384968757629394531e-01) (231, 1.54469251632690429688e-01) (232, 2.91241593658924102783e-02) (233, 1.06175445020198822021e-01) (234, 2.13004559278488159180e-01) (235, -5.94576179981231689453e-01) (236, 2.24486604332923889160e-01) (237, -1.36625152081251144409e-02) (238, 1.61522820591926574707e-01) (239, 8.95786285400390625000e-02) (240, -3.38166952133178710938e-01) (241, 4.32536900043487548828e-01) (242, 1.51903241872787475586e-01) (243, -1.26720070838928222656e-01) (244, -7.14436024427413940430e-02) (245, 6.39572925865650177002e-03) (246, 4.69890177249908447266e-01) (247, 6.50664091110229492188e-01) (248, 7.64680430293083190918e-02) (249, 2.29718312621116638184e-01) (250, -5.79030141234397888184e-02) (251, 1.01936712861061096191e-01) (252, 2.33765229582786560059e-01) (253, 6.78533539175987243652e-02) (254, -1.74581870436668395996e-01) (255, 1.83751806616783142090e-01) (256, -2.40877360105514526367e-01) (0, 1.67408332228660583496e-01) (1, 1.50910774245858192444e-02) (2, -1.10575951635837554932e-01) (3, 1.83948040008544921875e-01) (4, -3.81487548351287841797e-01) (5, 3.55675250291824340820e-01) (6, 9.83255952596664428711e-02) (7, 1.80118530988693237305e-01) (8, -8.58379155397415161133e-02) (9, 2.11412996053695678711e-01) (10, -1.91381484270095825195e-01) (11, 1.02023981511592864990e-01) (12, -2.12095424532890319824e-01) (13, 1.05094373226165771484e+00) (14, 4.66893613338470458984e-01) (15, 1.46157503128051757812e-01) (16, 1.33379086852073669434e-01) (17, 3.25178429484367370605e-02) (18, -9.57012951374053955078e-01) (19, 6.06777906417846679688e-01) (20, 7.98599541187286376953e-01) (21, 3.55760492384433746338e-02) (22, 3.49650412797927856445e-01) (23, 2.15196877717971801758e-01) (24, -2.01018035411834716797e-01) (25, -1.49722591042518615723e-01) (26, 4.42888855934143066406e-01) (27, -3.69372926652431488037e-02) (28, -1.30855605006217956543e-01) (29, -1.75568073987960815430e-01) (30, -5.72092784568667411804e-03) (31, -7.85414040088653564453e-01) (32, -2.58874356746673583984e-01) (33, -2.58000463247299194336e-01) (34, -7.36800193786621093750e-01) (35, 3.74989956617355346680e-01) (36, 3.67337524890899658203e-01) (37, -9.21890512108802795410e-03) (38, 3.96196395158767700195e-01) (39, -1.86034023761749267578e-01) (40, -8.20413306355476379395e-02) (41, 1.67935356497764587402e-01) (42, 3.22596400976181030273e-01) (43, 9.52308714389801025391e-01) (44, -2.11251959204673767090e-01) (45, 4.74860668182373046875e-01) (46, 1.55015379190444946289e-01) (47, 2.38943725824356079102e-01) (48, -4.63846139609813690186e-02) (49, -3.32543969154357910156e-01) (50, 2.16875039041042327881e-02) (51, 8.91897007822990417480e-02) (52, -5.14147281646728515625e-02) (53, 1.22633790969848632812e+00) (54, -4.23846170306205749512e-02) (55, 1.59878790378570556641e-01) (56, 1.17478994652628898621e-02) (57, 9.02220606803894042969e-02) (58, 3.51047843694686889648e-01) (59, 5.53611159324645996094e-01) (60, -3.51846098899841308594e-01) (61, 2.12456449866294860840e-01) (62, 6.51715472340583801270e-02) (63, -2.66875237226486206055e-01) (64, 2.49412223696708679199e-01) (65, -2.11587138473987579346e-02) (66, -8.86043906211853027344e-02) (67, 1.51710569858551025391e-01) (68, 3.30322347581386566162e-02) (69, 2.34359771013259887695e-01) (70, 1.32913187146186828613e-01) (71, 8.06541070342063903809e-02) (72, -4.04437273740768432617e-01) (73, 1.50589719414710998535e-01) (74, 8.29356014728546142578e-02) (75, 2.39807471632957458496e-01) (76, 2.22791016101837158203e-01) (77, 5.00948727130889892578e-01) (78, 3.23734700679779052734e-01) (79, 1.71550393104553222656e-01) (80, 1.24925386905670166016e+00) (81, 5.67633390426635742188e-01) (82, -3.61087828874588012695e-01) (83, 6.84210434556007385254e-02) (84, 7.39061683416366577148e-02) (85, -2.77045369148254394531e-02) (86, -1.11096903681755065918e-01) (87, -1.65007933974266052246e-01) (88, 3.97570848464965820312e-01) (89, 2.38777548074722290039e-01) (90, 2.97588258981704711914e-01) (91, 3.39679628610610961914e-01) (92, 6.33003413677215576172e-01) (93, 2.60793864727020263672e-01) (94, 4.49625998735427856445e-02) (95, 7.04294204711914062500e-01) (96, 4.58817750215530395508e-01) (97, 1.26655455678701400757e-02) (98, -3.94543781876564025879e-02) (99, -2.80426174402236938477e-01) (100, -1.43563384190201759338e-02) (101, -3.84334504604339599609e-01) (102, 2.46857088059186935425e-02) (103, 1.08197760581970214844e+00) (104, -1.49644330143928527832e-01) (105, 5.74239492416381835938e-01) (106, 1.94249287247657775879e-01) (107, 1.92649200558662414551e-01) (108, 4.34009194374084472656e-01) (109, -3.92169445753097534180e-01) (110, -8.09735804796218872070e-03) (111, 3.84781628847122192383e-01) (112, -3.54438602924346923828e-01) (113, 3.54770958423614501953e-01) (114, 4.46015477180480957031e-01) (115, 3.41546803712844848633e-01) (116, 3.36453080177307128906e-01) (117, 5.40895938873291015625e-01) (118, 1.07428357005119323730e-01) (119, 1.55208349227905273438e-01) (120, -7.91751816868782043457e-02) (121, 1.74325048923492431641e-01) (122, 2.40396171808242797852e-01) (123, 2.42946043610572814941e-01) (124, 8.16068768501281738281e-01) (125, 2.81412214040756225586e-01) (126, 1.12683761119842529297e+00) (127, 2.41589918732643127441e-01) (128, 6.53698854148387908936e-03) (129, -1.38735964894294738770e-01) (130, -1.16173446178436279297e-01) (131, 2.61790841817855834961e-01) (132, 1.53367742896080017090e-01) (133, -1.66545361280441284180e-01) (134, -8.18441435694694519043e-02) (135, 6.04592263698577880859e-01) (136, 1.95445030927658081055e-01) (137, 6.04720078408718109131e-02) (138, 2.72466152906417846680e-01) (139, 1.24006116390228271484e+00) (140, 3.63993287086486816406e-01) (141, 4.03197079896926879883e-01) (142, -2.67313182353973388672e-01) (143, -6.13913953304290771484e-01) (144, -3.72667640447616577148e-01) (145, -1.63391172885894775391e-01) (146, 3.15292149782180786133e-01) (147, -1.05440095067024230957e-02) (148, 3.00299733877182006836e-01) (149, 2.67701804637908935547e-01) (150, 2.78839588165283203125e-01) (151, 1.78248023986816406250e+00) (152, -1.02288514375686645508e-01) (153, -4.70765978097915649414e-02) (154, 4.05260175466537475586e-02) (155, 9.31940972805023193359e-02) (156, 2.26036775857210159302e-02) (157, 2.10928931832313537598e-01) (158, 5.20923733711242675781e-02) (159, 2.81978815793991088867e-01) (160, -3.88658195734024047852e-02) (161, 3.36928695440292358398e-01) (162, -1.22018167749047279358e-02) (163, -3.45811873674392700195e-01) (164, 3.38958352804183959961e-01) (165, -1.24698467552661895752e-01) (166, 6.78412988781929016113e-02) (167, 1.19793891906738281250e-01) (168, 2.57005304098129272461e-01) (169, 2.54681348800659179688e-01) (170, 2.87874966859817504883e-01) (171, 8.44374656677246093750e-01) (172, -2.42273494601249694824e-01) (173, 5.80097258090972900391e-01) (174, 4.51235145330429077148e-01) (175, 8.76519203186035156250e-01) (176, -2.09601037204265594482e-02) (177, 1.27394139766693115234e-01) (178, 1.06420993804931640625e+00) (179, 1.47288769483566284180e-01) (180, 6.18152439594268798828e-01) (181, 1.77646219730377197266e-01) (182, 1.77608177065849304199e-01) (183, 1.93921908736228942871e-01) (184, -2.59148508310317993164e-01) (185, 4.34808433055877685547e-02) (186, -2.10805922746658325195e-01) (187, 7.66566470265388488770e-02) (188, -1.88731878995895385742e-01) (189, 1.24246500432491302490e-01) (190, 7.70231559872627258301e-02) (191, -4.68675512820482254028e-03) (192, 1.57791388034820556641e+00) (193, 5.08218050003051757812e-01) (194, 1.57299652695655822754e-01) (195, 2.85822987556457519531e-01) (196, 1.19657289981842041016e+00) (197, 2.73932516574859619141e-01) (198, 3.93418967723846435547e-01) (199, 2.32788756489753723145e-01) (200, 4.11114752292633056641e-01) (201, 2.59348992258310317993e-02) (202, -2.30866409838199615479e-02) (203, -3.37085098028182983398e-01) (204, -7.51705244183540344238e-02) (205, 3.90292823314666748047e-01) (206, 3.98657739162445068359e-01) (207, 1.75451725721359252930e-01) (208, 1.39439612627029418945e-01) (209, 9.09904837608337402344e-02) (210, 5.93619197607040405273e-02) (211, 4.31629806756973266602e-01) (212, 4.84964475035667419434e-02) (213, 1.59593850374221801758e-01) (214, -1.66470691561698913574e-01) (215, 2.76616424322128295898e-01) (216, -5.02015650272369384766e-02) (217, 3.37260484695434570312e-01) (218, 9.84110310673713684082e-02) (219, -7.92513430118560791016e-01) (220, 7.49744534492492675781e-01) (221, -1.26463072374463081360e-02) (222, 1.18955872952938079834e-01) (223, 2.00501047074794769287e-02) (224, -5.92137455940246582031e-01) (225, 3.28994318842887878418e-02) (226, 1.96017727255821228027e-01) (227, 1.93288207054138183594e-01) (228, 1.77128061652183532715e-01) (229, 4.75143492221832275391e-01) (230, 3.74314151704311370850e-02) (231, -4.13627237081527709961e-01) (232, -1.72262653708457946777e-01) (233, 8.18075120449066162109e-01) (234, -5.20380139350891113281e-02) (235, -8.06183144450187683105e-02) (236, -5.21015703678131103516e-01) (237, 1.11805237829685211182e-01) (238, 1.20476436614990234375e+00) (239, 1.13765351474285125732e-01) (240, -5.00956177711486816406e-01) (241, -1.96444794535636901855e-01) (242, 2.99079358577728271484e-01) (243, -1.65843358263373374939e-03) (244, 4.41616356372833251953e-01) (245, 1.09391529113054275513e-02) (246, 1.83314383029937744141e-01) (247, 8.62019062042236328125e-02) (248, 2.68850028514862060547e-01) (249, 4.60588306188583374023e-01) (250, 5.24883329868316650391e-01) (251, 2.92770653963088989258e-01) (252, 7.07166135311126708984e-01) (253, 1.57414376735687255859e+00) (254, -2.85374343395233154297e-01) (255, 1.87185928225517272949e-01) (256, -5.81668503582477569580e-02) (0, 3.68214756250381469727e-01) (1, 8.52173864841461181641e-01) (2, 1.03373400866985321045e-01) (3, -1.49964317679405212402e-01) (4, -4.81129199266433715820e-01) (5, -1.71064242720603942871e-01) (6, 2.18031004071235656738e-01) (7, 4.04154509305953979492e-01) (8, -2.09957614541053771973e-01) (9, 2.61340469121932983398e-01) (10, 1.88009351491928100586e-01) (11, 5.22351443767547607422e-01) (12, -1.67260825634002685547e-01) (13, -4.68240886926651000977e-01) (14, -3.54190826416015625000e-01) (15, 1.97047710418701171875e-01) (16, -4.12406355142593383789e-01) (17, -5.64143538475036621094e-01) (18, 2.79893249273300170898e-01) (19, -5.48933222889900207520e-02) (20, -3.66842567920684814453e-01) (21, 3.34438472986221313477e-01) (22, 1.49089515209197998047e-01) (23, -2.95396983623504638672e-01) (24, 3.75834882259368896484e-01) (25, 9.86556112766265869141e-02) (26, -1.43544149398803710938e+00) (27, -3.17776292562484741211e-01) (28, 6.45324513316154479980e-02) (29, -4.23622220754623413086e-01) (30, -6.35969340801239013672e-01) (31, -4.57658290863037109375e-01) (32, -1.49970293045043945312e-01) (33, 2.58243262767791748047e-01) (34, 2.10843190550804138184e-01) (35, -1.87330269813537597656e+00) (36, 2.92967557907104492188e-01) (37, -1.08821436762809753418e-01) (38, -2.48005062341690063477e-01) (39, 2.50137835741043090820e-01) (40, -1.01963914930820465088e-01) (41, 1.06004752218723297119e-01) (42, -4.35337096452713012695e-01) (43, -4.33979332447052001953e-01) (44, 3.63566307350993156433e-03) (45, -6.20916366577148437500e-01) (46, 3.59396159648895263672e-01) (47, 1.23702257871627807617e-01) (48, 3.90476584434509277344e-01) (49, 3.01113069057464599609e-01) (50, 8.70402604341506958008e-02) (51, 6.20629219338297843933e-03) (52, -5.64844012260437011719e-01) (53, -7.41433978080749511719e-01) (54, -1.28313332796096801758e-01) (55, 1.42084971070289611816e-01) (56, 1.27573311328887939453e-01) (57, -1.05766510963439941406e+00) (58, -3.36693465709686279297e-01) (59, 2.35737301409244537354e-02) (60, -1.61886140704154968262e-01) (61, -4.06362600624561309814e-02) (62, -5.76942600309848785400e-02) (63, -1.86932086944580078125e-01) (64, -8.14803689718246459961e-02) (65, 2.97263175249099731445e-01) (66, 2.56868809461593627930e-01) (67, 1.77606210112571716309e-01) (68, 2.43668898940086364746e-01) (69, 2.37675011157989501953e-02) (70, 7.89394974708557128906e-02) (71, -2.98687189817428588867e-01) (72, -7.34127640724182128906e-01) (73, -4.69441652297973632812e-01) (74, 2.89281040430068969727e-01) (75, -2.98641413450241088867e-01) (76, 1.96055665612220764160e-01) (77, -2.89007395505905151367e-01) (78, 8.68112370371818542480e-02) (79, 2.75951046496629714966e-02) (80, 2.28303149342536926270e-01) (81, -5.90720295906066894531e-01) (82, -2.83530587330460548401e-03) (83, 1.41222178936004638672e-01) (84, 1.93643793463706970215e-01) (85, 3.21733802556991577148e-01) (86, 1.18313625454902648926e-01) (87, 2.87169218063354492188e-01) (88, -2.44035065174102783203e-01) (89, 1.03449396789073944092e-01) (90, -3.33844900131225585938e-01) (91, -8.51054966449737548828e-01) (92, -7.66871988773345947266e-01) (93, -5.97908437252044677734e-01) (94, 2.07343280315399169922e-01) (95, -1.94955080747604370117e-01) (96, -2.10116393864154815674e-02) (97, 2.39474788308143615723e-01) (98, 7.34309196472167968750e-01) (99, 6.22096776962280273438e-01) (100, -1.22534327208995819092e-01) (101, 1.18383936583995819092e-01) (102, -1.93326935172080993652e-01) (103, -9.32511016726493835449e-02) (104, -1.11502432264387607574e-03) (105, -5.72348594665527343750e-01) (106, 2.67023235559463500977e-01) (107, -1.46012417972087860107e-02) (108, -7.26125359535217285156e-01) (109, 1.61785900592803955078e+00) (110, -2.39736549556255340576e-02) (111, -5.11398732662200927734e-01) (112, 7.53842741250991821289e-02) (113, -6.07697218656539916992e-02) (114, -4.32019501924514770508e-01) (115, -2.95789986848831176758e-01) (116, -1.59317418932914733887e-01) (117, -1.31790363788604736328e+00) (118, 6.05195611715316772461e-02) (119, -7.89805710315704345703e-01) (120, -4.43207807838916778564e-02) (121, -2.62109875679016113281e-01) (122, -1.82778954505920410156e-01) (123, 6.92658945918083190918e-02) (124, -5.85763037204742431641e-01) (125, -2.31153473258018493652e-01) (126, -3.32923159003257751465e-02) (127, -3.45225363969802856445e-01) (128, 3.24574351310729980469e-01) (129, 6.14123523235321044922e-01) (130, 1.26198798418045043945e-01) (131, -1.79432272911071777344e-01) (132, 2.79288995079696178436e-03) (133, 6.98800027370452880859e-01) (134, 3.98893654346466064453e-02) (135, 2.34657332301139831543e-01) (136, 6.96628820151090621948e-03) (137, 2.06570364534854888916e-02) (138, -3.85019868612289428711e-01) (139, 3.29504549503326416016e-01) (140, -4.48560833930969238281e-01) (141, -3.31086784601211547852e-01) (142, -4.77263301610946655273e-01) (143, -2.75175362825393676758e-01) (144, -9.16352942585945129395e-02) (145, -5.91909587383270263672e-01) (146, -6.61381006240844726562e-01) (147, 2.57794409990310668945e-01) (148, 4.56959195435047149658e-02) (149, -6.63701832294464111328e-01) (150, -1.43861621618270874023e-01) (151, -3.73779684305191040039e-02) (152, 6.68865069746971130371e-02) (153, -1.51199819520115852356e-02) (154, 1.37061417102813720703e-01) (155, -4.10325407981872558594e-01) (156, -1.96198463439941406250e-01) (157, 6.19008958339691162109e-01) (158, 4.21832948923110961914e-02) (159, -3.04388582706451416016e-01) (160, -5.04036068916320800781e-01) (161, 1.28614172339439392090e-01) (162, 2.98197299242019653320e-01) (163, -6.42612725496292114258e-02) (164, 2.80345320701599121094e-01) (165, -6.05041161179542541504e-02) (166, -7.89583325386047363281e-01) (167, -1.73025295138359069824e-01) (168, 1.14581748843193054199e-01) (169, -2.11596861481666564941e-01) (170, -5.75215667486190795898e-02) (171, 4.42108005285263061523e-01) (172, 2.75681316852569580078e-02) (173, -1.03157013654708862305e-01) (174, -1.41781473159790039062e+00) (175, -1.14880490303039550781e+00) (176, 1.23954825103282928467e-01) (177, 6.38501122593879699707e-02) (178, -5.29347658157348632812e-01) (179, 3.09694290161132812500e-01) (180, -9.00020480155944824219e-01) (181, -7.23118424415588378906e-01) (182, 5.11546395719051361084e-02) (183, 2.32371807098388671875e-01) (184, -1.02176618576049804688e+00) (185, 2.35866710543632507324e-01) (186, 1.76877584308385848999e-02) (187, 7.55473449826240539551e-02) (188, -1.23773925006389617920e-01) (189, -1.90388411283493041992e-01) (190, 5.74645042419433593750e-01) (191, 8.59709382057189941406e-01) (192, -1.45356345176696777344e+00) (193, -5.31671583652496337891e-01) (194, 1.05414181947708129883e-01) (195, -4.38697934150695800781e-01) (196, -4.16459417343139648438e+00) (197, -9.23187255859375000000e-01) (198, -6.77760958671569824219e-01) (199, -2.42312029004096984863e-01) (200, -3.34188222885131835938e-01) (201, 2.01190963387489318848e-01) (202, -1.04022100567817687988e-01) (203, -1.91169410943984985352e-01) (204, -1.00656881928443908691e-01) (205, 1.88424095511436462402e-01) (206, -1.74873724579811096191e-01) (207, -1.24348294734954833984e+00) (208, 1.96158722043037414551e-01) (209, -3.05618345737457275391e-01) (210, 4.26228761672973632812e-01) (211, -4.54375505447387695312e-01) (212, -3.31599891185760498047e-01) (213, -1.70687764883041381836e-01) (214, 2.56963461637496948242e-01) (215, 1.23438201844692230225e-01) (216, 2.99703896045684814453e-01) (217, -6.69390738010406494141e-01) (218, -1.38083621859550476074e-01) (219, -5.21236419677734375000e-01) (220, 1.12301325425505638123e-02) (221, 1.50115355849266052246e-01) (222, 3.52212071418762207031e-01) (223, 3.54411825537681579590e-02) (224, 1.46045625209808349609e-01) (225, 2.01505675911903381348e-01) (226, 3.86245578527450561523e-01) (227, 9.07633781433105468750e-01) (228, 3.89301657676696777344e-01) (229, -1.07012532651424407959e-01) (230, -3.82845461368560791016e-01) (231, 1.22920773923397064209e-01) (232, 2.73503035306930541992e-01) (233, -8.08044746518135070801e-02) (234, -2.27289140224456787109e-01) (235, -6.44311085343360900879e-02) (236, -1.50779217481613159180e-01) (237, -2.17249542474746704102e-01) (238, -3.48109900951385498047e-01) (239, 4.94934767484664916992e-02) (240, 2.59011656045913696289e-01) (241, -3.33988726139068603516e-01) (242, 1.83395743370056152344e-02) (243, -1.54521450400352478027e-01) (244, 7.37604260444641113281e-01) (245, 3.60003173351287841797e-01) (246, -5.22365510463714599609e-01) (247, -3.06953519582748413086e-01) (248, -1.74566602706909179688e+00) (249, -4.39542144536972045898e-01) (250, -2.64386415481567382812e-01) (251, -2.34422400593757629395e-01) (252, -1.56359672546386718750e-01) (253, -8.66953879594802856445e-02) (254, -3.59125345945358276367e-01) (255, -2.46945530176162719727e-01) (256, 6.25672042369842529297e-01) (0, -2.61426329612731933594e-01) (1, 1.03739216923713684082e-01) (2, 6.89800828695297241211e-02) (3, -2.62220114469528198242e-01) (4, -1.96402043104171752930e-01) (5, -3.34396153688430786133e-01) (6, -1.43480017781257629395e-01) (7, -1.72581195831298828125e-01) (8, -4.02140825986862182617e-01) (9, -7.68295049667358398438e-01) (10, -3.16623784601688385010e-02) (11, 7.20878720283508300781e-01) (12, -9.39402222633361816406e-01) (13, -4.71671134233474731445e-01) (14, -2.15267106890678405762e-01) (15, 1.02386325597763061523e-01) (16, -8.11877995729446411133e-02) (17, -4.43990260362625122070e-01) (18, -1.02408908307552337646e-01) (19, -4.39798772335052490234e-01) (20, -6.01296871900558471680e-02) (21, 1.52445174753665924072e-02) (22, -6.71004652976989746094e-01) (23, -5.71429252624511718750e-01) (24, -4.93868380784988403320e-01) (25, 7.11268410086631774902e-02) (26, -9.24020037055015563965e-02) (27, -3.22045534849166870117e-01) (28, 1.67483419179916381836e-01) (29, -1.63553789258003234863e-01) (30, -2.93552756309509277344e-01) (31, -4.15944635868072509766e-01) (32, 1.60350963473320007324e-01) (33, -2.22794055938720703125e-01) (34, -5.00355660915374755859e-03) (35, -9.63455140590667724609e-01) (36, -2.50296890735626220703e-01) (37, 1.87652975320816040039e-01) (38, -4.07086163759231567383e-01) (39, 6.53623759746551513672e-01) (40, -3.88980627059936523438e-01) (41, -1.44996702671051025391e-01) (42, -2.92700409889221191406e-01) (43, -8.32228660583496093750e-01) (44, -3.91698300838470458984e-01) (45, -6.64265155792236328125e-01) (46, 1.70905189588665962219e-03) (47, 2.63011366128921508789e-01) (48, 2.69266255199909210205e-02) (49, -3.96899819374084472656e-01) (50, 3.82974922657012939453e-01) (51, -1.90627187490463256836e-01) (52, -1.99039280414581298828e-02) (53, -9.70175504684448242188e-01) (54, -4.84782755374908447266e-01) (55, -5.18534362316131591797e-01) (56, -6.68412864208221435547e-01) (57, -7.48692452907562255859e-01) (58, 5.83705604076385498047e-02) (59, -4.74403016269207000732e-02) (60, -4.57550078630447387695e-01) (61, 1.67739585041999816895e-01) (62, -6.93448662757873535156e-01) (63, -3.98848623037338256836e-01) (64, -4.04358416795730590820e-01) (65, 2.18871444463729858398e-01) (66, -1.01569369435310363770e-01) (67, -2.54823714494705200195e-01) (68, 7.08269923925399780273e-02) (69, -5.26733815670013427734e-01) (70, -3.73828232288360595703e-01) (71, -1.01224787533283233643e-01) (72, -2.48468339443206787109e-01) (73, -2.47142799198627471924e-02) (74, 2.69652843475341796875e-01) (75, -1.08697366714477539062e+00) (76, -1.74783580005168914795e-02) (77, -6.06972455978393554688e-01) (78, -1.71517148613929748535e-01) (79, -1.80340439081192016602e-01) (80, -4.01816219091415405273e-01) (81, -4.18122440576553344727e-01) (82, -3.76312494277954101562e-01) (83, 2.22717076539993286133e-01) (84, 1.15790262818336486816e-01) (85, 2.18466848134994506836e-01) (86, -1.08652599155902862549e-02) (87, -1.06290457770228385925e-02) (88, -2.08879798650741577148e-01) (89, 1.60778760910034179688e-01) (90, -7.74277225136756896973e-02) (91, -7.85201430320739746094e-01) (92, -6.43998742103576660156e-01) (93, -8.71141493320465087891e-01) (94, -5.77650517225265502930e-02) (95, -1.55564963817596435547e-01) (96, -5.16190111637115478516e-01) (97, -6.72284066677093505859e-01) (98, 4.90700066089630126953e-01) (99, 6.25122666358947753906e-01) (100, -4.13450598716735839844e-01) (101, 1.50707453489303588867e-01) (102, -8.59306305646896362305e-02) (103, -4.71477061510086059570e-01) (104, -1.25024840235710144043e-03) (105, -4.05622690916061401367e-01) (106, -1.13552927970886230469e+00) (107, -1.49619475007057189941e-01) (108, -8.30178678035736083984e-01) (109, 6.04006171226501464844e-01) (110, 2.52682678401470184326e-02) (111, -2.44410663843154907227e-01) (112, -6.55399560928344726562e-02) (113, -2.17148318886756896973e-01) (114, -2.79254287481307983398e-01) (115, -6.33203208446502685547e-01) (116, -3.97432267665863037109e-01) (117, -1.20993340015411376953e+00) (118, 4.78300362825393676758e-01) (119, -2.02470749616622924805e-01) (120, -2.87885069847106933594e-01) (121, -2.89207816123962402344e-01) (122, -1.56934946775436401367e-01) (123, -1.43429327011108398438e+00) (124, -3.90117049217224121094e-01) (125, -2.49028131365776062012e-01) (126, -1.70681369304656982422e+00) (127, -3.32731790840625762939e-02) (128, 3.00119757652282714844e-01) (129, 3.52893441915512084961e-01) (130, -7.69343554973602294922e-01) (131, -2.53215938806533813477e-01) (132, 2.83082038164138793945e-01) (133, 9.21753525733947753906e-01) (134, -3.73274125158786773682e-02) (135, -3.32819193601608276367e-01) (136, 2.01300568878650665283e-02) (137, -1.66912943124771118164e-01) (138, -4.03717011213302612305e-01) (139, -4.12082582712173461914e-01) (140, -6.83886110782623291016e-01) (141, -2.05883786082267761230e-01) (142, -5.89612126350402832031e-01) (143, 5.09922802448272705078e-02) (144, -8.75310972332954406738e-02) (145, -1.17178736254572868347e-02) (146, 1.31583958864212036133e-03) (147, -8.13391566276550292969e-01) (148, -8.08880850672721862793e-02) (149, -6.02407753467559814453e-02) (150, -5.29606759548187255859e-01) (151, -5.13996839523315429688e-01) (152, -1.17188262939453125000e+00) (153, -1.66116267442703247070e-01) (154, -1.92442610859870910645e-01) (155, -2.00857415795326232910e-01) (156, 4.04967367649078369141e-02) (157, -5.43564677238464355469e-01) (158, 6.63081407546997070312e-02) (159, -5.33065676689147949219e-01) (160, -3.51245164871215820312e-01) (161, -6.44329011440277099609e-01) (162, -1.20296090841293334961e-01) (163, 7.32082486152648925781e-01) (164, -6.27225935459136962891e-01) (165, -9.16707515716552734375e-01) (166, -1.13509249687194824219e+00) (167, -1.11079484224319458008e-01) (168, 2.61307843029499053955e-02) (169, -1.48785576224327087402e-01) (170, 3.26830074191093444824e-02) (171, 7.41078615188598632812e-01) (172, -1.12646795809268951416e-01) (173, -3.73061090707778930664e-01) (174, -1.47572648525238037109e+00) (175, -1.84378325939178466797e-01) (176, 1.84235095977783203125e-01) (177, -8.04526686668395996094e-01) (178, -1.69500291347503662109e-01) (179, -2.77511864900588989258e-01) (180, 3.67878936231136322021e-02) (181, -6.41083061695098876953e-01) (182, -4.07194614410400390625e-01) (183, -5.74109375476837158203e-01) (184, -2.36301809549331665039e-01) (185, 4.50261026620864868164e-01) (186, -2.53350585699081420898e-01) (187, -5.03144145011901855469e-01) (188, -5.08000552654266357422e-01) (189, -2.96250134706497192383e-02) (190, 2.28422805666923522949e-01) (191, 1.49678504094481468201e-02) (192, -9.97929871082305908203e-01) (193, -4.34880435466766357422e-01) (194, -2.17837527394294738770e-01) (195, 3.66677075624465942383e-01) (196, -6.42210364341735839844e-01) (197, -3.85432273149490356445e-01) (198, -2.86628484725952148438e-01) (199, -8.57023894786834716797e-01) (200, 1.16701079532504081726e-02) (201, 1.45276844501495361328e-01) (202, -3.15000444650650024414e-01) (203, -2.07998260855674743652e-01) (204, -2.36977897584438323975e-02) (205, -1.18922449648380279541e-01) (206, -6.12084455788135528564e-02) (207, -9.74281489849090576172e-01) (208, 1.95797026157379150391e-01) (209, -1.04745335876941680908e-01) (210, 7.95321613550186157227e-02) (211, -1.31779089570045471191e-01) (212, -8.86832058429718017578e-01) (213, -1.29941970109939575195e-01) (214, -2.01500281691551208496e-01) (215, -1.77174076437950134277e-01) (216, 1.52564421296119689941e-01) (217, -1.49106636643409729004e-01) (218, -1.41941281035542488098e-02) (219, 2.17862233519554138184e-01) (220, -5.82410097122192382812e-01) (221, 8.89380335807800292969e-01) (222, 1.25825749710202217102e-02) (223, 2.95152872800827026367e-01) (224, -1.24272510409355163574e-01) (225, 6.70553296804428100586e-02) (226, 6.38621598482131958008e-02) (227, 1.57425284385681152344e-01) (228, 8.21922719478607177734e-02) (229, 5.68522140383720397949e-02) (230, -2.94180065393447875977e-02) (231, -6.32884383201599121094e-01) (232, -1.93863227963447570801e-01) (233, -3.65166395902633666992e-01) (234, -9.44647371768951416016e-01) (235, -2.09447443485260009766e-01) (236, -2.56962716579437255859e-01) (237, -6.59415602684020996094e-01) (238, -7.59886577725410461426e-02) (239, -3.00081580877304077148e-01) (240, 8.55118155479431152344e-01) (241, -4.35655802488327026367e-01) (242, -4.79055106639862060547e-01) (243, 7.92729318141937255859e-01) (244, -1.20603144168853759766e-01) (245, 2.93409168720245361328e-01) (246, -1.42561808228492736816e-01) (247, -2.62464404106140136719e-01) (248, -3.92231822013854980469e-01) (249, -6.49968862533569335938e-01) (250, -4.12884980440139770508e-01) (251, -9.24528837203979492188e-02) (252, -9.96681571006774902344e-01) (253, -2.88546264171600341797e-01) (254, -1.40314590930938720703e+00) (255, -3.42893302440643310547e-01) (256, 2.10502341389656066895e-01) (0, 5.11943340301513671875e-01) (1, 7.13511884212493896484e-01) (2, 8.72917175292968750000e-01) (3, 5.33015847206115722656e-01) (4, 3.03473234176635742188e-01) (5, 3.91815125942230224609e-01) (6, -2.04022574424743652344e+00) (7, -3.54429960250854492188e-01) (8, 9.75328236818313598633e-02) (9, 6.48087859153747558594e-01) (10, 7.50337541103363037109e-01) (11, 2.68529593944549560547e-01) (12, 3.06285768747329711914e-01) (13, 1.04425750672817230225e-01) (14, -2.16878384351730346680e-01) (15, 6.27685308456420898438e-01) (16, -3.39830182492733001709e-02) (17, 1.81954145431518554688e-01) (18, 2.75551050901412963867e-01) (19, 5.13617932796478271484e-01) (20, 1.86504408717155456543e-01) (21, -1.17865964770317077637e-01) (22, 5.47388315200805664062e-01) (23, -2.45702832937240600586e-01) (24, 3.74425321817398071289e-01) (25, 5.71017324924468994141e-01) (26, 8.58751773834228515625e-01) (27, 6.44443213939666748047e-01) (28, 1.17814064025878906250e+00) (29, 2.80285477638244628906e-01) (30, 4.43648487329483032227e-01) (31, 7.27402493357658386230e-02) (32, 1.23748056590557098389e-01) (33, 2.79492735862731933594e-01) (34, 1.18756854534149169922e+00) (35, 5.99371969699859619141e-01) (36, 5.14936633408069610596e-02) (37, 2.32311084866523742676e-01) (38, 7.14915871620178222656e-01) (39, 4.78679656982421875000e-01) (40, -5.98461866378784179688e-01) (41, 1.27445504069328308105e-01) (42, 5.26224114000797271729e-02) (43, -5.28753995895385742188e-01) (44, 2.47769117355346679688e-01) (45, 1.00383214652538299561e-01) (46, 5.92718422412872314453e-01) (47, 1.36297836899757385254e-01) (48, 7.41877779364585876465e-02) (49, 1.58659830689430236816e-01) (50, 1.60294011235237121582e-01) (51, -4.88197445869445800781e-01) (52, 8.27462434768676757812e-01) (53, -1.32287755608558654785e-01) (54, 3.38187992572784423828e-01) (55, 4.45439547300338745117e-01) (56, -2.12678629904985427856e-02) (57, 4.11525905132293701172e-01) (58, 1.87560066580772399902e-01) (59, 4.80878025293350219727e-01) (60, 3.20336461067199707031e-01) (61, -4.29020285606384277344e-01) (62, -6.86274543404579162598e-02) (63, 2.88621515035629272461e-01) (64, 5.80422282218933105469e-01) (65, 2.26659610867500305176e-01) (66, -2.89205700159072875977e-01) (67, -2.37851709127426147461e-01) (68, 3.12339484691619873047e-01) (69, 3.04005324840545654297e-01) (70, 6.32255792617797851562e-01) (71, 1.27037510275840759277e-01) (72, -2.09071442484855651855e-01) (73, 7.20088303089141845703e-01) (74, 3.79005342721939086914e-01) (75, 8.12125802040100097656e-01) (76, -3.29703629016876220703e-01) (77, 6.95467144250869750977e-02) (78, -8.72581660747528076172e-01) (79, 3.77039372920989990234e-01) (80, -1.44922688603401184082e-01) (81, -1.72351911664009094238e-01) (82, 4.53124731779098510742e-01) (83, -1.31272867321968078613e-01) (84, -5.68783164024353027344e-01) (85, 8.39028954505920410156e-01) (86, 1.17003656923770904541e-01) (87, 3.27350646257400512695e-01) (88, 3.53510886430740356445e-01) (89, 7.46935829520225524902e-02) (90, 3.07239562273025512695e-01) (91, 4.92502421140670776367e-01) (92, 1.49235501885414123535e-01) (93, -4.03678091242909431458e-03) (94, 9.93189662694931030273e-02) (95, 2.18978896737098693848e-01) (96, 2.96595960855484008789e-01) (97, 1.69889464974403381348e-01) (98, -4.82136964797973632812e-01) (99, -4.52312342822551727295e-02) (100, 2.30824381113052368164e-01) (101, 2.85071969032287597656e-01) (102, 3.24806988239288330078e-01) (103, 5.60081779956817626953e-01) (104, 6.70821309089660644531e-01) (105, 2.42183148860931396484e-01) (106, 9.80555117130279541016e-01) (107, -3.26087504625320434570e-01) (108, 2.88795560598373413086e-01) (109, 7.18485653400421142578e-01) (110, -2.41914108395576477051e-01) (111, -2.54931241273880004883e-01) (112, -7.81355798244476318359e-03) (113, 1.77605509757995605469e-01) (114, 8.06040108203887939453e-01) (115, 2.37909227609634399414e-01) (116, -4.94189038872718811035e-02) (117, -2.40552157163619995117e-01) (118, 6.24129697680473327637e-02) (119, -1.31575120612978935242e-02) (120, 1.17710746824741363525e-01) (121, 1.31867257878184318542e-02) (122, -3.05590718984603881836e-01) (123, 5.34475684165954589844e-01) (124, -5.85241466760635375977e-02) (125, 1.83227404952049255371e-01) (126, 3.43982100486755371094e-01) (127, 1.10158061981201171875e+00) (128, -2.86565244197845458984e-01) (129, -4.76304262876510620117e-01) (130, 3.76508802175521850586e-01) (131, 2.10460171103477478027e-01) (132, 1.11859314143657684326e-01) (133, 6.81903958320617675781e-02) (134, 8.21814388036727905273e-02) (135, 5.51305189728736877441e-02) (136, -1.11327962949872016907e-02) (137, 8.58816206455230712891e-02) (138, 5.17235696315765380859e-01) (139, 4.35591906309127807617e-01) (140, -7.61656016111373901367e-02) (141, 1.16939336061477661133e-01) (142, -1.98569670319557189941e-01) (143, 2.78525501489639282227e-01) (144, 2.49413222074508666992e-01) (145, -5.97341656684875488281e-01) (146, 1.59149207174777984619e-02) (147, 2.52516120672225952148e-01) (148, 3.19304913282394409180e-01) (149, 2.88692831993103027344e-01) (150, 9.88456830382347106934e-02) (151, -1.05967409908771514893e-01) (152, 2.69438475370407104492e-01) (153, 1.10385453701019287109e+00) (154, -5.85477948188781738281e-02) (155, 4.72288370132446289062e-01) (156, 1.29726544022560119629e-01) (157, 2.71631449460983276367e-01) (158, 3.46329689025878906250e-01) (159, -6.73583149909973144531e-02) (160, -1.78914353251457214355e-01) (161, 1.51178359985351562500e-01) (162, 4.76814478635787963867e-01) (163, -2.12254807353019714355e-01) (164, 2.75770485401153564453e-01) (165, 6.66756212711334228516e-01) (166, 1.06878608465194702148e-01) (167, 1.07489682734012603760e-01) (168, -1.56616032123565673828e-01) (169, 1.86140052974224090576e-02) (170, 3.56674283742904663086e-01) (171, 2.76116728782653808594e-01) (172, 2.24843993782997131348e-01) (173, 3.31674844026565551758e-01) (174, 4.25046622753143310547e-01) (175, 4.09654974937438964844e-01) (176, -3.66474062204360961914e-01) (177, -1.24643720686435699463e-01) (178, 1.43013194203376770020e-01) (179, 1.39546260237693786621e-01) (180, 3.22890430688858032227e-01) (181, 1.95406481623649597168e-01) (182, 2.26981922984123229980e-01) (183, 7.18737859278917312622e-03) (184, 1.89907029271125793457e-01) (185, 8.80980193614959716797e-02) (186, 5.70453822612762451172e-01) (187, 8.58644127845764160156e-01) (188, 1.07712852954864501953e+00) (189, 8.97450089454650878906e-01) (190, 4.88928377628326416016e-01) (191, 2.61398792266845703125e-01) (192, -2.17693850398063659668e-01) (193, 2.63584882020950317383e-01) (194, 8.11396420001983642578e-01) (195, 2.69761562347412109375e-01) (196, 2.02591776847839355469e-01) (197, 2.11336344480514526367e-01) (198, 2.30843949317932128906e+00) (199, 1.15312790870666503906e+00) (200, 5.53189098834991455078e-01) (201, -1.68472588062286376953e-01) (202, 7.39786982536315917969e-01) (203, 1.29222884774208068848e-01) (204, 2.93998450040817260742e-01) (205, 9.23396766185760498047e-01) (206, 9.18958187103271484375e-01) (207, 1.13461226224899291992e-01) (208, 7.60134279727935791016e-01) (209, -2.50920772552490234375e-01) (210, -8.95091116428375244141e-01) (211, 1.41426771879196166992e-01) (212, 3.79995942115783691406e-01) (213, 9.51122939586639404297e-02) (214, 2.98170596361160278320e-01) (215, 1.41022533178329467773e-01) (216, -1.14425100386142730713e-01) (217, 3.91667485237121582031e-01) (218, -2.88536697626113891602e-01) (219, -1.11705794930458068848e-01) (220, 4.91725832223892211914e-01) (221, -1.69953241944313049316e-01) (222, 3.04792135953903198242e-01) (223, 4.56755071878433227539e-01) (224, 5.04033207893371582031e-01) (225, 6.26565292477607727051e-02) (226, 7.11838006973266601562e-02) (227, 7.63208651915192604065e-03) (228, 5.13872742652893066406e-01) (229, 4.98173713684082031250e-01) (230, 7.41826772689819335938e-01) (231, 2.70147137343883514404e-02) (232, 6.95646286010742187500e-01) (233, 8.57650458812713623047e-01) (234, 6.84454381465911865234e-01) (235, 5.84012985229492187500e-01) (236, 7.09825992584228515625e-01) (237, 9.17772054672241210938e-02) (238, 2.09086567163467407227e-01) (239, 4.48322355747222900391e-01) (240, 1.43564417958259582520e-01) (241, 2.11389854550361633301e-01) (242, 7.41305500268936157227e-02) (243, 2.08960846066474914551e-01) (244, 1.48291826248168945312e-01) (245, 4.15881276130676269531e-02) (246, 4.00951296091079711914e-01) (247, 2.62817144393920898438e-01) (248, 5.34921288490295410156e-01) (249, -1.39855697751045227051e-01) (250, 5.08811473846435546875e-01) (251, 3.76338422298431396484e-01) (252, 6.21595323085784912109e-01) (253, 3.93443882465362548828e-01) (254, 8.17343175411224365234e-01) (255, 2.03441709280014038086e-01) (256, -7.55969285964965820312e-02) (0, 2.11123108863830566406e-01) (1, -2.46839880943298339844e-01) (2, -3.75213450752198696136e-03) (3, -2.07861185073852539062e-01) (4, -4.56118166446685791016e-01) (5, -1.33894884586334228516e+00) (6, -3.58090162277221679688e-01) (7, 3.43350201845169067383e-01) (8, -2.52892315387725830078e-01) (9, -1.05096900463104248047e+00) (10, 5.46591822057962417603e-03) (11, 5.83670556545257568359e-01) (12, -8.54025900363922119141e-01) (13, -2.25126184523105621338e-02) (14, -2.95228004455566406250e-01) (15, 9.31322351098060607910e-02) (16, -2.74787545204162597656e-01) (17, -1.52014541625976562500e+00) (18, -9.64304983615875244141e-01) (19, -5.30788898468017578125e-01) (20, -1.98719620704650878906e-01) (21, 8.62938106060028076172e-01) (22, 1.36319994926452636719e-01) (23, -1.26781046390533447266e+00) (24, 6.91811740398406982422e-02) (25, 1.03569164872169494629e-01) (26, -1.15672957897186279297e+00) (27, -7.75241315364837646484e-01) (28, 1.51197746396064758301e-01) (29, -3.70610564947128295898e-01) (30, -7.59364366531372070312e-01) (31, -1.75719201564788818359e-01) (32, 4.85543124377727508545e-02) (33, -9.32356268167495727539e-02) (34, 6.03227838873863220215e-02) (35, -1.02625370025634765625e+00) (36, -4.68787938356399536133e-01) (37, -4.90250259637832641602e-01) (38, -4.41016912460327148438e-01) (39, -1.67743936181068420410e-01) (40, -4.98174905776977539062e-01) (41, -2.03902617096900939941e-01) (42, -2.76612520217895507812e-01) (43, -6.17322742938995361328e-01) (44, -3.93987923860549926758e-01) (45, -3.77602517604827880859e-01) (46, -3.46200019121170043945e-02) (47, -8.81273925304412841797e-01) (48, -4.09916371107101440430e-01) (49, -7.37518787384033203125e-01) (50, 1.23437784612178802490e-01) (51, 7.35404789447784423828e-01) (52, -3.01232725381851196289e-01) (53, -1.25706493854522705078e+00) (54, -7.10699036717414855957e-02) (55, -4.49847459793090820312e-01) (56, -7.33590275049209594727e-02) (57, -4.44477260112762451172e-01) (58, -1.47733056545257568359e+00) (59, -6.39651954174041748047e-01) (60, 2.98010528087615966797e-01) (61, 8.41907337307929992676e-02) (62, -1.37451732158660888672e+00) (63, -1.39919078350067138672e+00) (64, 1.70121461153030395508e-01) (65, 1.04488766193389892578e+00) (66, -1.41411095857620239258e-01) (67, -5.85684299468994140625e-01) (68, 4.17349517345428466797e-01) (69, 1.36830985546112060547e-01) (70, -3.28512102365493774414e-01) (71, -9.43043529987335205078e-01) (72, -1.82729169726371765137e-01) (73, -9.86589938402175903320e-02) (74, 5.03354370594024658203e-01) (75, -3.82055491209030151367e-01) (76, 1.93335101008415222168e-01) (77, -3.02130162715911865234e-01) (78, -3.68164956569671630859e-01) (79, -2.68977254629135131836e-01) (80, -8.63004624843597412109e-01) (81, 1.05937622487545013428e-01) (82, -1.17723846435546875000e+00) (83, 1.02928809821605682373e-01) (84, 5.30521810054779052734e-01) (85, 2.86882668733596801758e-01) (86, 1.45934283733367919922e-01) (87, 3.16076129674911499023e-01) (88, 1.95119157433509826660e-02) (89, -1.07629306614398956299e-01) (90, 2.06998065114021301270e-01) (91, 4.22089695930480957031e-01) (92, -2.56415843963623046875e-01) (93, -1.83053946495056152344e+00) (94, -3.35154943168163299561e-02) (95, -1.92842781543731689453e-01) (96, -7.80447602272033691406e-01) (97, -9.53105986118316650391e-01) (98, -1.10125109553337097168e-01) (99, 3.44958573579788208008e-01) (100, -3.79173964262008666992e-01) (101, -1.61646053194999694824e-01) (102, -7.77860060334205627441e-02) (103, -3.13739985227584838867e-01) (104, -4.73682641983032226562e-01) (105, -5.04792511463165283203e-01) (106, -3.02389740943908691406e-01) (107, 1.11612819135189056396e-01) (108, -1.42661082744598388672e+00) (109, 5.00295221805572509766e-01) (110, -2.60479032993316650391e-01) (111, -5.25809109210968017578e-01) (112, -1.42911508679389953613e-01) (113, -4.21928197145462036133e-01) (114, -1.85971605777740478516e+00) (115, -2.22546920180320739746e-01) (116, 2.83413618803024291992e-01) (117, -2.24809646606445312500e+00) (118, 6.97243064641952514648e-02) (119, -6.09116375446319580078e-01) (120, 1.27464324235916137695e-01) (121, 2.06742912530899047852e-01) (122, -2.30772197246551513672e-01) (123, -6.18653714656829833984e-01) (124, -3.86984884738922119141e-01) (125, -3.07029128074645996094e-01) (126, -6.94788873195648193359e-01) (127, 9.72314029932022094727e-02) (128, 5.37683844566345214844e-01) (129, 6.26504942774772644043e-02) (130, -4.38672631978988647461e-01) (131, 8.50113257765769958496e-02) (132, -3.33328396081924438477e-01) (133, 1.41823917627334594727e-01) (134, -7.07892239093780517578e-01) (135, -8.06493222713470458984e-01) (136, -3.10514569282531738281e-01) (137, 3.77233438193798065186e-02) (138, -1.82663941383361816406e+00) (139, -9.17094051837921142578e-01) (140, -3.29075366258621215820e-01) (141, -8.75939428806304931641e-02) (142, 1.46074309945106506348e-01) (143, -2.00163006782531738281e-01) (144, -1.92896217107772827148e-01) (145, -2.43339389562606811523e-01) (146, -1.30855320021510124207e-02) (147, -2.57809996604919433594e-01) (148, -2.96616226434707641602e-01) (149, 1.66391566395759582520e-01) (150, -3.63774955272674560547e-01) (151, 4.44613620638847351074e-02) (152, 5.28764545917510986328e-01) (153, -1.22361876070499420166e-01) (154, -4.04226899147033691406e-01) (155, -1.99725240468978881836e-01) (156, -3.38333472609519958496e-02) (157, -1.97543129324913024902e-02) (158, -4.78541515767574310303e-02) (159, -2.36903220415115356445e-01) (160, 4.02739271521568298340e-02) (161, -1.22994911670684814453e+00) (162, -1.90338522195816040039e-01) (163, 1.48938432335853576660e-01) (164, 3.61846275627613067627e-02) (165, -6.60709261894226074219e-01) (166, 1.06897354125976562500e+00) (167, 5.99465668201446533203e-02) (168, -1.30309164524078369141e-01) (169, 1.68407827615737915039e-01) (170, -2.18931540846824645996e-01) (171, -7.27958902716636657715e-02) (172, -2.19794139266014099121e-02) (173, -4.17992323637008666992e-01) (174, -1.08459010720252990723e-01) (175, -2.17782124876976013184e-01) (176, 6.75388872623443603516e-02) (177, 8.77247512340545654297e-01) (178, -2.50734043121337890625e+00) (179, -1.88845992088317871094e-01) (180, -2.70309656858444213867e-01) (181, -1.77493065595626831055e-01) (182, -2.28961586952209472656e+00) (183, -7.69844114780426025391e-01) (184, 3.51713091135025024414e-01) (185, -1.04571914672851562500e+00) (186, 