FANN_FLO_2.1
num_layers=3
learning_rate=0.700000
connection_rate=1.000000
network_type=0
learning_momentum=0.000000
training_algorithm=2
train_error_function=1
train_stop_function=0
cascade_output_change_fraction=0.010000
quickprop_decay=-0.000100
quickprop_mu=1.750000
rprop_increase_factor=1.200000
rprop_decrease_factor=0.500000
rprop_delta_min=0.000000
rprop_delta_max=50.000000
rprop_delta_zero=0.100000
cascade_output_stagnation_epochs=12
cascade_candidate_change_fraction=0.010000
cascade_candidate_stagnation_epochs=12
cascade_max_out_epochs=150
cascade_min_out_epochs=50
cascade_max_cand_epochs=150
cascade_min_cand_epochs=50
cascade_num_candidate_groups=2
bit_fail_limit=3.49999994039535522461e-01
cascade_candidate_limit=1.00000000000000000000e+03
cascade_weight_multiplier=4.00000005960464477539e-01
cascade_activation_functions_count=10
cascade_activation_functions=3 5 7 8 10 11 14 15 16 17 
cascade_activation_steepnesses_count=4
cascade_activation_steepnesses=2.50000000000000000000e-01 5.00000000000000000000e-01 7.50000000000000000000e-01 1.00000000000000000000e+00 
layer_sizes=5 4 3 
scale_included=0
neurons (num_inputs, activation_function, activation_steepness)=(0, 0, 0.00000000000000000000e+00) (0, 0, 0.00000000000000000000e+00) (0, 0, 0.00000000000000000000e+00) (0, 0, 0.00000000000000000000e+00) (0, 0, 0.00000000000000000000e+00) (5, 5, 5.00000000000000000000e-01) (5, 5, 5.00000000000000000000e-01) (5, 5, 5.00000000000000000000e-01) (0, 5, 0.00000000000000000000e+00) (4, 5, 5.00000000000000000000e-01) (4, 5, 5.00000000000000000000e-01) (0, 5, 0.00000000000000000000e+00) 
connections (connected_to_neuron, weight)=(0, -6.36210143566131591797e-02) (1, 1.14064820110797882080e-01) (2, -1.58167369663715362549e-02) (3, 1.21571831405162811279e-02) (4, -6.49357080459594726562e+00) (0, 1.38088166713714599609e-01) (1, 1.27309143543243408203e-01) (2, 8.38814377784729003906e-02) (3, -1.46708898925781250000e+03) (4, 1.06519050598144531250e+02) (0, 4.44891510009765625000e+02) (1, 7.67599304199218750000e+02) (2, -1.48644271850585937500e+02) (3, -1.50000000000000000000e+03) (4, -3.76583404541015625000e+01) (5, -2.70615315437316894531e+00) (6, 9.19462889432907104492e-02) (7, 4.38033863902091979980e-02) (8, 2.08303117752075195312e+00) (5, 2.31756901741027832031e+00) (6, 3.89537177979946136475e-02) (7, 1.73796340823173522949e-01) (8, 2.08558702468872070312e+00) 
