FANN_FLO_2.1
num_layers=3
learning_rate=0.700000
connection_rate=1.000000
network_type=0
learning_momentum=0.000000
training_algorithm=2
train_error_function=1
train_stop_function=0
cascade_output_change_fraction=0.010000
quickprop_decay=-0.000100
quickprop_mu=1.750000
rprop_increase_factor=1.200000
rprop_decrease_factor=0.500000
rprop_delta_min=0.000000
rprop_delta_max=50.000000
rprop_delta_zero=0.100000
cascade_output_stagnation_epochs=12
cascade_candidate_change_fraction=0.010000
cascade_candidate_stagnation_epochs=12
cascade_max_out_epochs=150
cascade_min_out_epochs=50
cascade_max_cand_epochs=150
cascade_min_cand_epochs=50
cascade_num_candidate_groups=2
bit_fail_limit=3.49999994039535522461e-01
cascade_candidate_limit=1.00000000000000000000e+03
cascade_weight_multiplier=4.00000005960464477539e-01
cascade_activation_functions_count=10
cascade_activation_functions=3 5 7 8 10 11 14 15 16 17 
cascade_activation_steepnesses_count=4
cascade_activation_steepnesses=2.50000000000000000000e-01 5.00000000000000000000e-01 7.50000000000000000000e-01 1.00000000000000000000e+00 
layer_sizes=513 129 2 
scale_included=0
neurons (num_inputs, activation_function, activation_steepness)=(0, 0, 0.00000000000000000000e+00) (0, 0, 0.00000000000000000000e+00) (0, 0, 0.00000000000000000000e+00) (0, 0, 0.00000000000000000000e+00) (0, 0, 0.00000000000000000000e+00) (0, 0, 0.00000000000000000000e+00) (0, 0, 0.00000000000000000000e+00) (0, 0, 0.00000000000000000000e+00) (0, 0, 0.00000000000000000000e+00) (0, 0, 0.00000000000000000000e+00) (0, 0, 0.00000000000000000000e+00) (0, 0, 0.00000000000000000000e+00) (0, 0, 0.00000000000000000000e+00) (0, 0, 0.00000000000000000000e+00) (0, 0, 0.00000000000000000000e+00) (0, 0, 0.00000000000000000000e+00) (0, 0, 0.00000000000000000000e+00) (0, 0, 0.00000000000000000000e+00) (0, 0, 0.00000000000000000000e+00) (0, 0, 0.00000000000000000000e+00) (0, 0, 0.00000000000000000000e+00) (0, 0, 0.00000000000000000000e+00) (0, 0, 0.00000000000000000000e+00) (0, 0, 0.00000000000000000000e+00) (0, 0, 0.00000000000000000000e+00) (0, 0, 0.00000000000000000000e+00) (0, 0, 0.00000000000000000000e+00) (0, 0, 0.00000000000000000000e+00) (0, 0, 0.00000000000000000000e+00) (0, 0, 0.00000000000000000000e+00) (0, 0, 0.00000000000000000000e+00) (0, 0, 0.00000000000000000000e+00) (0, 0, 0.00000000000000000000e+00) (0, 0, 0.00000000000000000000e+00) (0, 0, 0.00000000000000000000e+00) (0, 0, 0.00000000000000000000e+00) (0, 0, 0.00000000000000000000e+00) (0, 0, 0.00000000000000000000e+00) (0, 0, 0.00000000000000000000e+00) (0, 0, 0.00000000000000000000e+00) (0, 0, 0.00000000000000000000e+00) (0, 0, 0.00000000000000000000e+00) (0, 0, 0.00000000000000000000e+00) (0, 0, 0.00000000000000000000e+00) (0, 0, 0.00000000000000000000e+00) (0, 0, 0.00000000000000000000e+00) (0, 0, 0.00000000000000000000e+00) (0, 0, 0.00000000000000000000e+00) (0, 0, 0.00000000000000000000e+00) (0, 0, 0.00000000000000000000e+00) (0, 0, 0.00000000000000000000e+00) (0, 0, 0.00000000000000000000e+00) (0, 0, 0.00000000000000000000e+00) (0, 0, 0.00000000000000000000e+00) (0, 0, 0.00000000000000000000e+00) (0, 0, 0.00000000000000000000e+00) (0, 0, 0.00000000000000000000e+00) (0, 0, 0.00000000000000000000e+00) (0, 0, 0.00000000000000000000e+00) (0, 0, 0.00000000000000000000e+00) (0, 0, 0.00000000000000000000e+00) (0, 0, 0.00000000000000000000e+00) (0, 0, 0.00000000000000000000e+00) (0, 0, 0.00000000000000000000e+00) (0, 0, 0.00000000000000000000e+00) (0, 0, 0.00000000000000000000e+00) (0, 0, 0.00000000000000000000e+00) (0, 0, 0.00000000000000000000e+00) (0, 0, 0.00000000000000000000e+00) (0, 0, 0.00000000000000000000e+00) (0, 0, 0.00000000000000000000e+00) (0, 0, 0.00000000000000000000e+00) (0, 0, 0.00000000000000000000e+00) (0, 0, 0.00000000000000000000e+00) (0, 0, 0.00000000000000000000e+00) (0, 0, 0.00000000000000000000e+00) (0, 0, 0.00000000000000000000e+00) (0, 0, 0.00000000000000000000e+00) (0, 0, 0.00000000000000000000e+00) (0, 0, 0.00000000000000000000e+00) (0, 0, 0.00000000000000000000e+00) (0, 0, 0.00000000000000000000e+00) (0, 0, 0.00000000000000000000e+00) (0, 0, 0.00000000000000000000e+00) (0, 0, 0.00000000000000000000e+00) (0, 0, 0.00000000000000000000e+00) (0, 0, 0.00000000000000000000e+00) (0, 0, 0.00000000000000000000e+00) (0, 0, 0.00000000000000000000e+00) (0, 0, 0.00000000000000000000e+00) (0, 0, 0.00000000000000000000e+00) (0, 0, 0.00000000000000000000e+00) (0, 0, 0.00000000000000000000e+00) (0, 0, 0.00000000000000000000e+00) (0, 0, 0.00000000000000000000e+00) (0, 0, 0.00000000000000000000e+00) (0, 0, 0.00000000000000000000e+00) (0, 0, 0.00000000000000000000e+00) (0, 0, 0.00000000000000000000e+00) (0, 0, 0.00000000000000000000e+00) (0, 0, 0.00000000000000000000e+00) (0, 0, 0.00000000000000000000e+00) (0, 0, 0.00000000000000000000e+00) (0, 0, 0.00000000000000000000e+00) (0, 0, 0.00000000000000000000e+00) (0, 0, 0.00000000000000000000e+00) (0, 0, 0.00000000000000000000e+00) (0, 0, 0.00000000000000000000e+00) (0, 0, 0.00000000000000000000e+00) (0, 0, 0.00000000000000000000e+00) (0, 0, 0.00000000000000000000e+00) (0, 0, 0.00000000000000000000e+00) (0, 0, 0.00000000000000000000e+00) (0, 0, 0.00000000000000000000e+00) (0, 0, 0.00000000000000000000e+00) (0, 0, 0.00000000000000000000e+00) (0, 0, 0.00000000000000000000e+00) (0, 0, 0.00000000000000000000e+00) (0, 0, 0.00000000000000000000e+00) (0, 0, 0.00000000000000000000e+00) (0, 0, 0.00000000000000000000e+00) (0, 0, 0.00000000000000000000e+00) (0, 0, 0.00000000000000000000e+00) (0, 0, 0.00000000000000000000e+00) (0, 0, 0.00000000000000000000e+00) (0, 0, 0.00000000000000000000e+00) (0, 0, 0.00000000000000000000e+00) (0, 0, 0.00000000000000000000e+00) (0, 0, 0.00000000000000000000e+00) (0, 0, 0.00000000000000000000e+00) (0, 0, 0.00000000000000000000e+00) (0, 0, 0.00000000000000000000e+00) (0, 0, 0.00000000000000000000e+00) (0, 0, 0.00000000000000000000e+00) (0, 0, 0.00000000000000000000e+00) (0, 0, 0.00000000000000000000e+00) (0, 0, 0.00000000000000000000e+00) (0, 0, 0.00000000000000000000e+00) (0, 0, 0.00000000000000000000e+00) (0, 0, 0.00000000000000000000e+00) (0, 0, 0.00000000000000000000e+00) (0, 0, 0.00000000000000000000e+00) (0, 0, 0.00000000000000000000e+00) (0, 0, 0.00000000000000000000e+00) (0, 0, 0.00000000000000000000e+00) (0, 0, 0.00000000000000000000e+00) (0, 0, 0.00000000000000000000e+00) (0, 0, 0.00000000000000000000e+00) (0, 0, 0.00000000000000000000e+00) (0, 0, 0.00000000000000000000e+00) (0, 0, 0.00000000000000000000e+00) (0, 0, 0.00000000000000000000e+00) (0, 0, 0.00000000000000000000e+00) (0, 0, 0.00000000000000000000e+00) (0, 0, 0.00000000000000000000e+00) (0, 0, 0.00000000000000000000e+00) (0, 0, 0.00000000000000000000e+00) (0, 0, 0.00000000000000000000e+00) (0, 0, 0.00000000000000000000e+00) (0, 0, 0.00000000000000000000e+00) (0, 0, 0.00000000000000000000e+00) (0, 0, 0.00000000000000000000e+00) (0, 0, 0.00000000000000000000e+00) (0, 0, 0.00000000000000000000e+00) (0, 0, 0.00000000000000000000e+00) (0, 0, 0.00000000000000000000e+00) (0, 0, 0.00000000000000000000e+00) (0, 0, 0.00000000000000000000e+00) (0, 0, 0.00000000000000000000e+00) (0, 0, 0.00000000000000000000e+00) (0, 0, 0.00000000000000000000e+00) (0, 0, 0.00000000000000000000e+00) (0, 0, 0.00000000000000000000e+00) (0, 0, 0.00000000000000000000e+00) (0, 0, 0.00000000000000000000e+00) (0, 0, 0.00000000000000000000e+00) (0, 0, 0.00000000000000000000e+00) (0, 0, 0.00000000000000000000e+00) (0, 0, 0.00000000000000000000e+00) (0, 0, 0.00000000000000000000e+00) (0, 0, 0.00000000000000000000e+00) (0, 0, 0.00000000000000000000e+00) (0, 0, 0.00000000000000000000e+00) (0, 0, 0.00000000000000000000e+00) (0, 0, 0.00000000000000000000e+00) (0, 0, 0.00000000000000000000e+00) (0, 0, 0.00000000000000000000e+00) (0, 0, 0.00000000000000000000e+00) (0, 0, 0.00000000000000000000e+00) (0, 0, 0.00000000000000000000e+00) (0, 0, 0.00000000000000000000e+00) (0, 0, 0.00000000000000000000e+00) (0, 0, 0.00000000000000000000e+00) (0, 0, 0.00000000000000000000e+00) (0, 0, 0.00000000000000000000e+00) (0, 0, 0.00000000000000000000e+00) (0, 0, 0.00000000000000000000e+00) (0, 0, 0.00000000000000000000e+00) (0, 0, 0.00000000000000000000e+00) (0, 0, 0.00000000000000000000e+00) (0, 0, 0.00000000000000000000e+00) (0, 0, 0.00000000000000000000e+00) (0, 0, 0.00000000000000000000e+00) (0, 0, 0.00000000000000000000e+00) (0, 0, 0.00000000000000000000e+00) (0, 0, 0.00000000000000000000e+00) (0, 0, 0.00000000000000000000e+00) (0, 0, 0.00000000000000000000e+00) (0, 0, 0.00000000000000000000e+00) (0, 0, 0.00000000000000000000e+00) (0, 0, 0.00000000000000000000e+00) (0, 0, 0.00000000000000000000e+00) (0, 0, 0.00000000000000000000e+00) (0, 0, 0.00000000000000000000e+00) (0, 0, 0.00000000000000000000e+00) (0, 0, 0.00000000000000000000e+00) (0, 0, 0.00000000000000000000e+00) (0, 0, 0.00000000000000000000e+00) (0, 0, 0.00000000000000000000e+00) (0, 0, 0.00000000000000000000e+00) (0, 0, 0.00000000000000000000e+00) (0, 0, 0.00000000000000000000e+00) (0, 0, 0.00000000000000000000e+00) (0, 0, 0.00000000000000000000e+00) (0, 0, 0.00000000000000000000e+00) (0, 0, 0.00000000000000000000e+00) (0, 0, 0.00000000000000000000e+00) (0, 0, 0.00000000000000000000e+00) (0, 0, 0.00000000000000000000e+00) (0, 0, 0.00000000000000000000e+00) (0, 0, 0.00000000000000000000e+00) (0, 0, 0.00000000000000000000e+00) (0, 0, 0.00000000000000000000e+00) (0, 0, 0.00000000000000000000e+00) (0, 0, 0.00000000000000000000e+00) (0, 0, 0.00000000000000000000e+00) (0, 0, 0.00000000000000000000e+00) (0, 0, 0.00000000000000000000e+00) (0, 0, 0.00000000000000000000e+00) (0, 0, 0.00000000000000000000e+00) (0, 0, 0.00000000000000000000e+00) (0, 0, 0.00000000000000000000e+00) (0, 0, 0.00000000000000000000e+00) (0, 0, 0.00000000000000000000e+00) (0, 0, 0.00000000000000000000e+00) (0, 0, 0.00000000000000000000e+00) (0, 0, 0.00000000000000000000e+00) (0, 0, 0.00000000000000000000e+00) (0, 0, 0.00000000000000000000e+00) (0, 0, 0.00000000000000000000e+00) (0, 0, 0.00000000000000000000e+00) (0, 0, 0.00000000000000000000e+00) (0, 0, 0.00000000000000000000e+00) (0, 0, 0.00000000000000000000e+00) (0, 0, 0.00000000000000000000e+00) (0, 0, 0.00000000000000000000e+00) (0, 0, 0.00000000000000000000e+00) (0, 0, 0.00000000000000000000e+00) (0, 0, 0.00000000000000000000e+00) (0, 0, 0.00000000000000000000e+00) (0, 0, 0.00000000000000000000e+00) (0, 0, 0.00000000000000000000e+00) (0, 0, 0.00000000000000000000e+00) (0, 0, 0.00000000000000000000e+00) (0, 0, 0.00000000000000000000e+00) (0, 0, 0.00000000000000000000e+00) (0, 0, 0.00000000000000000000e+00) (0, 0, 0.00000000000000000000e+00) (0, 0, 0.00000000000000000000e+00) (0, 0, 0.00000000000000000000e+00) (0, 0, 0.00000000000000000000e+00) (0, 0, 0.00000000000000000000e+00) (0, 0, 0.00000000000000000000e+00) (0, 0, 0.00000000000000000000e+00) (0, 0, 0.00000000000000000000e+00) (0, 0, 0.00000000000000000000e+00) (0, 0, 0.00000000000000000000e+00) (0, 0, 0.00000000000000000000e+00) (0, 0, 0.00000000000000000000e+00) (0, 0, 0.00000000000000000000e+00) (0, 0, 0.00000000000000000000e+00) (0, 0, 0.00000000000000000000e+00) (0, 0, 0.00000000000000000000e+00) (0, 0, 0.00000000000000000000e+00) (0, 0, 0.00000000000000000000e+00) (0, 0, 0.00000000000000000000e+00) (0, 0, 0.00000000000000000000e+00) (0, 0, 0.00000000000000000000e+00) (0, 0, 0.00000000000000000000e+00) (0, 0, 0.00000000000000000000e+00) (0, 0, 0.00000000000000000000e+00) (0, 0, 0.00000000000000000000e+00) (0, 0, 0.00000000000000000000e+00) (0, 0, 0.00000000000000000000e+00) (0, 0, 0.00000000000000000000e+00) (0, 0, 0.00000000000000000000e+00) (0, 0, 0.00000000000000000000e+00) (0, 0, 0.00000000000000000000e+00) (0, 0, 0.00000000000000000000e+00) (0, 0, 0.00000000000000000000e+00) (0, 0, 0.00000000000000000000e+00) (0, 0, 0.00000000000000000000e+00) (0, 0, 0.00000000000000000000e+00) (0, 0, 0.00000000000000000000e+00) (0, 0, 0.00000000000000000000e+00) (0, 0, 0.00000000000000000000e+00) (0, 0, 0.00000000000000000000e+00) (0, 0, 0.00000000000000000000e+00) (0, 0, 0.00000000000000000000e+00) (0, 0, 0.00000000000000000000e+00) (0, 0, 0.00000000000000000000e+00) (0, 0, 0.00000000000000000000e+00) (0, 0, 0.00000000000000000000e+00) (0, 0, 0.00000000000000000000e+00) (0, 0, 0.00000000000000000000e+00) (0, 0, 0.00000000000000000000e+00) (0, 0, 0.00000000000000000000e+00) (0, 0, 0.00000000000000000000e+00) (0, 0, 0.00000000000000000000e+00) (0, 0, 0.00000000000000000000e+00) (0, 0, 0.00000000000000000000e+00) (0, 0, 0.00000000000000000000e+00) (0, 0, 0.00000000000000000000e+00) (0, 0, 0.00000000000000000000e+00) (0, 0, 0.00000000000000000000e+00) (0, 0, 0.00000000000000000000e+00) (0, 0, 0.00000000000000000000e+00) (0, 0, 0.00000000000000000000e+00) (0, 0, 0.00000000000000000000e+00) (0, 0, 0.00000000000000000000e+00) (0, 0, 0.00000000000000000000e+00) (0, 0, 0.00000000000000000000e+00) (0, 0, 0.00000000000000000000e+00) (0, 0, 0.00000000000000000000e+00) (0, 0, 0.00000000000000000000e+00) (0, 0, 0.00000000000000000000e+00) (0, 0, 0.00000000000000000000e+00) (0, 0, 0.00000000000000000000e+00) (0, 0, 0.00000000000000000000e+00) (0, 0, 0.00000000000000000000e+00) (0, 0, 0.00000000000000000000e+00) (0, 0, 0.00000000000000000000e+00) (0, 0, 0.00000000000000000000e+00) (0, 0, 0.00000000000000000000e+00) (0, 0, 0.00000000000000000000e+00) (0, 0, 0.00000000000000000000e+00) (0, 0, 0.00000000000000000000e+00) (0, 0, 0.00000000000000000000e+00) (0, 0, 0.00000000000000000000e+00) (0, 0, 0.00000000000000000000e+00) (0, 0, 0.00000000000000000000e+00) (0, 0, 0.00000000000000000000e+00) (0, 0, 0.00000000000000000000e+00) (0, 0, 0.00000000000000000000e+00) (0, 0, 0.00000000000000000000e+00) (0, 0, 0.00000000000000000000e+00) (0, 0, 0.00000000000000000000e+00) (0, 0, 0.00000000000000000000e+00) (0, 0, 0.00000000000000000000e+00) (0, 0, 0.00000000000000000000e+00) (0, 0, 0.00000000000000000000e+00) (0, 0, 0.00000000000000000000e+00) (0, 0, 0.00000000000000000000e+00) (0, 0, 0.00000000000000000000e+00) (0, 0, 0.00000000000000000000e+00) (0, 0, 0.00000000000000000000e+00) (0, 0, 0.00000000000000000000e+00) (0, 0, 0.00000000000000000000e+00) (0, 0, 0.00000000000000000000e+00) (0, 0, 0.00000000000000000000e+00) (0, 0, 0.00000000000000000000e+00) (0, 0, 0.00000000000000000000e+00) (0, 0, 0.00000000000000000000e+00) (0, 0, 0.00000000000000000000e+00) (0, 0, 0.00000000000000000000e+00) (0, 0, 0.00000000000000000000e+00) (0, 0, 0.00000000000000000000e+00) (0, 0, 0.00000000000000000000e+00) (0, 0, 0.00000000000000000000e+00) (0, 0, 0.00000000000000000000e+00) (0, 0, 0.00000000000000000000e+00) (0, 0, 0.00000000000000000000e+00) (0, 0, 0.00000000000000000000e+00) (0, 0, 0.00000000000000000000e+00) (0, 0, 0.00000000000000000000e+00) (0, 0, 0.00000000000000000000e+00) (0, 0, 0.00000000000000000000e+00) (0, 0, 0.00000000000000000000e+00) (0, 0, 0.00000000000000000000e+00) (0, 0, 0.00000000000000000000e+00) (0, 0, 0.00000000000000000000e+00) (0, 0, 0.00000000000000000000e+00) (0, 0, 0.00000000000000000000e+00) (0, 0, 0.00000000000000000000e+00) (0, 0, 0.00000000000000000000e+00) (0, 0, 0.00000000000000000000e+00) (0, 0, 0.00000000000000000000e+00) (0, 0, 0.00000000000000000000e+00) (0, 0, 0.00000000000000000000e+00) (0, 0, 0.00000000000000000000e+00) (0, 0, 0.00000000000000000000e+00) (0, 0, 0.00000000000000000000e+00) (0, 0, 0.00000000000000000000e+00) (0, 0, 0.00000000000000000000e+00) (0, 0, 0.00000000000000000000e+00) (0, 0, 0.00000000000000000000e+00) (0, 0, 0.00000000000000000000e+00) (0, 0, 0.00000000000000000000e+00) (0, 0, 0.00000000000000000000e+00) (0, 0, 0.00000000000000000000e+00) (0, 0, 0.00000000000000000000e+00) (0, 0, 0.00000000000000000000e+00) (0, 0, 0.00000000000000000000e+00) (0, 0, 0.00000000000000000000e+00) (0, 0, 0.00000000000000000000e+00) (0, 0, 0.00000000000000000000e+00) (0, 0, 0.00000000000000000000e+00) (0, 0, 0.00000000000000000000e+00) (0, 0, 0.00000000000000000000e+00) (0, 0, 0.00000000000000000000e+00) (0, 0, 0.00000000000000000000e+00) (0, 0, 0.00000000000000000000e+00) (0, 0, 0.00000000000000000000e+00) (0, 0, 0.00000000000000000000e+00) (0, 0, 0.00000000000000000000e+00) (0, 0, 0.00000000000000000000e+00) (0, 0, 0.00000000000000000000e+00) (0, 0, 0.00000000000000000000e+00) (0, 0, 0.00000000000000000000e+00) (0, 0, 0.00000000000000000000e+00) (0, 0, 0.00000000000000000000e+00) (0, 0, 0.00000000000000000000e+00) (0, 0, 0.00000000000000000000e+00) (0, 0, 0.00000000000000000000e+00) (0, 0, 0.00000000000000000000e+00) (0, 0, 0.00000000000000000000e+00) (0, 0, 0.00000000000000000000e+00) (0, 0, 0.00000000000000000000e+00) (0, 0, 0.00000000000000000000e+00) (0, 0, 0.00000000000000000000e+00) (0, 0, 0.00000000000000000000e+00) (0, 0, 0.00000000000000000000e+00) (0, 0, 0.00000000000000000000e+00) (0, 0, 0.00000000000000000000e+00) (0, 0, 0.00000000000000000000e+00) (0, 0, 0.00000000000000000000e+00) (0, 0, 0.00000000000000000000e+00) (0, 0, 0.00000000000000000000e+00) (0, 0, 0.00000000000000000000e+00) (0, 0, 0.00000000000000000000e+00) (0, 0, 0.00000000000000000000e+00) (0, 0, 0.00000000000000000000e+00) (0, 0, 0.00000000000000000000e+00) (0, 0, 0.00000000000000000000e+00) (0, 0, 0.00000000000000000000e+00) (0, 0, 0.00000000000000000000e+00) (0, 0, 0.00000000000000000000e+00) (0, 0, 0.00000000000000000000e+00) (0, 0, 0.00000000000000000000e+00) (0, 0, 0.00000000000000000000e+00) (0, 0, 0.00000000000000000000e+00) (0, 0, 0.00000000000000000000e+00) (0, 0, 0.00000000000000000000e+00) (0, 0, 0.00000000000000000000e+00) (0, 0, 0.00000000000000000000e+00) (0, 0, 0.00000000000000000000e+00) (0, 0, 0.00000000000000000000e+00) (0, 0, 0.00000000000000000000e+00) (0, 0, 0.00000000000000000000e+00) (0, 0, 0.00000000000000000000e+00) (0, 0, 0.00000000000000000000e+00) (0, 0, 0.00000000000000000000e+00) (0, 0, 0.00000000000000000000e+00) (0, 0, 0.00000000000000000000e+00) (0, 0, 0.00000000000000000000e+00) (0, 0, 0.00000000000000000000e+00) (0, 0, 0.00000000000000000000e+00) (0, 0, 0.00000000000000000000e+00) (0, 0, 0.00000000000000000000e+00) (0, 0, 0.00000000000000000000e+00) (0, 0, 0.00000000000000000000e+00) (0, 0, 0.00000000000000000000e+00) (0, 0, 0.00000000000000000000e+00) (0, 0, 0.00000000000000000000e+00) (0, 0, 0.00000000000000000000e+00) (0, 0, 0.00000000000000000000e+00) (0, 0, 0.00000000000000000000e+00) (0, 0, 0.00000000000000000000e+00) (0, 0, 0.00000000000000000000e+00) (0, 0, 0.00000000000000000000e+00) (0, 0, 0.00000000000000000000e+00) (0, 0, 0.00000000000000000000e+00) (0, 0, 0.00000000000000000000e+00) (0, 0, 0.00000000000000000000e+00) (0, 0, 0.00000000000000000000e+00) (0, 0, 0.00000000000000000000e+00) (0, 0, 0.00000000000000000000e+00) (0, 0, 0.00000000000000000000e+00) (0, 0, 0.00000000000000000000e+00) (0, 0, 0.00000000000000000000e+00) (0, 0, 0.00000000000000000000e+00) (0, 0, 0.00000000000000000000e+00) (0, 0, 0.00000000000000000000e+00) (0, 0, 0.00000000000000000000e+00) (0, 0, 0.00000000000000000000e+00) (0, 0, 0.00000000000000000000e+00) (0, 0, 0.00000000000000000000e+00) (0, 0, 0.00000000000000000000e+00) (0, 0, 0.00000000000000000000e+00) (0, 0, 0.00000000000000000000e+00) (0, 0, 0.00000000000000000000e+00) (0, 0, 0.00000000000000000000e+00) (0, 0, 0.00000000000000000000e+00) (513, 5, 5.00000000000000000000e-01) (513, 5, 5.00000000000000000000e-01) (513, 5, 5.00000000000000000000e-01) (513, 5, 5.00000000000000000000e-01) (513, 5, 5.00000000000000000000e-01) (513, 5, 5.00000000000000000000e-01) (513, 5, 5.00000000000000000000e-01) (513, 5, 5.00000000000000000000e-01) (513, 5, 5.00000000000000000000e-01) (513, 5, 5.00000000000000000000e-01) (513, 5, 5.00000000000000000000e-01) (513, 5, 5.00000000000000000000e-01) (513, 5, 5.00000000000000000000e-01) (513, 5, 5.00000000000000000000e-01) (513, 5, 5.00000000000000000000e-01) (513, 5, 5.00000000000000000000e-01) (513, 5, 5.00000000000000000000e-01) (513, 5, 5.00000000000000000000e-01) (513, 5, 5.00000000000000000000e-01) (513, 5, 5.00000000000000000000e-01) (513, 5, 5.00000000000000000000e-01) (513, 5, 5.00000000000000000000e-01) (513, 5, 5.00000000000000000000e-01) (513, 5, 5.00000000000000000000e-01) (513, 5, 5.00000000000000000000e-01) (513, 5, 5.00000000000000000000e-01) (513, 5, 5.00000000000000000000e-01) (513, 5, 5.00000000000000000000e-01) (513, 5, 5.00000000000000000000e-01) (513, 5, 5.00000000000000000000e-01) (513, 5, 5.00000000000000000000e-01) (513, 5, 5.00000000000000000000e-01) (513, 5, 5.00000000000000000000e-01) (513, 5, 5.00000000000000000000e-01) (513, 5, 5.00000000000000000000e-01) (513, 5, 5.00000000000000000000e-01) (513, 5, 5.00000000000000000000e-01) (513, 5, 5.00000000000000000000e-01) (513, 5, 5.00000000000000000000e-01) (513, 5, 5.00000000000000000000e-01) (513, 5, 5.00000000000000000000e-01) (513, 5, 5.00000000000000000000e-01) (513, 5, 5.00000000000000000000e-01) (513, 5, 5.00000000000000000000e-01) (513, 5, 5.00000000000000000000e-01) (513, 5, 5.00000000000000000000e-01) (513, 5, 5.00000000000000000000e-01) (513, 5, 5.00000000000000000000e-01) (513, 5, 5.00000000000000000000e-01) (513, 5, 5.00000000000000000000e-01) (513, 5, 5.00000000000000000000e-01) (513, 5, 5.00000000000000000000e-01) (513, 5, 5.00000000000000000000e-01) (513, 5, 5.00000000000000000000e-01) (513, 5, 5.00000000000000000000e-01) (513, 5, 5.00000000000000000000e-01) (513, 5, 5.00000000000000000000e-01) (513, 5, 5.00000000000000000000e-01) (513, 5, 5.00000000000000000000e-01) (513, 5, 5.00000000000000000000e-01) (513, 5, 5.00000000000000000000e-01) (513, 5, 5.00000000000000000000e-01) (513, 5, 5.00000000000000000000e-01) (513, 5, 5.00000000000000000000e-01) (513, 5, 5.00000000000000000000e-01) (513, 5, 5.00000000000000000000e-01) (513, 5, 5.00000000000000000000e-01) (513, 5, 5.00000000000000000000e-01) (513, 5, 5.00000000000000000000e-01) (513, 5, 5.00000000000000000000e-01) (513, 5, 5.00000000000000000000e-01) (513, 5, 5.00000000000000000000e-01) (513, 5, 5.00000000000000000000e-01) (513, 5, 5.00000000000000000000e-01) (513, 5, 5.00000000000000000000e-01) (513, 5, 5.00000000000000000000e-01) (513, 5, 5.00000000000000000000e-01) (513, 5, 5.00000000000000000000e-01) (513, 5, 5.00000000000000000000e-01) (513, 5, 5.00000000000000000000e-01) (513, 5, 5.00000000000000000000e-01) (513, 5, 5.00000000000000000000e-01) (513, 5, 5.00000000000000000000e-01) (513, 5, 5.00000000000000000000e-01) (513, 5, 5.00000000000000000000e-01) (513, 5, 5.00000000000000000000e-01) (513, 5, 5.00000000000000000000e-01) (513, 5, 5.00000000000000000000e-01) (513, 5, 5.00000000000000000000e-01) (513, 5, 5.00000000000000000000e-01) (513, 5, 5.00000000000000000000e-01) (513, 5, 5.00000000000000000000e-01) (513, 5, 5.00000000000000000000e-01) (513, 5, 5.00000000000000000000e-01) (513, 5, 5.00000000000000000000e-01) (513, 5, 5.00000000000000000000e-01) (513, 5, 5.00000000000000000000e-01) (513, 5, 5.00000000000000000000e-01) (513, 5, 5.00000000000000000000e-01) (513, 5, 5.00000000000000000000e-01) (513, 5, 5.00000000000000000000e-01) (513, 5, 5.00000000000000000000e-01) (513, 5, 5.00000000000000000000e-01) (513, 5, 5.00000000000000000000e-01) (513, 5, 5.00000000000000000000e-01) (513, 5, 5.00000000000000000000e-01) (513, 5, 5.00000000000000000000e-01) (513, 5, 5.00000000000000000000e-01) (513, 5, 5.00000000000000000000e-01) (513, 5, 5.00000000000000000000e-01) (513, 5, 5.00000000000000000000e-01) (513, 5, 5.00000000000000000000e-01) (513, 5, 5.00000000000000000000e-01) (513, 5, 5.00000000000000000000e-01) (513, 5, 5.00000000000000000000e-01) (513, 5, 5.00000000000000000000e-01) (513, 5, 5.00000000000000000000e-01) (513, 5, 5.00000000000000000000e-01) (513, 5, 5.00000000000000000000e-01) (513, 5, 5.00000000000000000000e-01) (513, 5, 5.00000000000000000000e-01) (513, 5, 5.00000000000000000000e-01) (513, 5, 5.00000000000000000000e-01) (513, 5, 5.00000000000000000000e-01) (513, 5, 5.00000000000000000000e-01) (513, 5, 5.00000000000000000000e-01) (513, 5, 5.00000000000000000000e-01) (513, 5, 5.00000000000000000000e-01) (0, 5, 0.00000000000000000000e+00) (129, 5, 5.00000000000000000000e-01) (0, 5, 0.00000000000000000000e+00) 
connections (connected_to_neuron, weight)=(0, -6.00520847365260124207e-03) (1, 1.83191485702991485596e-02) (2, 1.79372560232877731323e-02) (3, -7.44268745183944702148e-02) (4, 1.31083592772483825684e-01) (5, 7.76131674647331237793e-02) (6, 2.62451171875000000000e-01) (7, -1.00243963301181793213e-01) (8, 7.57893472909927368164e-02) (9, 5.88150415569543838501e-03) (10, -1.11782863736152648926e-01) (11, -6.07791654765605926514e-02) (12, -8.51426124572753906250e-02) (13, 1.89166039228439331055e-01) (14, 1.40730500221252441406e-01) (15, 1.76840201020240783691e-01) (16, -1.28402873873710632324e-01) (17, -5.34156113862991333008e-02) (18, -3.00154447555541992188e-01) (19, -1.97895362973213195801e-01) (20, -2.93138027191162109375e-02) (21, -1.36941105127334594727e-01) (22, -4.01245504617691040039e-01) (23, -5.93357235193252563477e-02) (24, -7.78750777244567871094e-02) (25, 7.98026099801063537598e-02) (26, -9.18952748179435729980e-02) (27, -2.81636547297239303589e-02) (28, 1.89786136150360107422e-01) (29, -2.00938999652862548828e-01) (30, -2.59673058986663818359e-01) (31, 5.80936186015605926514e-02) (32, 2.52329576760530471802e-02) (33, -8.44527874141931533813e-03) (34, -2.43307784199714660645e-01) (35, -2.80574411153793334961e-01) (36, 2.75784462690353393555e-01) (37, 3.02104681730270385742e-01) (38, -2.30469673871994018555e-01) (39, 8.95980969071388244629e-02) (40, 1.45708724856376647949e-01) (41, -1.35427027940750122070e-01) (42, -2.41366252303123474121e-02) (43, 4.34925183653831481934e-02) (44, -8.26549157500267028809e-02) (45, -1.89816161990165710449e-01) (46, -1.55477270483970642090e-01) (47, -5.11507876217365264893e-02) (48, 1.88201130367815494537e-03) (49, 5.00118196010589599609e-01) (50, 5.42461812496185302734e-01) (51, -5.08077323436737060547e-01) (52, 1.12625464797019958496e-01) (53, -7.51003772020339965820e-02) (54, -1.38649970293045043945e-01) (55, -3.14482562243938446045e-02) (56, -4.78005520999431610107e-02) (57, -1.03051111102104187012e-01) (58, 2.95834522694349288940e-02) (59, -7.81437978148460388184e-02) (60, 2.73696333169937133789e-02) (61, 6.38610571622848510742e-02) (62, -4.97586697340011596680e-01) (63, -1.62925094366073608398e-01) (64, -1.42277836799621582031e-01) (65, -1.78010627627372741699e-01) (66, 3.09544298797845840454e-02) (67, -2.19252526760101318359e-01) (68, 6.83722347021102905273e-02) (69, 4.12972159683704376221e-02) (70, 4.62438650429248809814e-02) (71, 6.14064522087574005127e-02) (72, -8.87818336486816406250e-02) (73, -9.54472348093986511230e-02) (74, -1.36402145028114318848e-01) (75, 4.60126847028732299805e-02) (76, 5.98810836672782897949e-02) (77, -7.59229138493537902832e-02) (78, -9.91289913654327392578e-02) (79, -6.15543611347675323486e-02) (80, -6.72214403748512268066e-02) (81, -9.22672823071479797363e-02) (82, 4.01277132332324981689e-02) (83, -3.94646972417831420898e-02) (84, 1.26351388171315193176e-02) (85, -1.76601096987724304199e-01) (86, -1.69410511851310729980e-01) (87, -2.67206013202667236328e-01) (88, -5.24033270776271820068e-02) (89, -9.50131192803382873535e-02) (90, -8.05812925100326538086e-02) (91, -4.29377034306526184082e-02) (92, -9.97796118259429931641e-01) (93, 2.41677998565137386322e-03) (94, -5.88928878307342529297e-01) (95, -1.41472429037094116211e-01) (96, -3.54834973812103271484e-01) (97, -3.41801159083843231201e-02) (98, -1.20205499231815338135e-01) (99, 3.32869659177958965302e-03) (100, -1.52685105800628662109e-01) (101, -9.62021529674530029297e-01) (102, -2.43764325976371765137e-01) (103, -1.27483344078063964844e+00) (104, -3.19501936435699462891e-01) (105, 4.89232110977172851562e+00) (106, 6.65391564369201660156e-01) (107, -7.00114905834197998047e-01) (108, -1.53955474495887756348e-01) (109, -2.75102972984313964844e-01) (110, -1.11464351415634155273e-01) (111, 3.27085280418395996094e+00) (112, 6.21659612655639648438e+00) (113, -7.31172561645507812500e-02) (114, -3.26364450156688690186e-02) (115, -1.07050806283950805664e-01) (116, -1.30757898092269897461e-01) (117, -4.80350293219089508057e-02) (118, -2.76275545358657836914e-01) (119, -2.29006573557853698730e-01) (120, 5.10631315410137176514e-03) (121, -1.17192775011062622070e-01) (122, 4.82713431119918823242e-02) (123, -3.39796841144561767578e-01) (124, -7.58846774697303771973e-02) (125, 3.94027121365070343018e-02) (126, -4.35437150299549102783e-02) (127, -6.13556876778602600098e-02) (128, 3.52416820824146270752e-02) (129, -2.21704156138002872467e-03) (130, -1.60576537251472473145e-01) (131, -3.81514839828014373779e-02) (132, 1.95067986845970153809e-01) (133, -1.15429997444152832031e-01) (134, -2.68454607576131820679e-02) (135, -4.00141812860965728760e-02) (136, -3.43873910605907440186e-02) (137, -7.35156297683715820312e-01) (138, -7.84625649452209472656e-01) (139, -9.91597712039947509766e-01) (140, -5.38844823837280273438e-01) (141, -2.29321746155619621277e-03) (142, -4.87886890769004821777e-02) (143, -1.50669235736131668091e-02) (144, -1.87225818634033203125e-01) (145, -1.35732039809226989746e-01) (146, 1.24712577089667320251e-02) (147, -9.38072353601455688477e-02) (148, -6.81669712066650390625e-02) (149, -5.11495172977447509766e-01) (150, -5.29259264469146728516e-01) (151, -3.88956636190414428711e-01) (152, 1.01774916052818298340e-01) (153, 2.18012630939483642578e-01) (154, 8.61475244164466857910e-02) (155, -1.09162926673889160156e-02) (156, -2.32858896255493164062e-01) (157, -8.84640276432037353516e-01) (158, -7.85765349864959716797e-02) (159, 4.00336645543575286865e-02) (160, -7.07627117633819580078e-01) (161, -1.17255437374114990234e+00) (162, -1.50204434990882873535e-01) (163, -7.38253369927406311035e-02) (164, -8.29251110553741455078e-02) (165, -2.02262297272682189941e-01) (166, -2.46942356228828430176e-01) (167, -3.82331401109695434570e-01) (168, -4.02336597442626953125e-01) (169, -1.02566450834274291992e-01) (170, 2.91497708531096577644e-04) (171, 8.28207880258560180664e-02) (172, -6.16793259978294372559e-02) (173, -4.29887808859348297119e-02) (174, -1.64072364568710327148e-02) (175, -1.76243588328361511230e-01) (176, -2.93454796075820922852e-01) (177, -4.06732112169265747070e-01) (178, -4.58076596260070800781e-01) (179, -3.03485482931137084961e-01) (180, -2.34918877482414245605e-01) (181, -3.73989045619964599609e-01) (182, -4.22723412513732910156e-01) (183, -1.12239912152290344238e-01) (184, -1.16994738578796386719e-01) (185, -3.94172042608261108398e-01) (186, -3.51896941661834716797e-01) (187, -4.60970222949981689453e-01) (188, -2.45963022112846374512e-01) (189, -3.21165949106216430664e-01) (190, -1.59358084201812744141e-01) (191, -1.43989995121955871582e-01) (192, -2.68547702580690383911e-02) (193, -1.27664417028427124023e-01) (194, -7.53690227866172790527e-02) (195, 3.90018373727798461914e-02) (196, 3.37843894958496093750e-02) (197, -2.62692153453826904297e-01) (198, -3.46650719642639160156e-01) (199, -3.86871606111526489258e-01) (200, -2.92108058929443359375e-01) (201, -5.54166615009307861328e-01) (202, -3.87009739875793457031e-01) (203, -3.63952398300170898438e-01) (204, -1.08312296867370605469e+00) (205, 1.04126356542110443115e-01) (206, 1.59376382827758789062e-01) (207, 3.35494056344032287598e-02) (208, -1.54177740216255187988e-01) (209, -1.44667461514472961426e-01) (210, -2.79574006795883178711e-01) (211, -2.35728159546852111816e-01) (212, -4.61764559149742126465e-02) (213, 1.67153067886829376221e-02) (214, 4.31900843977928161621e-02) (215, -3.70310336351394653320e-01) (216, -1.76213577389717102051e-01) (217, 3.15262936055660247803e-02) (218, 1.19976580142974853516e-01) (219, 1.09194822609424591064e-01) (220, -4.53386316075921058655e-03) (221, -2.76984795928001403809e-02) (222, -2.57948357611894607544e-02) (223, 8.21897909045219421387e-02) (224, -1.09360739588737487793e-01) (225, -9.29552242159843444824e-02) (226, -1.36108621954917907715e-01) (227, -2.94302344322204589844e-01) (228, -4.69054400920867919922e-01) (229, 6.55264407396316528320e-02) (230, 1.00651890039443969727e-01) (231, 4.50779572129249572754e-02) (232, 3.08145552873611450195e-01) (233, 4.91502881050109863281e-01) (234, 4.34937179088592529297e-01) (235, 7.06222891807556152344e-01) (236, 3.04634571075439453125e-01) (237, -3.40624421834945678711e-01) (238, -1.53916299343109130859e-01) (239, -3.13423544168472290039e-01) (240, -3.28730434179306030273e-01) (241, -2.49033585190773010254e-01) (242, -3.14455211162567138672e-01) (243, -4.47289764881134033203e-01) (244, 1.79940044879913330078e-01) (245, 3.83709929883480072021e-02) (246, 3.83480894379317760468e-03) (247, -4.60031807422637939453e-01) (248, 6.18227943778038024902e-02) (249, -8.04310012608766555786e-03) (250, -2.40206252783536911011e-02) (251, -3.07522602379322052002e-02) (252, -5.16941174864768981934e-02) (253, 7.00139641761779785156e-01) (254, 1.25195896625518798828e+00) (255, 8.39849770069122314453e-01) (256, 2.76862651109695434570e-01) (257, -3.29812169075012207031e-02) (258, 2.45393216609954833984e-02) (259, -9.46408212184906005859e-02) (260, -7.00679942965507507324e-02) (261, -6.41702711582183837891e-02) (262, 8.39778259396553039551e-02) (263, 2.26684138178825378418e-02) (264, 4.14669364690780639648e-02) (265, -8.26756879687309265137e-02) (266, -1.97866503149271011353e-02) (267, -1.98415413498878479004e-01) (268, 7.11293444037437438965e-02) (269, -6.28791144117712974548e-03) (270, 4.09005992114543914795e-02) (271, -3.24844926595687866211e-01) (272, -8.78896042704582214355e-02) (273, -5.82739301025867462158e-02) (274, -1.41965383663773536682e-02) (275, -2.75577843189239501953e-01) (276, -1.29852175712585449219e-01) (277, -4.66490089893341064453e-01) (278, 1.61753222346305847168e-02) (279, -1.81969732046127319336e-01) (280, -3.26855272054672241211e-01) (281, -9.46805253624916076660e-02) (282, -2.90459513664245605469e-01) (283, -1.65688157081604003906e-01) (284, -3.54183688759803771973e-02) (285, 7.19232251867651939392e-03) (286, -3.34907807409763336182e-02) (287, -7.15317502617835998535e-02) (288, -1.45573720335960388184e-01) (289, -7.45206922292709350586e-02) (290, -6.40125051140785217285e-02) (291, -4.01549004018306732178e-02) (292, -3.78382131457328796387e-02) (293, -5.87245643138885498047e-01) (294, -4.99255545437335968018e-02) (295, -4.46686260402202606201e-02) (296, -3.64945940673351287842e-02) (297, -7.40567073225975036621e-02) (298, -1.13474726676940917969e-01) (299, 3.01013272255659103394e-02) (300, 3.99315170943737030029e-02) (301, 4.71208058297634124756e-02) (302, -4.63528819382190704346e-02) (303, -1.20862625539302825928e-01) (304, -8.72782245278358459473e-02) (305, 4.33377444744110107422e-01) (306, -1.11475147306919097900e-01) (307, -9.27340835332870483398e-02) (308, 6.70460313558578491211e-02) (309, 4.73443120718002319336e-02) (310, -1.25265777111053466797e-01) (311, 5.73662817478179931641e-01) (312, 1.74279764294624328613e-01) (313, -3.86209115386009216309e-02) (314, -2.13966332376003265381e-02) (315, 1.91433466970920562744e-02) (316, -1.73701971769332885742e-01) (317, -4.10267189145088195801e-02) (318, -5.51576055586338043213e-02) (319, -1.66354909539222717285e-01) (320, -4.61541920900344848633e-01) (321, -6.62091434001922607422e-01) (322, -1.20455712080001831055e-01) (323, -6.95237815380096435547e-02) (324, 4.14282898418605327606e-04) (325, -6.90878868103027343750e-01) (326, -6.44444704055786132812e-01) (327, 4.97672632336616516113e-02) (328, -5.83433628082275390625e-01) (329, -6.73719584941864013672e-01) (330, -1.94327056407928466797e-01) (331, 3.75802963972091674805e-02) (332, -1.68319605290889739990e-02) (333, -9.28063839673995971680e-02) (334, -5.72164058685302734375e-01) (335, -2.13562231510877609253e-02) (336, -6.59575536847114562988e-02) (337, -9.99459773302078247070e-02) (338, -1.04128167033195495605e-01) (339, 1.98240540921688079834e-02) (340, -3.59875530004501342773e-01) (341, -7.48072922229766845703e-01) (342, -1.52452513575553894043e-01) (343, -1.09216131269931793213e-01) (344, 6.36639893054962158203e-02) (345, -2.82984495162963867188e-01) (346, -3.45400243997573852539e-01) (347, -1.38311162590980529785e-01) (348, -9.14131999015808105469e-01) (349, -1.41670390963554382324e-01) (350, 2.80774757266044616699e-02) (351, -2.18347638845443725586e-01) (352, 2.14209571480751037598e-01) (353, -2.24738657474517822266e-01) (354, -2.07226470112800598145e-01) (355, -1.05585962533950805664e-01) (356, -2.53105144947767257690e-02) (357, 5.96627779304981231689e-02) (358, -2.58908569812774658203e-01) (359, -9.11825373768806457520e-02) (360, -8.48386883735656738281e-02) (361, -4.13873970508575439453e-01) (362, 1.05077743530273437500e-01) (363, -3.03973227739334106445e-01) (364, -1.54600727558135986328e+00) (365, -2.23892122507095336914e-01) (366, -1.40174627304077148438e-01) (367, -2.00331464409828186035e-01) (368, -2.47008144855499267578e-01) (369, -1.29005312919616699219e-01) (370, 2.01894402503967285156e-01) (371, -4.77538891136646270752e-02) (372, -3.80845785140991210938e-01) (373, 2.58132237941026687622e-02) (374, 2.78338134288787841797e-01) (375, 4.41733032464981079102e-01) (376, -7.92793512344360351562e-01) (377, -3.98944616317749023438e-02) (378, 6.26621991395950317383e-02) (379, -1.16262964904308319092e-01) (380, -1.27590233460068702698e-02) (381, -1.08364172279834747314e-01) (382, -3.75046163797378540039e-01) (383, -6.59588754177093505859e-01) (384, -7.53166019916534423828e-01) (385, -5.52180707454681396484e-01) (386, -5.44884912669658660889e-02) (387, -2.83640444278717041016e-01) (388, 6.66328817605972290039e-02) (389, -6.11254386603832244873e-02) (390, -4.00733798742294311523e-02) (391, -1.39852344989776611328e-01) (392, -3.40614169836044311523e-01) (393, -1.86083003878593444824e-01) (394, -3.62703166902065277100e-02) (395, 4.79049049317836761475e-02) (396, 1.83765050023794174194e-02) (397, -7.43215829133987426758e-02) (398, -1.67449623346328735352e-01) (399, -4.25848037004470825195e-01) (400, 9.09635797142982482910e-02) (401, 2.87235695868730545044e-02) (402, -2.82990336418151855469e-01) (403, -5.25800824165344238281e-01) (404, -8.06920379400253295898e-02) (405, 1.09246717765927314758e-02) (406, 2.19694040715694427490e-02) (407, -2.84796237945556640625e-01) (408, -2.14108884334564208984e-01) (409, -1.25740662217140197754e-01) (410, -3.78304213285446166992e-01) (411, -4.46609407663345336914e-01) (412, -4.28005844354629516602e-01) (413, -3.85051071643829345703e-01) (414, -4.37018513679504394531e-01) (415, -2.38854616880416870117e-01) (416, -1.68688341975212097168e-01) (417, -1.80946320295333862305e-01) (418, -8.34189131855964660645e-02) (419, -4.23955209553241729736e-02) (420, 1.38343442231416702271e-02) (421, -5.37769049406051635742e-02) (422, -2.96951681375503540039e-02) (423, -1.81144788861274719238e-01) (424, -7.51299411058425903320e-02) (425, -3.42697978019714355469e-01) (426, 1.28425350412726402283e-02) (427, -9.48438793420791625977e-02) (428, 7.60025810450315475464e-03) (429, 4.01646159589290618896e-02) (430, -2.93629199266433715820e-01) (431, -2.10631534457206726074e-01) (432, -4.53326292335987091064e-02) (433, 3.43306809663772583008e-02) (434, 3.13915032893419265747e-03) (435, 1.28388339653611183167e-02) (436, -6.47502467036247253418e-02) (437, -7.60419666767120361328e-02) (438, -1.00911214947700500488e-01) (439, -1.05957485735416412354e-01) (440, -2.46541891247034072876e-02) (441, 1.06377370655536651611e-01) (442, -3.70217375457286834717e-02) (443, 1.29623502492904663086e-01) (444, -1.17622993886470794678e-01) (445, -2.86408334970474243164e-01) (446, -3.47385317087173461914e-01) (447, -3.76007050275802612305e-01) (448, -3.24017107486724853516e-01) (449, -5.42949922382831573486e-02) (450, 8.69312435388565063477e-02) (451, -8.84745270013809204102e-02) (452, -1.34119793772697448730e-01) (453, -1.10677145421504974365e-01) (454, -2.85423547029495239258e-01) (455, -2.56937801837921142578e-01) (456, -2.67549782991409301758e-01) (457, -1.19996257126331329346e-01) (458, 4.43554520606994628906e-02) (459, -1.14326678216457366943e-01) (460, -1.35128259658813476562e-01) (461, -5.53161680698394775391e-01) (462, -3.03253885358572006226e-02) (463, -3.40166091918945312500e-02) (464, -1.00593224167823791504e-01) (465, -1.34902939200401306152e-01) (466, -4.06509578227996826172e-01) (467, -1.33195966482162475586e-01) (468, 1.22341727837920188904e-02) (469, 3.64298559725284576416e-02) (470, 5.87672321125864982605e-03) (471, -4.52119149267673492432e-02) (472, -1.35266602039337158203e-01) (473, -1.93024203181266784668e-01) (474, -1.04203149676322937012e-01) (475, -8.96999537944793701172e-02) (476, 6.02644495666027069092e-02) (477, -1.53107190132141113281e+00) (478, -1.77780055999755859375e+00) (479, -4.58928680419921875000e+00) (480, -1.40822818502783775330e-02) (481, -6.04580461978912353516e-01) (482, -4.13138478994369506836e-01) (483, -1.14986293017864227295e-01) (484, -1.16034550592303276062e-02) (485, -6.50971889495849609375e-01) (486, -6.64400756359100341797e-01) (487, 2.69059874117374420166e-02) (488, -1.28866404294967651367e-01) (489, -1.18896953761577606201e-01) (490, -9.56433173269033432007e-03) (491, 4.56860624253749847412e-02) (492, -1.28199845552444458008e-01) (493, -1.66341185569763183594e-01) (494, -1.41720935702323913574e-01) (495, 1.90829581697471439838e-04) (496, 5.19571080803871154785e-02) (497, 5.35721052438020706177e-03) (498, -3.76194387674331665039e-01) (499, -2.51119583845138549805e-01) (500, -3.62105399370193481445e-01) (501, -6.24916963279247283936e-02) (502, -1.31117284297943115234e-01) (503, -5.48428595066070556641e-02) (504, -7.55410492420196533203e-01) (505, -9.35432836413383483887e-02) (506, -7.94359147548675537109e-02) (507, 2.33910586684942245483e-02) (508, 1.19559736922383308411e-02) (509, -3.86571049690246582031e-01) (510, -5.46612069010734558105e-02) (511, -9.32266861200332641602e-02) (512, -4.72976919263601303101e-03) (0, 3.94019454717636108398e-01) (1, 4.25072342157363891602e-01) (2, 3.20366561412811279297e-01) (3, 4.08446609973907470703e-01) (4, 2.81332969665527343750e-01) (5, 4.52994972467422485352e-01) (6, 3.61656874418258666992e-01) (7, 3.75528514385223388672e-01) (8, 4.83332902193069458008e-01) (9, 4.70712929964065551758e-01) (10, 5.89832782745361328125e-01) (11, 5.40719747543334960938e-01) (12, 3.54727864265441894531e-01) (13, 3.67106586694717407227e-01) (14, 2.89916574954986572266e-01) (15, 4.35325622558593750000e-01) (16, 6.11213207244873046875e-01) (17, 6.50420367717742919922e-01) (18, 4.75257962942123413086e-01) (19, 4.76720035076141357422e-01) (20, 5.16523420810699462891e-01) (21, 5.83298265933990478516e-01) (22, 7.87652492523193359375e-01) (23, 6.20294451713562011719e-01) (24, 3.61207365989685058594e-01) (25, 3.33902537822723388672e-01) (26, 6.10042870044708251953e-01) (27, 3.90178769826889038086e-01) (28, 4.33525472879409790039e-01) (29, 6.29613339900970458984e-01) (30, 6.71564757823944091797e-01) (31, 3.38857859373092651367e-01) (32, 3.77971261739730834961e-01) (33, 3.40653598308563232422e-01) (34, 4.35900539159774780273e-01) (35, 5.80400526523590087891e-01) (36, 1.23378479480743408203e+00) (37, 1.52454280853271484375e+00) (38, 1.67033505439758300781e+00) (39, 1.03780794143676757812e+00) (40, 1.21564495563507080078e+00) (41, 1.68624234199523925781e+00) (42, 2.92826682329177856445e-01) (43, 4.42120909690856933594e-01) (44, 3.69259208440780639648e-01) (45, 3.28340560197830200195e-01) (46, 3.92825305461883544922e-01) (47, 2.89994865655899047852e-01) (48, 3.72641295194625854492e-01) (49, -1.57420128583908081055e-01) (50, -9.35241356492042541504e-02) (51, 9.52244222164154052734e-01) (52, 3.09208601713180541992e-01) (53, 4.29684996604919433594e-01) (54, 4.15802627801895141602e-01) (55, 4.46426212787628173828e-01) (56, 4.24249082803726196289e-01) (57, 2.42974102497100830078e-01) (58, 3.16546946763992309570e-01) (59, 3.77319753170013427734e-01) (60, 4.33913975954055786133e-01) (61, 3.35081338882446289062e-01) (62, 1.10278677940368652344e+00) (63, 5.00590145587921142578e-01) (64, 3.96260738372802734375e-01) (65, 3.73753964900970458984e-01) (66, 4.33169603347778320312e-01) (67, 5.52121341228485107422e-01) (68, 2.38837555050849914551e-01) (69, 3.35336506366729736328e-01) (70, 3.76076161861419677734e-01) (71, 3.90628784894943237305e-01) (72, 3.66897493600845336914e-01) (73, 4.91022199392318725586e-01) (74, 4.66674387454986572266e-01) (75, 4.23939168453216552734e-01) (76, 3.79811614751815795898e-01) (77, 3.71056228876113891602e-01) (78, 4.01761293411254882812e-01) (79, 4.66831475496292114258e-01) (80, 3.95726531744003295898e-01) (81, 4.67304915189743041992e-01) (82, 4.87026393413543701172e-01) (83, 2.62275874614715576172e-01) (84, 3.90156924724578857422e-01) (85, 4.74816799163818359375e-01) (86, 6.48884356021881103516e-01) (87, 4.21044111251831054688e-01) (88, 3.52896779775619506836e-01) (89, 3.28819215297698974609e-01) (90, 3.89787405729293823242e-01) (91, 4.39240306615829467773e-01) (92, 2.06229701638221740723e-01) (93, 3.68575960397720336914e-01) (94, 5.10876297950744628906e-01) (95, 6.05271875858306884766e-01) (96, 6.63711726665496826172e-01) (97, 5.78571557998657226562e-01) (98, 3.20612549781799316406e-01) (99, 3.86252969503402709961e-01) (100, 4.64553683996200561523e-01) (101, 1.54953062534332275391e+00) (102, 9.57463383674621582031e-01) (103, 9.96497440338134765625e+00) (104, 8.77377605438232421875e+00) (105, 9.81823921203613281250e+00) (106, 3.85498213768005371094e+00) (107, 1.63960325717926025391e+00) (108, 3.06830972433090209961e-01) (109, 3.62933039665222167969e-01) (110, 1.18283025920391082764e-01) (111, -1.46129524707794189453e+00) (112, -4.00986003875732421875e+00) (113, 3.59617054462432861328e-01) (114, 4.84072834253311157227e-01) (115, 4.68325823545455932617e-01) (116, 3.92384380102157592773e-01) (117, 4.60060596466064453125e-01) (118, 2.77422726154327392578e-01) (119, 5.49625456333160400391e-01) (120, 3.32187145948410034180e-01) (121, 4.51578289270401000977e-01) (122, 4.00405913591384887695e-01) (123, 1.99657872319221496582e-01) (124, 1.80945143103599548340e-01) (125, 4.27284002304077148438e-01) (126, 4.96127128601074218750e-01) (127, 5.69137036800384521484e-01) (128, 3.62528979778289794922e-01) (129, 4.98017400503158569336e-01) (130, 4.90533202886581420898e-01) (131, 3.60787004232406616211e-01) (132, -1.15814231336116790771e-01) (133, 4.60108786821365356445e-01) (134, 4.37889993190765380859e-01) (135, 4.78259354829788208008e-01) (136, 4.80858385562896728516e-01) (137, 1.84783625602722167969e+00) (138, 1.75462949275970458984e+00) (139, 1.71005618572235107422e+00) (140, 7.96259760856628417969e-01) (141, 5.41687846183776855469e-01) (142, 4.15867149829864501953e-01) (143, 4.40282970666885375977e-01) (144, 4.68899786472320556641e-01) (145, 2.96230047941207885742e-01) (146, 2.93795138597488403320e-01) (147, 4.59048599004745483398e-01) (148, 4.36935901641845703125e-01) (149, 1.12317001819610595703e+00) (150, 1.13641023635864257812e+00) (151, 1.07950603961944580078e+00) (152, 3.92007976770401000977e-01) (153, 3.21437239646911621094e-01) (154, 4.73315775394439697266e-01) (155, 2.35294148325920104980e-01) (156, 1.23516535758972167969e+00) (157, 1.33755314350128173828e+00) (158, 4.83420491218566894531e-01) (159, 3.63535761833190917969e-01) (160, 1.25567746162414550781e+00) (161, 1.78706765174865722656e+00) (162, 3.09930980205535888672e-01) (163, 3.55412930250167846680e-01) (164, 4.24001723527908325195e-01) (165, 6.99261486530303955078e-01) (166, 4.77219969034194946289e-01) (167, 8.18071603775024414062e-01) (168, 9.20225381851196289062e-01) (169, 4.03335183858871459961e-01) (170, 4.72397983074188232422e-01) (171, 3.83426100015640258789e-01) (172, 3.49544852972030639648e-01) (173, 4.55117076635360717773e-01) (174, 4.12439584732055664062e-01) (175, 3.79829168319702148438e-01) (176, 5.60551047325134277344e-01) (177, 7.55267262458801269531e-01) (178, 8.14084947109222412109e-01) (179, 7.12099909782409667969e-01) (180, 6.68963849544525146484e-01) (181, 5.92349350452423095703e-01) (182, 5.27866482734680175781e-01) (183, 3.91727238893508911133e-01) (184, 4.75202560424804687500e-01) (185, 7.44388282299041748047e-01) (186, 6.67340457439422607422e-01) (187, 5.75775921344757080078e-01) (188, 5.19865453243255615234e-01) (189, 7.62177228927612304688e-01) (190, 3.99608433246612548828e-01) (191, 4.83269155025482177734e-01) (192, 3.33125531673431396484e-01) (193, 3.05405288934707641602e-01) (194, 3.95095735788345336914e-01) (195, 4.41441446542739868164e-01) (196, 3.09924572706222534180e-01) (197, 3.95049273967742919922e-01) (198, 3.17726373672485351562e-01) (199, 4.73364144563674926758e-01) (200, 6.07069909572601318359e-01) (201, 1.06642711162567138672e+00) (202, 8.42238962650299072266e-01) (203, 7.65993595123291015625e-01) (204, 1.83343660831451416016e+00) (205, 4.33929264545440673828e-01) (206, 3.62924009561538696289e-01) (207, 4.69194531440734863281e-01) (208, 5.37556171417236328125e-01) (209, 5.29691398143768310547e-01) (210, 5.47971546649932861328e-01) (211, 5.56330382823944091797e-01) (212, 4.54696387052536010742e-01) (213, 4.00129318237304687500e-01) (214, 4.92271333932876586914e-01) (215, 5.12303888797760009766e-01) (216, 5.87666273117065429688e-01) (217, 3.66431027650833129883e-01) (218, 2.87609666585922241211e-01) (219, 4.05130565166473388672e-01) (220, 3.45771044492721557617e-01) (221, 3.17010045051574707031e-01) (222, 3.15508782863616943359e-01) (223, 3.75141769647598266602e-01) (224, 5.11247456073760986328e-01) (225, 5.61643421649932861328e-01) (226, 5.60262322425842285156e-01) (227, 4.46515232324600219727e-01) (228, 6.56521260738372802734e-01) (229, 3.12057167291641235352e-01) (230, 2.84234553575515747070e-01) (231, 3.18633347749710083008e-01) (232, -2.67200142145156860352e-01) (233, -2.09653954952955245972e-02) (234, -4.02374453842639923096e-02) (235, 1.53868362307548522949e-01) (236, 7.07229524850845336914e-02) (237, 6.57734692096710205078e-01) (238, 5.18518149852752685547e-01) (239, 4.84879314899444580078e-01) (240, 5.63237249851226806641e-01) (241, 6.15299165248870849609e-01) (242, 8.34246993064880371094e-01) (243, 7.22202420234680175781e-01) (244, 4.35033977031707763672e-01) (245, 4.06523078680038452148e-01) (246, 2.50989466905593872070e-01) (247, 6.92602038383483886719e-01) (248, 3.04553329944610595703e-01) (249, 3.03425133228302001953e-01) (250, 2.96895563602447509766e-01) (251, 2.89921432733535766602e-01) (252, 3.32120269536972045898e-01) (253, 9.50151324272155761719e-01) (254, 1.29236662387847900391e+00) (255, 1.06781673431396484375e+00) (256, 1.44772613048553466797e+00) (257, 4.24036294221878051758e-01) (258, 4.08413708209991455078e-01) (259, 4.78322207927703857422e-01) (260, 5.24930298328399658203e-01) (261, 4.42959815263748168945e-01) (262, 4.58133608102798461914e-01) (263, 4.40239936113357543945e-01) (264, 3.30794960260391235352e-01) (265, 3.66000413894653320312e-01) (266, 5.49178421497344970703e-01) (267, 6.04422092437744140625e-01) (268, 3.25511455535888671875e-01) (269, 4.37519013881683349609e-01) (270, 4.05943959951400756836e-01) (271, 7.98685848712921142578e-01) (272, 2.83136963844299316406e-01) (273, 3.64457517862319946289e-01) (274, 2.36368939280509948730e-01) (275, 5.02029001712799072266e-01) (276, 4.90136623382568359375e-01) (277, -2.49540247023105621338e-02) (278, 4.06440287828445434570e-01) (279, 7.76051938533782958984e-01) (280, 5.20754396915435791016e-01) (281, 3.52729409933090209961e-01) (282, 6.25932157039642333984e-01) (283, 3.91491383314132690430e-01) (284, 3.89473110437393188477e-01) (285, 4.17869269847869873047e-01) (286, 4.54285770654678344727e-01) (287, 3.67132484912872314453e-01) (288, 3.40445250272750854492e-01) (289, 3.66687655448913574219e-01) (290, 3.35626870393753051758e-01) (291, 3.26781690120697021484e-01) (292, 2.93167144060134887695e-01) (293, 1.00917196273803710938e+00) (294, 3.17249029874801635742e-01) (295, 3.58331680297851562500e-01) (296, 4.06339734792709350586e-01) (297, 4.35668021440505981445e-01) (298, 3.25528711080551147461e-01) (299, 4.66991454362869262695e-01) (300, 4.41329121589660644531e-01) (301, 4.60118323564529418945e-01) (302, 4.40914809703826904297e-01) (303, 3.76227438449859619141e-01) (304, 3.31118196249008178711e-01) (305, 1.11218735575675964355e-01) (306, 3.88409882783889770508e-01) (307, 2.81880170106887817383e-01) (308, 3.21619123220443725586e-01) (309, 4.73027020692825317383e-01) (310, 2.65205711126327514648e-01) (311, -1.02562829852104187012e-01) (312, 3.45753967761993408203e-01) (313, 3.69927018880844116211e-01) (314, 1.09093654155731201172e+00) (315, 1.39221712946891784668e-01) (316, 6.18051946163177490234e-01) (317, 4.81233566999435424805e-01) (318, 5.70170462131500244141e-01) (319, 4.94083434343338012695e-01) (320, 9.63940441608428955078e-01) (321, 1.17785012722015380859e+00) (322, 3.80248367786407470703e-01) (323, 3.43846231698989868164e-01) (324, 4.80640292167663574219e-01) (325, 1.92345118522644042969e+00) (326, 1.93060171604156494141e+00) (327, 9.35271143913269042969e-01) (328, 1.00381934642791748047e+00) (329, 1.09119534492492675781e+00) (330, 6.49474561214447021484e-01) (331, 4.42008733749389648438e-01) (332, 4.34164822101593017578e-01) (333, 3.02413463592529296875e-01) (334, 1.48456001281738281250e+00) (335, 4.83746170997619628906e-01) (336, 5.11002659797668457031e-01) (337, 5.86372554302215576172e-01) (338, 6.79822921752929687500e-01) (339, 3.20871710777282714844e-01) (340, 6.03207230567932128906e-01) (341, 7.13793635368347167969e-01) (342, 5.28705537319183349609e-01) (343, 6.36726915836334228516e-01) (344, 3.44902068376541137695e-01) (345, 1.12203574180603027344e+00) (346, 1.18300044536590576172e+00) (347, 6.50716900825500488281e-01) (348, 1.69278609752655029297e+00) (349, 9.64216470718383789062e-01) (350, 4.46049451828002929688e-01) (351, 6.95939302444458007812e-01) (352, 1.38882791996002197266e+00) (353, 5.61124026775360107422e-01) (354, 5.92056989669799804688e-01) (355, 5.34826815128326416016e-01) (356, 3.21375340223312377930e-01) (357, 3.80487471818923950195e-01) (358, 4.94717180728912353516e-01) (359, 3.68880867958068847656e-01) (360, 3.27027440071105957031e-01) (361, 7.81957864761352539062e-01) (362, 4.95221167802810668945e-01) (363, 1.30381238460540771484e+00) (364, 1.82782161235809326172e+00) (365, 7.60602831840515136719e-01) (366, 5.50266265869140625000e-01) (367, 5.81377208232879638672e-01) (368, 5.90991795063018798828e-01) (369, 5.60385406017303466797e-01) (370, 4.10760819911956787109e-01) (371, 1.25931549072265625000e+00) (372, 5.88581621646881103516e-01) (373, 3.85783910751342773438e-01) (374, 2.01816648244857788086e-01) (375, -2.94708530418574810028e-04) (376, 1.51574862003326416016e+00) (377, 5.86145520210266113281e-01) (378, 4.45413351058959960938e-01) (379, 3.29552382230758666992e-01) (380, 2.96943783760070800781e-01) (381, 1.01655459403991699219e+00) (382, 1.39369225502014160156e+00) (383, 1.71478211879730224609e+00) (384, 1.73247396945953369141e+00) (385, 1.33834350109100341797e+00) (386, 4.32568520307540893555e-01) (387, 6.26274883747100830078e-01) (388, 4.69243556261062622070e-01) (389, 3.12694638967514038086e-01) (390, 4.79748219251632690430e-01) (391, 4.55938100814819335938e-01) (392, 6.86949014663696289062e-01) (393, 5.50031363964080810547e-01) (394, 4.36172157526016235352e-01) (395, 4.39429014921188354492e-01) (396, 4.57972109317779541016e-01) (397, 3.02193373441696166992e-01) (398, 6.04771077632904052734e-01) (399, 6.05415821075439453125e-01) (400, 3.89524608850479125977e-01) (401, 3.75427186489105224609e-01) (402, 5.26096642017364501953e-01) (403, 7.28657245635986328125e-01) (404, 4.70397204160690307617e-01) (405, 3.28610181808471679688e-01) (406, 2.97039657831192016602e-01) (407, 6.81581258773803710938e-01) (408, 6.92200541496276855469e-01) (409, 4.93671566247940063477e-01) (410, 1.12668156623840332031e+00) (411, 1.11975932121276855469e+00) (412, 1.22802710533142089844e+00) (413, 1.27163660526275634766e+00) (414, 7.12405741214752197266e-01) (415, 9.19582486152648925781e-01) (416, 4.97982978820800781250e-01) (417, 6.35663509368896484375e-01) (418, 3.82776916027069091797e-01) (419, 2.55950301885604858398e-01) (420, 3.20983707904815673828e-01) (421, 4.15979981422424316406e-01) (422, 4.89846885204315185547e-01) (423, 2.54180014133453369141e-01) (424, 2.79087483882904052734e-01) (425, 2.15991258621215820312e+00) (426, 5.16533792018890380859e-01) (427, 2.45306253433227539062e-01) (428, 4.40930604934692382812e-01) (429, 1.59140497446060180664e-01) (430, 2.37920045852661132812e-01) (431, 3.89674037694931030273e-01) (432, 3.80708098411560058594e-01) (433, 3.91680687665939331055e-01) (434, 2.85292178392410278320e-01) (435, 3.61242920160293579102e-01) (436, 4.48812395334243774414e-01) (437, 2.95855432748794555664e-01) (438, 3.44579786062240600586e-01) (439, 3.94410729408264160156e-01) (440, 4.17597979307174682617e-01) (441, 3.86884748935699462891e-01) (442, 4.23308819532394409180e-01) (443, 3.59102398157119750977e-01) (444, 3.38779509067535400391e-01) (445, 5.91905057430267333984e-01) (446, 6.94994986057281494141e-01) (447, 7.55009174346923828125e-01) (448, 7.35066473484039306641e-01) (449, 5.87033748626708984375e-01) (450, 3.83408427238464355469e-01) (451, 5.62709033489227294922e-01) (452, 3.68964135646820068359e-01) (453, 4.60716754198074340820e-01) (454, 6.01054489612579345703e-01) (455, 4.77329343557357788086e-01) (456, 4.73382949829101562500e-01) (457, 3.94174993038177490234e-01) (458, 3.46499294042587280273e-01) (459, 4.92012947797775268555e-01) (460, 6.23479664325714111328e-01) (461, 6.78131639957427978516e-01) (462, 4.08365160226821899414e-01) (463, 3.20763498544692993164e-01) (464, 3.40895384550094604492e-01) (465, 5.23810267448425292969e-01) (466, 1.45967471599578857422e+00) (467, 6.54513657093048095703e-01) (468, 4.76073980331420898438e-01) (469, 1.21637809276580810547e+00) (470, 4.20609384775161743164e-01) (471, 3.89738976955413818359e-01) (472, 3.51466327905654907227e-01) (473, 5.54116249084472656250e-01) (474, 4.80350226163864135742e-01) (475, 3.88968169689178466797e-01) (476, 3.57609659433364868164e-01) (477, 3.72895288467407226562e+00) (478, 3.17583274841308593750e+00) (479, 7.46859169006347656250e+00) (480, 3.40550869703292846680e-01) (481, 7.73958265781402587891e-01) (482, 9.64093863964080810547e-01) (483, 4.67704176902770996094e-01) (484, 4.88231062889099121094e-01) (485, 1.67413675785064697266e+00) (486, 1.27954483032226562500e+00) (487, 4.81639891862869262695e-01) (488, 3.14175307750701904297e-01) (489, 2.96838045120239257812e-01) (490, 4.76404875516891479492e-01) (491, 4.86969053745269775391e-01) (492, 5.78480780124664306641e-01) (493, 5.36315023899078369141e-01) (494, 3.54961931705474853516e-01) (495, 4.69192832708358764648e-01) (496, 3.46475541591644287109e-01) (497, 3.86099666357040405273e-01) (498, 5.28739929199218750000e-01) (499, 5.65034806728363037109e-01) (500, 3.23536396026611328125e-01) (501, 3.98766070604324340820e-01) (502, 3.81087720394134521484e-01) (503, 4.21260565519332885742e-01) (504, 9.68907594680786132812e-01) (505, 3.38748067617416381836e-01) (506, 3.66011440753936767578e-01) (507, 3.70093733072280883789e-01) (508, 3.86161327362060546875e-01) (509, 1.71098619699478149414e-01) (510, 2.75212556123733520508e-01) (511, 5.38902401924133300781e-01) (512, 3.81490200757980346680e-01) (0, -1.27099618315696716309e-01) (1, -5.86021803319454193115e-02) (2, -1.19378902018070220947e-01) (3, 2.05781888216733932495e-02) (4, -8.87501612305641174316e-02) (5, -1.49349421262741088867e-01) (6, -2.00502544641494750977e-01) (7, 3.84829542599618434906e-03) (8, -9.75097492337226867676e-02) (9, -1.14103041589260101318e-01) (10, 4.56624366343021392822e-02) (11, 1.83363094925880432129e-01) (12, -1.16353429853916168213e-01) (13, -1.25391840934753417969e-01) (14, -1.90252020955085754395e-01) (15, -7.23458081483840942383e-02) (16, 8.47450867295265197754e-02) (17, 4.75032031536102294922e-02) (18, -2.34232153161428868771e-04) (19, 1.68716475367546081543e-01) (20, 8.47830902785062789917e-03) (21, 1.62250414490699768066e-01) (22, 2.83855617046356201172e-01) (23, 1.27207517623901367188e-01) (24, 5.66259585320949554443e-02) (25, -4.05224561691284179688e-02) (26, 1.61495164036750793457e-01) (27, 6.01606629788875579834e-02) (28, -3.46363335847854614258e-03) (29, 2.23167240619659423828e-01) (30, 1.10431201756000518799e-01) (31, -1.75481468439102172852e-01) (32, -6.81480765342712402344e-02) (33, -1.62237156182527542114e-02) (34, -2.23082005977630615234e-02) (35, 2.08196192979812622070e-01) (36, 4.42860424518585205078e-01) (37, 3.86057883501052856445e-01) (38, 5.12832164764404296875e-01) (39, 4.00555044412612915039e-01) (40, 2.87879705429077148438e-01) (41, 6.08880400657653808594e-01) (42, -7.25945830345153808594e-02) (43, -1.02674521505832672119e-01) (44, -7.92922750115394592285e-02) (45, -7.32500776648521423340e-02) (46, -2.15641990303993225098e-01) (47, -4.04955558478832244873e-02) (48, 1.23654836788773536682e-02) (49, 2.90617734193801879883e-01) (50, 3.99451315402984619141e-01) (51, 5.27100086212158203125e-01) (52, -1.07798486948013305664e-01) (53, -2.54211612045764923096e-02) (54, 1.41879260540008544922e-01) (55, -3.13761569559574127197e-02) (56, 3.90056036412715911865e-02) (57, -3.52084971964359283447e-02) (58, -4.77448143064975738525e-02) (59, -1.14400801248848438263e-03) (60, -6.71246042475104331970e-03) (61, -1.46341100335121154785e-01) (62, 6.53489708900451660156e-01) (63, 5.78422211110591888428e-02) (64, 1.95964053273200988770e-03) (65, 1.10740579664707183838e-01) (66, -1.37780070304870605469e-01) (67, 8.65953415632247924805e-02) (68, -1.56017526984214782715e-01) (69, -9.14978757500648498535e-02) (70, -9.69550684094429016113e-02) (71, -7.84679278731346130371e-02) (72, -1.59901790320873260498e-02) (73, -1.03759795427322387695e-01) (74, 9.67817455530166625977e-02) (75, 3.64996306598186492920e-02) (76, 2.72081810981035232544e-02) (77, 3.66954319179058074951e-02) (78, -7.26967677474021911621e-02) (79, -2.27894703857600688934e-03) (80, -1.34594440460205078125e-01) (81, 4.18233387172222137451e-02) (82, 3.73653359711170196533e-02) (83, -4.10535335540771484375e-02) (84, -4.61430810391902923584e-02) (85, 1.95520475506782531738e-01) (86, 1.11279152333736419678e-01) (87, 4.34995852410793304443e-02) (88, 3.94173897802829742432e-02) (89, -1.28547504544258117676e-01) (90, -1.21651127934455871582e-01) (91, -7.04633295536041259766e-02) (92, -2.89090305566787719727e-01) (93, -1.47676914930343627930e-01) (94, 2.02021315693855285645e-01) (95, 1.60209834575653076172e-01) (96, 1.27884700894355773926e-01) (97, 1.43169343471527099609e-01) (98, -1.46128252148628234863e-01) (99, -1.00272186100482940674e-01) (100, 4.59149554371833801270e-02) (101, 5.74650764465332031250e-01) (102, 1.49628967046737670898e-01) (103, 4.06188631057739257812e+00) (104, 3.63060474395751953125e+00) (105, 3.98147463798522949219e+00) (106, 1.52750825881958007812e+00) (107, 5.99698960781097412109e-01) (108, -2.17298381030559539795e-02) (109, -1.68492153286933898926e-01) (110, -2.63181626796722412109e-01) (111, -2.53123611211776733398e-01) (112, -1.45005977153778076172e+00) (113, -2.72126123309135437012e-02) (114, 1.01472241804003715515e-02) (115, -3.68831232190132141113e-02) (116, -3.00383344292640686035e-02) (117, -1.07755623757839202881e-01) (118, -1.61330774426460266113e-01) (119, 5.77213577926158905029e-02) (120, -4.95248958468437194824e-02) (121, -5.51843084394931793213e-02) (122, 4.26781885325908660889e-02) (123, -2.33142927289009094238e-01) (124, -1.98631301522254943848e-01) (125, 4.42100036889314651489e-03) (126, 6.14756383001804351807e-02) (127, 9.77322384715080261230e-02) (128, -5.21388314664363861084e-02) (129, 4.02186810970306396484e-02) (130, -2.40789856761693954468e-02) (131, -2.85198669880628585815e-02) (132, 2.61652201414108276367e-01) (133, -1.22809708118438720703e-01) (134, -6.49441853165626525879e-02) (135, -3.60214486718177795410e-02) (136, -9.62599739432334899902e-02) (137, 5.05883276462554931641e-01) (138, 5.65757811069488525391e-01) (139, 4.96727943420410156250e-01) (140, 3.49029421806335449219e-01) (141, -2.24119480699300765991e-02) (142, -1.66974309831857681274e-02) (143, 1.24146632850170135498e-01) (144, 1.61676824092864990234e-01) (145, 3.28965708613395690918e-02) (146, -8.35510641336441040039e-02) (147, -2.65982411801815032959e-02) (148, 5.03396093845367431641e-02) (149, 3.26879620552062988281e-01) (150, 3.83288174867630004883e-01) (151, 3.70050489902496337891e-01) (152, -4.28561419248580932617e-02) (153, -1.26122266054153442383e-01) (154, -4.00253050029277801514e-02) (155, -1.35146483778953552246e-01) (156, 3.50554198026657104492e-01) (157, 4.08238947391510009766e-01) (158, -1.15011259913444519043e-01) (159, -3.35563942790031433105e-02) (160, 4.17192101478576660156e-01) (161, 5.24182856082916259766e-01) (162, -3.24683599174022674561e-02) (163, -2.89096366614103317261e-02) (164, 1.66271980851888656616e-02) (165, 9.80252698063850402832e-02) (166, 2.22616419196128845215e-01) (167, 4.77273285388946533203e-01) (168, 4.02904778718948364258e-01) (169, -3.39029766619205474854e-02) (170, -8.57771262526512145996e-02) (171, -1.36837586760520935059e-01) (172, -7.79126584529876708984e-03) (173, -9.16228815913200378418e-02) (174, 2.00385060161352157593e-02) (175, -4.07310351729393005371e-02) (176, -4.97115589678287506104e-03) (177, 2.29517892003059387207e-01) (178, 3.51874262094497680664e-01) (179, 2.03982114791870117188e-01) (180, 2.15113833546638488770e-01) (181, 2.40589991211891174316e-01) (182, 1.39439061284065246582e-01) (183, -5.29849715530872344971e-02) (184, -8.01151022315025329590e-02) (185, 2.86619544029235839844e-01) (186, 2.96184390783309936523e-01) (187, 2.38032087683677673340e-01) (188, 2.02104285359382629395e-01) (189, 2.37179279327392578125e-01) (190, 1.08774036169052124023e-01) (191, 9.17190089821815490723e-02) (192, -1.63267757743597030640e-02) (193, -8.38290899991989135742e-02) (194, -1.36776804924011230469e-01) (195, -7.13860988616943359375e-02) (196, -3.61411906778812408447e-02) (197, -1.47427707910537719727e-01) (198, -9.15954038500785827637e-02) (199, -1.46140784025192260742e-01) (200, 7.13511258363723754883e-02) (201, 5.42934000492095947266e-01) (202, 3.46465080976486206055e-01) (203, 3.16937655210494995117e-01) (204, 5.96372187137603759766e-01) (205, -1.02432072162628173828e-02) (206, -6.26909285783767700195e-02) (207, 1.21435374021530151367e-01) (208, 1.16339093074202537537e-02) (209, 8.58669951558113098145e-02) (210, 1.36094346642494201660e-01) (211, 2.20559611916542053223e-01) (212, -9.68840122222900390625e-02) (213, 4.38280850648880004883e-02) (214, -4.42103818058967590332e-02) (215, 4.94028329849243164062e-02) (216, 2.17596516013145446777e-01) (217, -9.66457501053810119629e-02) (218, -6.84731230139732360840e-02) (219, -3.81388477981090545654e-02) (220, 1.13855465315282344818e-03) (221, -8.64664763212203979492e-02) (222, -7.51147940754890441895e-02) (223, -7.41885975003242492676e-02) (224, 1.62534937262535095215e-01) (225, 8.23893770575523376465e-02) (226, 2.41347089409828186035e-01) (227, -4.66554565355181694031e-03) (228, 2.78788328170776367188e-01) (229, -1.72179579734802246094e-01) (230, -1.42452389001846313477e-01) (231, 4.94616888463497161865e-02) (232, 2.57064789533615112305e-01) (233, 3.88575941324234008789e-01) (234, 3.73259961605072021484e-01) (235, 4.95894193649291992188e-01) (236, 4.80091333389282226562e-01) (237, 2.01616659760475158691e-01) (238, 6.87827542424201965332e-02) (239, 1.24328367412090301514e-01) (240, 1.07296131551265716553e-01) (241, 1.97688862681388854980e-01) (242, 3.81922960281372070312e-01) (243, 3.58678817749023437500e-01) (244, -9.43174958229064941406e-02) (245, 6.22792765498161315918e-02) (246, -1.30870699882507324219e-01) (247, 2.36620470881462097168e-01) (248, -5.94158470630645751953e-02) (249, 8.36317148059606552124e-03) (250, 4.14903424680233001709e-02) (251, -1.74748182296752929688e-01) (252, -1.22418627142906188965e-01) (253, 2.28966638445854187012e-01) (254, 3.52827489376068115234e-01) (255, 3.47288131713867187500e-01) (256, 4.70945894718170166016e-01) (257, -1.22036404907703399658e-01) (258, 4.22578044235706329346e-02) (259, -9.32899415493011474609e-02) (260, -6.09111972153186798096e-02) (261, -1.06159195303916931152e-01) (262, -1.39209598302841186523e-01) (263, -6.55291229486465454102e-02) (264, -5.23120611906051635742e-02) (265, -6.21212199330329895020e-02) (266, 1.40686839818954467773e-01) (267, 1.85741305351257324219e-01) (268, -1.14727489650249481201e-01) (269, 2.32953410595655441284e-02) (270, -1.29286587238311767578e-01) (271, 3.46033453941345214844e-01) (272, -1.04225203394889831543e-01) (273, 2.13758982717990875244e-02) (274, -1.35331660509109497070e-01) (275, 2.28755250573158264160e-01) (276, 4.68048229813575744629e-02) (277, -3.35075736045837402344e-01) (278, -7.88133889436721801758e-02) (279, 2.11723893880844116211e-01) (280, 1.59569308161735534668e-01) (281, -1.44332900643348693848e-01) (282, 2.40531191229820251465e-01) (283, 1.97688993066549301147e-02) (284, -6.67777583003044128418e-02) (285, 5.31083019450306892395e-03) (286, -3.26877832412719726562e-02) (287, -8.35591852664947509766e-02) (288, -1.74186497926712036133e-01) (289, -4.23151701688766479492e-02) (290, -4.32366877794265747070e-02) (291, -1.30160301923751831055e-01) (292, -2.13585142046213150024e-02) (293, 6.76687836647033691406e-01) (294, -1.73868192359805107117e-03) (295, -9.57719683647155761719e-02) (296, -1.10265851020812988281e-01) (297, -4.68694828450679779053e-02) (298, -1.02784335613250732422e-01) (299, -4.58536036312580108643e-02) (300, -1.14325322210788726807e-02) (301, -5.89559152722358703613e-02) (302, -8.01098942756652832031e-02) (303, -1.98972672224044799805e-02) (304, -8.70389416813850402832e-02) (305, 5.50494551658630371094e-01) (306, -3.69895882904529571533e-02) (307, -1.36163115501403808594e-01) (308, 6.77259918302297592163e-03) (309, 6.74487557262182235718e-03) (310, -7.29346275329589843750e-02) (311, 3.52908641099929809570e-01) (312, -1.73963397741317749023e-01) (313, 9.01566073298454284668e-02) (314, 2.19963565468788146973e-01) (315, -1.92345172166824340820e-01) (316, 1.69720083475112915039e-01) (317, 7.85057917237281799316e-02) (318, 2.31506988406181335449e-01) (319, 1.75120636820793151855e-01) (320, 5.95805168151855468750e-01) (321, 7.04328179359436035156e-01) (322, 4.90262396633625030518e-02) (323, -9.48148220777511596680e-02) (324, -8.13704803586006164551e-02) (325, 6.87479734420776367188e-01) (326, 6.56419992446899414062e-01) (327, 2.34382510185241699219e-01) (328, 5.57918071746826171875e-01) (329, 6.57622754573822021484e-01) (330, 1.45481765270233154297e-01) (331, -1.31790610030293464661e-02) (332, -7.46111646294593811035e-02) (333, -7.80758634209632873535e-02) (334, 1.07708919048309326172e+00) (335, 1.43362965900450944901e-03) (336, 1.25784769654273986816e-01) (337, 1.98179051280021667480e-01) (338, 2.23463773727416992188e-01) (339, -1.35190263390541076660e-01) (340, 1.92359551787376403809e-01) (341, 1.63063034415245056152e-01) (342, 8.46099182963371276855e-02) (343, 1.50160670280456542969e-01) (344, -4.15982268750667572021e-02) (345, 3.85657548904418945312e-01) (346, 2.46717557311058044434e-01) (347, 5.98848797380924224854e-02) (348, 6.36032104492187500000e-01) (349, 1.87788799405097961426e-01) (350, -1.97446737438440322876e-02) (351, 2.53225833177566528320e-01) (352, 4.13051337003707885742e-01) (353, 7.42222787812352180481e-03) (354, 1.54682174324989318848e-01) (355, 1.18560627102851867676e-01) (356, 4.77973464876413345337e-03) (357, -6.16519711911678314209e-02) (358, 8.73637646436691284180e-02) (359, 5.03812432289123535156e-02) (360, -1.04192450642585754395e-01) (361, 3.15137535333633422852e-01) (362, -3.35420519113540649414e-02) (363, 3.51834237575531005859e-01) (364, 1.42451333999633789062e+00) (365, 2.68642485141754150391e-01) (366, 1.65756568312644958496e-02) (367, 3.68516519665718078613e-02) (368, 1.54286146163940429688e-01) (369, 1.39344446361064910889e-02) (370, -1.45825922489166259766e-01) (371, 2.58459031581878662109e-01) (372, 1.35804399847984313965e-01) (373, 2.91034728288650512695e-02) (374, 6.44255518913269042969e-01) (375, 4.92428153753280639648e-01) (376, 4.89880263805389404297e-01) (377, 1.00462678819894790649e-02) (378, -9.59635078907012939453e-02) (379, -1.75538584589958190918e-02) (380, -1.04350812733173370361e-01) (381, 1.73587679862976074219e-01) (382, 3.31218004226684570312e-01) (383, 6.78138256072998046875e-01) (384, 5.10174334049224853516e-01) (385, 4.85344022512435913086e-01) (386, 3.81304835900664329529e-03) (387, 8.00742506980895996094e-02) (388, -6.77176937460899353027e-02) (389, -7.94148966670036315918e-02) (390, -1.40577733516693115234e-01) (391, -6.86153769493103027344e-02) (392, 7.20190629363059997559e-02) (393, 4.47228737175464630127e-02) (394, 6.06144256889820098877e-02) (395, 6.55649676918983459473e-02) (396, -9.54791754484176635742e-02) (397, -1.63424998521804809570e-01) (398, 1.30009740591049194336e-01) (399, 2.59439200162887573242e-01) (400, -1.77581176161766052246e-01) (401, -1.14491423591971397400e-02) (402, 2.11239233613014221191e-02) (403, 3.52213740348815917969e-01) (404, -2.91602779179811477661e-02) (405, 2.20769997686147689819e-02) (406, -3.06777190417051315308e-02) (407, 1.53021395206451416016e-01) (408, 2.53566771745681762695e-01) (409, 6.78464695811271667480e-02) (410, 2.66933232545852661133e-01) (411, 2.94673115015029907227e-01) (412, 2.53140807151794433594e-01) (413, 3.12955439090728759766e-01) (414, 3.04456740617752075195e-01) (415, 3.44250798225402832031e-01) (416, 6.93047195672988891602e-02) (417, 4.29592765867710113525e-02) (418, -9.43482965230941772461e-02) (419, -6.56583532691001892090e-02) (420, -1.98280625045299530029e-02) (421, -3.82472649216651916504e-02) (422, -1.12718828022480010986e-01) (423, -5.72785511612892150879e-02) (424, -3.67238782346248626709e-02) (425, 7.44802653789520263672e-01) (426, 7.45557472109794616699e-02) (427, -1.80611595511436462402e-01) (428, -1.15184560418128967285e-01) (429, -1.13194786012172698975e-01) (430, -8.99729654192924499512e-02) (431, -9.01076197624206542969e-02) (432, -3.53767462074756622314e-02) (433, 3.22007201611995697021e-03) (434, -1.26930907368659973145e-01) (435, -1.10870480537414550781e-01) (436, -2.58505716919898986816e-03) (437, -8.65455949679017066956e-05) (438, -1.20924934744834899902e-02) (439, -5.09345941245555877686e-02) (440, -6.01696260273456573486e-02) (441, 4.20758724212646484375e-02) (442, 2.48818825930356979370e-02) (443, -2.03923117369413375854e-02) (444, -9.48133617639541625977e-02) (445, 2.99995094537734985352e-02) (446, 3.84166747331619262695e-01) (447, 3.36504250764846801758e-01) (448, 2.24458813667297363281e-01) (449, 4.26774062216281890869e-02) (450, -1.13106288015842437744e-01) (451, -4.43075448274612426758e-02) (452, 1.43821593374013900757e-02) (453, 5.63588924705982208252e-03) (454, 1.25892981886863708496e-01) (455, 5.06533011794090270996e-02) (456, 1.27805039286613464355e-01) (457, -7.89616107940673828125e-02) (458, -6.20942935347557067871e-02) (459, 3.43188010156154632568e-02) (460, 1.21602445840835571289e-01) (461, 1.85643449425697326660e-01) (462, -8.51111710071563720703e-02) (463, 4.68035787343978881836e-02) (464, -9.59843620657920837402e-02) (465, 6.26658052206039428711e-02) (466, 3.88597190380096435547e-01) (467, 2.09763422608375549316e-01) (468, -3.75697761774063110352e-02) (469, 4.09045547246932983398e-01) (470, -2.61695776134729385376e-02) (471, 4.23272810876369476318e-02) (472, 3.63804809749126434326e-02) (473, 1.53378292918205261230e-01) (474, -2.55675846710801124573e-03) (475, -1.15941584110260009766e-01) (476, 3.89699488878250122070e-02) (477, 1.34003853797912597656e+00) (478, 1.17401516437530517578e+00) (479, 2.87050652503967285156e+00) (480, -1.09536163508892059326e-01) (481, 4.42029744386672973633e-01) (482, 4.15426373481750488281e-01) (483, -9.33917090296745300293e-02) (484, -5.47784268856048583984e-02) (485, 1.09431135654449462891e+00) (486, 7.36199855804443359375e-01) (487, 3.76108847558498382568e-02) (488, -9.43158864974975585938e-02) (489, -1.06315622106194496155e-02) (490, 1.81217230856418609619e-02) (491, 2.01318208128213882446e-02) (492, 2.20512263476848602295e-02) (493, 2.85519864410161972046e-02) (494, 5.75698129832744598389e-02) (495, -8.08678790926933288574e-02) (496, 2.10133735090494155884e-02) (497, -1.68772697448730468750e-01) (498, -2.17908620834350585938e-02) (499, -3.00745163112878799438e-02) (500, -2.02084153890609741211e-01) (501, -1.54541298747062683105e-01) (502, -1.17201142013072967529e-01) (503, 2.45526563376188278198e-02) (504, 6.58862292766571044922e-01) (505, 1.32077978923916816711e-03) (506, -9.16069298982620239258e-02) (507, -1.45910233259201049805e-02) (508, -5.69988600909709930420e-02) (509, -1.21934279799461364746e-01) (510, -5.07181994616985321045e-02) (511, 8.96522998809814453125e-02) (512, 8.40514781884849071503e-04) (0, -2.33068823814392089844e-01) (1, -8.75099375844001770020e-02) (2, -2.62339919805526733398e-01) (3, -2.08832576870918273926e-01) (4, 1.35003581643104553223e-01) (5, 5.91087155044078826904e-02) (6, 1.57131388783454895020e-01) (7, 3.68610094301402568817e-03) (8, 1.49173915386199951172e-01) (9, 6.92282393574714660645e-02) (10, 9.50400307774543762207e-02) (11, 1.15769043564796447754e-01) (12, -1.44415348768234252930e-02) (13, 2.16212928295135498047e-01) (14, 5.86975924670696258545e-02) (15, 9.87773090600967407227e-02) (16, 1.21814109385013580322e-01) (17, 1.47339805960655212402e-01) (18, 9.12603959441184997559e-02) (19, 9.64764133095741271973e-02) (20, 5.37945628166198730469e-02) (21, -2.38448113203048706055e-01) (22, 3.46194267272949218750e-01) (23, -1.66494220495223999023e-01) (24, 3.66439558565616607666e-02) (25, 7.98521563410758972168e-02) (26, 7.47499540448188781738e-02) (27, -9.29285399615764617920e-03) (28, 2.33411237597465515137e-01) (29, 1.70646250247955322266e-01) (30, 2.49605059623718261719e-01) (31, 7.50258117914199829102e-02) (32, -8.20559412240982055664e-02) (33, 5.66450171172618865967e-02) (34, 1.07770845293998718262e-01) (35, 1.41688153147697448730e-01) (36, 2.55801916122436523438e-01) (37, 1.75051957368850708008e-01) (38, 1.66022166609764099121e-01) (39, 1.62652760744094848633e-01) (40, 1.65895655751228332520e-01) (41, 6.40319660305976867676e-02) (42, -5.69685161113739013672e-01) (43, -3.41378837823867797852e-01) (44, -1.05108439922332763672e-01) (45, -2.58519709110260009766e-01) (46, -5.83990871906280517578e-01) (47, -8.35138708353042602539e-02) (48, -1.36415418237447738647e-02) (49, -6.01594150066375732422e-01) (50, -4.10828053951263427734e-01) (51, 1.30350917577743530273e-01) (52, 1.22018247842788696289e-01) (53, 4.58582304418087005615e-02) (54, 1.26047641038894653320e-01) (55, -4.09466736018657684326e-02) (56, -6.73530995845794677734e-02) (57, -2.37061351537704467773e-01) (58, -1.84640541672706604004e-01) (59, -6.20163753628730773926e-02) (60, 3.00628133118152618408e-02) (61, 5.43411225080490112305e-02) (62, 4.36716340482234954834e-02) (63, 1.03700406849384307861e-01) (64, 4.99245375394821166992e-02) (65, -7.05252960324287414551e-02) (66, 2.39996433258056640625e-01) (67, 1.93662792444229125977e-01) (68, 9.53490138053894042969e-02) (69, 1.81725651025772094727e-01) (70, 1.76345229148864746094e-01) (71, 5.88857494294643402100e-02) (72, -7.55246058106422424316e-02) (73, -3.10371536761522293091e-02) (74, -8.09065550565719604492e-02) (75, -5.65085150301456451416e-02) (76, -9.22853276133537292480e-02) (77, -1.36902451515197753906e-01) (78, -1.14392615854740142822e-01) (79, 7.14696124196052551270e-02) (80, 5.01887388527393341064e-02) (81, -6.06717877089977264404e-02) (82, -7.85123277455568313599e-03) (83, -3.34406286478042602539e-01) (84, -4.62072789669036865234e-02) (85, -7.08084106445312500000e-01) (86, -7.73565113544464111328e-01) (87, -1.39439201354980468750e+00) (88, -5.20567819476127624512e-02) (89, -4.01488393545150756836e-02) (90, -2.09077566862106323242e-01) (91, -1.52986034750938415527e-01) (92, -1.61681219935417175293e-01) (93, 2.11224928498268127441e-01) (94, -3.21355938911437988281e-01) (95, -9.04474079608917236328e-01) (96, -5.15617690980434417725e-02) (97, -8.44430685043334960938e-01) (98, -4.09969061613082885742e-01) (99, -3.72578114271163940430e-01) (100, -2.49264955520629882812e-01) (101, -3.38395565748214721680e-01) (102, -1.86102822422981262207e-01) (103, 8.96555259823799133301e-02) (104, -6.71713724732398986816e-02) (105, -6.60647526383399963379e-02) (106, 7.31302723288536071777e-02) (107, -2.06272378563880920410e-01) (108, -3.71970832347869873047e-01) (109, -1.16771012544631958008e-02) (110, -1.48022389411926269531e+00) (111, 5.67931294441223144531e-01) (112, 4.39490407705307006836e-01) (113, 4.61495295166969299316e-02) (114, 3.66811938583850860596e-02) (115, -1.09760411083698272705e-01) (116, 3.34216514602303504944e-03) (117, -1.86369821429252624512e-01) (118, -1.31127521395683288574e-01) (119, -1.36667680740356445312e+00) (120, -2.51436084508895874023e-01) (121, -4.96656484901905059814e-02) (122, -1.27714976668357849121e-01) (123, -2.92078375816345214844e-01) (124, -8.35519671440124511719e-01) (125, -3.02918963134288787842e-02) (126, 1.03549556806683540344e-02) (127, 1.54329314827919006348e-01) (128, -1.70165265444666147232e-03) (129, -2.99930684268474578857e-02) (130, 1.65031030774116516113e-01) (131, -2.15474471449851989746e-01) (132, -1.50014042854309082031e+00) (133, -2.92780607938766479492e-01) (134, -3.01976203918457031250e-01) (135, -5.33162653446197509766e-02) (136, -5.50152361392974853516e-02) (137, -3.19338768720626831055e-01) (138, -2.53848403692245483398e-01) (139, -3.48912984132766723633e-01) (140, -6.07321187853813171387e-02) (141, 1.29595965147018432617e-01) (142, -9.19696816708892583847e-04) (143, 6.08868263661861419678e-02) (144, 4.27062064409255981445e-02) (145, 4.96318489313125610352e-02) (146, -2.72956099361181259155e-02) (147, -4.69129299744963645935e-03) (148, -6.67230635881423950195e-02) (149, -7.06143453717231750488e-02) (150, -1.18449859321117401123e-01) (151, -1.84612557291984558105e-01) (152, 1.64103686809539794922e-01) (153, 4.51665967702865600586e-02) (154, 7.70616009831428527832e-02) (155, 1.55761376023292541504e-01) (156, 6.87517449259757995605e-02) (157, -3.32608163356781005859e-01) (158, -1.10423970222473144531e+00) (159, -2.67009258270263671875e-01) (160, -3.45538109540939331055e-01) (161, -3.90604376792907714844e-01) (162, -2.27760151028633117676e-02) (163, -4.29599583148956298828e-02) (164, 3.81185533478856086731e-03) (165, 2.59311914443969726562e-01) (166, 1.34078621864318847656e-01) (167, 1.35556638240814208984e-01) (168, 1.17341000586748123169e-02) (169, -8.43913257122039794922e-02) (170, 4.42429296672344207764e-02) (171, -1.31223171949386596680e-01) (172, 6.33507668972015380859e-02) (173, -1.28146922215819358826e-02) (174, -6.99732229113578796387e-02) (175, -4.41431738436222076416e-02) (176, 6.05510473251342773438e-02) (177, 4.10850375890731811523e-01) (178, 3.78058642148971557617e-01) (179, 2.61140465736389160156e-01) (180, 1.71711996197700500488e-01) (181, 3.59580695629119873047e-01) (182, 2.63295084238052368164e-01) (183, -1.39331081882119178772e-02) (184, -1.32675677537918090820e-01) (185, 2.65831321477890014648e-01) (186, 2.77781575918197631836e-01) (187, 1.57423540949821472168e-01) (188, 6.77441209554672241211e-02) (189, -1.55999153852462768555e-01) (190, 1.10310614109039306641e-01) (191, 5.77489323914051055908e-02) (192, -3.63969653844833374023e-02) (193, -1.43117010593414306641e-01) (194, -5.80458380281925201416e-02) (195, -9.49295461177825927734e-02) (196, 7.73999467492103576660e-02) (197, 6.86429962515830993652e-02) (198, 6.82719573378562927246e-02) (199, -8.52213203907012939453e-02) (200, 2.41018533706665039062e-02) (201, 5.60282915830612182617e-02) (202, 1.28425329923629760742e-01) (203, 2.07421422004699707031e-01) (204, -2.56817042827606201172e-01) (205, 1.88375979661941528320e-01) (206, 1.23651191592216491699e-01) (207, 1.56179592013359069824e-01) (208, 1.36200055480003356934e-01) (209, 4.30066660046577453613e-02) (210, 1.60574510693550109863e-01) (211, 1.85530453920364379883e-01) (212, -1.01670883595943450928e-01) (213, 1.57617649529129266739e-03) (214, 5.46730756759643554688e-02) (215, -1.76049530506134033203e-01) (216, 6.32018372416496276855e-02) (217, 1.44301414489746093750e-01) (218, 1.97619453072547912598e-01) (219, 1.27133727073669433594e-01) (220, 4.66195084154605865479e-02) (221, -1.02116636931896209717e-01) (222, -4.40449677407741546631e-02) (223, -8.33087861537933349609e-02) (224, 7.82997608184814453125e-02) (225, 1.19397051632404327393e-01) (226, 2.20217287540435791016e-01) (227, 7.49154388904571533203e-02) (228, 2.88148820400238037109e-01) (229, 8.09078812599182128906e-02) (230, 1.49042770266532897949e-01) (231, 5.52923977375030517578e-03) (232, -1.23598670959472656250e+00) (233, -3.20402979850769042969e-01) (234, -3.01204293966293334961e-01) (235, 5.90353071689605712891e-01) (236, -4.10039305686950683594e-01) (237, 1.32502662017941474915e-02) (238, 1.78184479475021362305e-01) (239, -1.42744102049618959427e-04) (240, 3.12392730265855789185e-02) (241, 2.14534819126129150391e-01) (242, 3.69423210620880126953e-01) (243, 2.76796430349349975586e-01) (244, 2.29075744748115539551e-01) (245, 1.30080014467239379883e-01) (246, 2.09882661700248718262e-01) (247, 2.77823805809020996094e-01) (248, -7.52935260534286499023e-02) (249, -1.25612363219261169434e-01) (250, -1.65638044476509094238e-01) (251, -1.34242360945791006088e-03) (252, -2.88350656628608703613e-02) (253, 1.03613406419754028320e-01) (254, 2.54971802234649658203e-01) (255, 1.74990102648735046387e-01) (256, 2.36865326762199401855e-01) (257, -1.15818895399570465088e-01) (258, -1.32017247378826141357e-02) (259, -1.35520449839532375336e-03) (260, -2.10919201374053955078e-01) (261, 9.29039567708969116211e-02) (262, -1.50001540780067443848e-01) (263, -5.70644661784172058105e-02) (264, -3.56364585459232330322e-02) (265, 6.92273974418640136719e-02) (266, 5.36495372653007507324e-02) (267, -2.99967378377914428711e-02) (268, 9.75866243243217468262e-02) (269, -1.92369315773248672485e-02) (270, 7.04880207777023315430e-02) (271, 2.08323433995246887207e-01) (272, -3.16997140645980834961e-01) (273, -1.03168867528438568115e-01) (274, 1.78588479757308959961e-01) (275, -5.65635323524475097656e-01) (276, -1.25025555491447448730e-01) (277, -8.82950663566589355469e-01) (278, 7.30442032217979431152e-02) (279, 2.95798391103744506836e-01) (280, 1.00070029497146606445e-01) (281, -3.72479766607284545898e-01) (282, 2.80000627040863037109e-01) (283, -2.22228914499282836914e-02) (284, -1.61312922835350036621e-01) (285, -1.70502200722694396973e-01) (286, -6.74845278263092041016e-02) (287, -4.91243563592433929443e-02) (288, -1.21765583753585815430e-01) (289, -2.03466303646564483643e-02) (290, -2.53302045166492462158e-02) (291, -5.59698753058910369873e-02) (292, -1.20623633265495300293e-01) (293, 4.16135221719741821289e-01) (294, -6.61398991942405700684e-02) (295, -8.11606347560882568359e-02) (296, -1.18390791118144989014e-01) (297, -3.87748740613460540771e-02) (298, -5.54780177772045135498e-02) (299, -9.72504243254661560059e-02) (300, 2.54644881933927536011e-02) (301, -1.20138593018054962158e-01) (302, 3.26128234155476093292e-03) (303, -1.36064782738685607910e-01) (304, -8.32718536257743835449e-02) (305, -3.34477275609970092773e-01) (306, -1.82753931730985641479e-02) (307, -2.15188771486282348633e-01) (308, -7.15786218643188476562e-02) (309, -5.27837648987770080566e-02) (310, -2.69305765628814697266e-01) (311, -4.10094618797302246094e-01) (312, 2.22569137811660766602e-01) (313, 5.52576705813407897949e-02) (314, -3.08248549699783325195e-02) (315, 4.86981980502605438232e-02) (316, 2.11504340171813964844e-01) (317, 2.91405469179153442383e-02) (318, 9.24688503146171569824e-02) (319, 1.11874736845493316650e-01) (320, 2.59899258613586425781e-01) (321, 2.05327451229095458984e-01) (322, 5.67228570580482482910e-02) (323, -7.86940902471542358398e-02) (324, 6.73892870545387268066e-02) (325, 3.84422630071640014648e-01) (326, 4.60992008447647094727e-01) (327, 2.06406325101852416992e-01) (328, 1.80485650897026062012e-01) (329, 3.19376252591609954834e-02) (330, 3.68673503398895263672e-01) (331, 4.20187115669250488281e-01) (332, 2.61590421199798583984e-01) (333, 4.93383966386318206787e-03) (334, 4.82148975133895874023e-01) (335, -4.75368164479732513428e-02) (336, 1.69740825891494750977e-01) (337, 2.13685199618339538574e-01) (338, 2.53335118293762207031e-01) (339, -7.24877491593360900879e-02) (340, 1.66696146130561828613e-01) (341, 3.25059652328491210938e-01) (342, -3.43688577413558959961e-01) (343, -2.18182206153869628906e-01) (344, 1.70492567121982574463e-02) (345, 5.40163926780223846436e-03) (346, 1.43715515732765197754e-01) (347, -8.79162311553955078125e-01) (348, -2.32085481286048889160e-01) (349, 9.90174934267997741699e-02) (350, 1.20248258113861083984e-01) (351, -4.96763020753860473633e-01) (352, 1.89094498753547668457e-01) (353, 2.81263329088687896729e-02) (354, -4.21810485422611236572e-02) (355, -6.76121860742568969727e-02) (356, 3.08451056480407714844e-02) (357, 7.57755786180496215820e-02) (358, 1.06814846396446228027e-01) (359, -5.44635728001594543457e-02) (360, 9.85076799988746643066e-02) (361, 2.45470792055130004883e-01) (362, -9.18104276061058044434e-02) (363, 1.50236904621124267578e-01) (364, -2.65749543905258178711e-01) (365, -2.27544426918029785156e-01) (366, -2.99949795007705688477e-01) (367, -3.97847026586532592773e-01) (368, -7.77169167995452880859e-01) (369, -2.37374052405357360840e-01) (370, 1.89556062221527099609e-01) (371, 2.09382157772779464722e-02) (372, -5.39086103439331054688e-01) (373, 9.31395869702100753784e-03) (374, -1.38899958133697509766e+00) (375, -3.50083976984024047852e-01) (376, -9.78550016880035400391e-02) (377, -1.08496987819671630859e+00) (378, -1.35826300829648971558e-02) (379, 5.32049052417278289795e-02) (380, -3.07640135288238525391e-02) (381, 5.12114837765693664551e-02) (382, -2.09228564053773880005e-02) (383, -2.59611129760742187500e-01) (384, -3.67177069187164306641e-01) (385, 1.18923950940370559692e-02) (386, -1.99932619929313659668e-01) (387, 3.03044438362121582031e-01) (388, 1.04288179427385330200e-02) (389, -9.24999490380287170410e-02) (390, -3.01180463284254074097e-02) (391, -3.20262461900711059570e-02) (392, 2.31287822127342224121e-01) (393, -4.99073922634124755859e-01) (394, -7.10387676954269409180e-02) (395, 9.47099104523658752441e-02) (396, 2.58961017243564128876e-03) (397, -2.00248807668685913086e-01) (398, 1.78927972912788391113e-01) (399, 2.01075598597526550293e-01) (400, 5.88253773748874664307e-02) (401, -1.69196072965860366821e-02) (402, 1.61113571375608444214e-02) (403, -1.19240516796708106995e-02) (404, -5.51124475896358489990e-02) (405, -1.28569630905985832214e-02) (406, -5.85978552699089050293e-02) (407, 1.61881074309349060059e-01) (408, 1.91967368125915527344e-01) (409, -8.43944728374481201172e-01) (410, -1.08212709426879882812e-01) (411, -7.84698501229286193848e-02) (412, -9.35627445578575134277e-02) (413, 2.06779455766081809998e-03) (414, 1.41876578330993652344e-01) (415, 1.00434586405754089355e-01) (416, -2.14898601174354553223e-01) (417, -7.51589238643646240234e-01) (418, -1.22582865878939628601e-02) (419, -3.66707563400268554688e-01) (420, 2.21530664712190628052e-02) (421, 1.04443319141864776611e-01) (422, -3.66956897778436541557e-04) (423, -2.70107924938201904297e-01) (424, -3.41330021619796752930e-01) (425, 7.89237678050994873047e-01) (426, 1.81385636329650878906e-01) (427, -1.26347035169601440430e-01) (428, -1.96469157934188842773e-01) (429, 7.29852840304374694824e-02) (430, -1.31094992160797119141e+00) (431, -1.61933153867721557617e-02) (432, -2.23625764250755310059e-01) (433, -2.13165655732154846191e-01) (434, -1.74108281731605529785e-01) (435, -1.35765060782432556152e-01) (436, -1.76566854119300842285e-01) (437, -6.89817667007446289062e-02) (438, -1.63957811892032623291e-02) (439, -2.92762070894241333008e-01) (440, -1.74319550395011901855e-01) (441, 4.02446240186691284180e-01) (442, 4.86372917890548706055e-01) (443, 4.54196155071258544922e-01) (444, 3.67994643747806549072e-02) (445, 1.43161624670028686523e-01) (446, 4.06479269266128540039e-01) (447, 3.32919925451278686523e-01) (448, 2.21477657556533813477e-01) (449, -7.37051546573638916016e-01) (450, -1.19391724467277526855e-01) (451, -1.38304221630096435547e+00) (452, -1.87992990016937255859e+00) (453, 2.15063676238059997559e-01) (454, 9.17802751064300537109e-02) (455, 4.71196621656417846680e-02) (456, 2.05260694026947021484e-01) (457, -4.89244051277637481689e-02) (458, -9.98841524124145507812e-02) (459, -6.41759559512138366699e-02) (460, 1.85352757573127746582e-01) (461, 2.36244782805442810059e-01) (462, -5.94924092292785644531e-02) (463, -6.40550255775451660156e-02) (464, 7.87101313471794128418e-02) (465, -5.33815026283264160156e-01) (466, 8.79857242107391357422e-02) (467, -6.32829546928405761719e-01) (468, 6.97437068447470664978e-03) (469, 1.47555410861968994141e-01) (470, -1.86294913291931152344e-01) (471, 3.36284674704074859619e-02) (472, 2.16026827692985534668e-02) (473, -6.39971733093261718750e-01) (474, -5.21468557417392730713e-02) (475, 3.44099616631865501404e-03) (476, 3.88061761856079101562e-01) (477, 4.00395661592483520508e-01) (478, 3.20609837770462036133e-01) (479, 2.30187982320785522461e-01) (480, -1.91798999905586242676e-01) (481, -1.21063172817230224609e-01) (482, 5.38031496107578277588e-02) (483, 4.53921556472778320312e-02) (484, -5.87685070931911468506e-02) (485, 6.56226933002471923828e-01) (486, 4.70591455698013305664e-01) (487, 4.93980310857295989990e-02) (488, -1.40798971056938171387e-01) (489, -1.72326743602752685547e-01) (490, -1.41812905669212341309e-01) (491, 5.97584992647171020508e-02) (492, 9.40877869725227355957e-02) (493, -1.17509409785270690918e-01) (494, -3.91212431713938713074e-03) (495, -1.75009705126285552979e-02) (496, -1.12973697483539581299e-01) (497, -2.25278064608573913574e-01) (498, 5.00228628516197204590e-02) (499, 1.12925492227077484131e-01) (500, -1.21679447591304779053e-01) (501, -9.82527136802673339844e-02) (502, -9.39918160438537597656e-02) (503, 1.14525973913259804249e-04) (504, 1.98136821389198303223e-01) (505, 6.31729289889335632324e-02) (506, -1.18283266201615333557e-02) (507, 6.48259669542312622070e-02) (508, 6.78543522953987121582e-02) (509, -2.03511089086532592773e-01) (510, -1.17141425609588623047e-01) (511, 3.99266779422760009766e-02) (512, -4.03986386954784393311e-02) (0, -1.66231095790863037109e-01) (1, 6.37792982161045074463e-03) (2, -6.66952654719352722168e-02) (3, 2.53978502005338668823e-02) (4, -9.00260582566261291504e-02) (5, -1.02345198392868041992e-01) (6, -1.34640902280807495117e-01) (7, -9.90678295493125915527e-02) (8, -4.48130862787365913391e-03) (9, -5.78102655708789825439e-02) (10, -1.41598125919699668884e-02) (11, 1.65238276124000549316e-01) (12, -2.14192401617765426636e-02) (13, -2.48162373900413513184e-02) (14, -4.57192473113536834717e-02) (15, -7.84162282943725585938e-02) (16, 1.03593744337558746338e-01) (17, 1.36917322874069213867e-01) (18, 6.71400874853134155273e-02) (19, 2.16642525047063827515e-02) (20, 1.04787729680538177490e-01) (21, 2.14309558272361755371e-01) (22, 3.04573446512222290039e-01) (23, 1.08750492334365844727e-01) (24, -7.07338526844978332520e-02) (25, 2.98802033066749572754e-02) (26, 4.71640611067414283752e-03) (27, -4.41370382905006408691e-02) (28, -1.28658190369606018066e-01) (29, 1.64402693510055541992e-01) (30, 1.93361073732376098633e-01) (31, -1.39577612280845642090e-01) (32, -6.19326867163181304932e-02) (33, -8.06108340620994567871e-02) (34, 1.84152983129024505615e-02) (35, 2.13135719299316406250e-01) (36, 4.25477921962738037109e-01) (37, 4.92643028497695922852e-01) (38, 4.14853543043136596680e-01) (39, 2.76200950145721435547e-01) (40, 2.50531494617462158203e-01) (41, 4.50676262378692626953e-01) (42, -2.15072989463806152344e-01) (43, -4.43343147635459899902e-02) (44, -1.36514872312545776367e-01) (45, -7.11955651640892028809e-02) (46, -1.63372173905372619629e-01) (47, -7.93975889682769775391e-02) (48, -9.63967442512512207031e-02) (49, 4.10261929035186767578e-01) (50, 4.14025425910949707031e-01) (51, 5.15471160411834716797e-01) (52, -1.36094748973846435547e-01) (53, 1.01586021482944488525e-02) (54, 1.11487522721290588379e-01) (55, 1.31809422746300697327e-02) (56, -5.52999712526798248291e-02) (57, -2.26661041378974914551e-02) (58, -1.07015028595924377441e-01) (59, -2.04142071306705474854e-02) (60, -5.29347658157348632812e-02) (61, -1.22682385146617889404e-01) (62, 4.70617741346359252930e-01) (63, 2.17836022377014160156e-01) (64, -3.87685075402259826660e-02) (65, -3.19022275507450103760e-02) (66, 2.71521955728530883789e-02) (67, 2.84846350550651550293e-02) (68, -1.92603170871734619141e-01) (69, -2.45418865233659744263e-02) (70, -7.99789130687713623047e-02) (71, -1.51119112968444824219e-01) (72, -1.06833018362522125244e-01) (73, -2.89337523281574249268e-02) (74, 8.24703723192214965820e-02) (75, -1.11565917730331420898e-01) (76, -9.56807136535644531250e-02) (77, -1.25345692038536071777e-01) (78, -5.91367185115814208984e-02) (79, -3.36999222636222839355e-02) (80, 2.30077244341373443604e-02) (81, -1.30041897296905517578e-01) (82, -6.27801707014441490173e-03) (83, -1.11747384071350097656e-01) (84, 1.72830484807491302490e-02) (85, 1.21197171509265899658e-01) (86, 8.56126248836517333984e-02) (87, 1.26201575621962547302e-02) (88, -2.23630461841821670532e-02) (89, -1.40123954042792320251e-02) (90, -1.72370374202728271484e-01) (91, -1.78868904709815979004e-01) (92, -1.50367096066474914551e-01) (93, -1.81752160191535949707e-01) (94, 2.54010707139968872070e-01) (95, 5.76444044709205627441e-02) (96, 1.51725843548774719238e-01) (97, 1.59689381718635559082e-01) (98, -1.06648281216621398926e-01) (99, -1.13172695040702819824e-01) (100, 1.29794850945472717285e-01) (101, 4.31664973497390747070e-01) (102, 2.64760226011276245117e-01) (103, 4.05492258071899414062e+00) (104, 3.56308031082153320312e+00) (105, 3.88229417800903320312e+00) (106, 1.57247900962829589844e+00) (107, 6.09285295009613037109e-01) (108, -8.29507485032081604004e-02) (109, -1.09961315989494323730e-01) (110, -2.85016149282455444336e-01) (111, -3.56742769479751586914e-01) (112, -1.36339461803436279297e+00) (113, -9.29860472679138183594e-02) (114, 3.55470590293407440186e-02) (115, -8.67918804287910461426e-02) (116, 3.01608033478260040283e-02) (117, -1.07734464108943939209e-01) (118, -4.21194136142730712891e-02) (119, 5.61399869620800018311e-02) (120, -1.34440377354621887207e-01) (121, 1.38777149841189384460e-02) (122, -6.71876445412635803223e-02) (123, -1.79566785693168640137e-01) (124, -1.63085415959358215332e-01) (125, -5.31726069748401641846e-02) (126, 1.32763711735606193542e-02) (127, -4.28809151053428649902e-02) (128, -9.28091183304786682129e-02) (129, 3.19028198719024658203e-02) (130, 2.30915788561105728149e-02) (131, 1.46891484037041664124e-02) (132, 3.10755193233489990234e-01) (133, -1.60507068037986755371e-01) (134, -2.86988262087106704712e-02) (135, -5.44431246817111968994e-02) (136, -3.31370644271373748779e-02) (137, 5.86696207523345947266e-01) (138, 5.56922554969787597656e-01) (139, 4.98629927635192871094e-01) (140, 2.88776457309722900391e-01) (141, -5.30818328261375427246e-02) (142, 8.15862640738487243652e-02) (143, 1.50559216737747192383e-01) (144, 6.55285418033599853516e-02) (145, -4.25776541233062744141e-02) (146, -1.07047602534294128418e-01) (147, -6.25468492507934570312e-02) (148, 1.74332737922668457031e-01) (149, 4.22594726085662841797e-01) (150, 3.45758229494094848633e-01) (151, 2.09128305315971374512e-01) (152, -7.80790299177169799805e-02) (153, -2.73237019777297973633e-01) (154, 5.28581850230693817139e-02) (155, -1.34823486208915710449e-01) (156, 3.45846563577651977539e-01) (157, 2.52922028303146362305e-01) (158, -5.47131933271884918213e-02) (159, -7.89344161748886108398e-02) (160, 4.63134050369262695312e-01) (161, 6.32866978645324707031e-01) (162, -3.46374101936817169189e-02) (163, 5.65616376698017120361e-02) (164, -1.14189736545085906982e-01) (165, 1.32101967930793762207e-01) (166, 8.96658450365066528320e-02) (167, 4.09881919622421264648e-01) (168, 3.18479061126708984375e-01) (169, 2.43114214390516281128e-02) (170, 